3.975215293228803043e-02,-1.792570921126861172e-02,1.588564907207211038e-02,-1.099894836022028387e-02,-2.540598637706991195e-02,8.653840083347635534e-03,2.121972784500458439e-02,2.319895667424509006e-02,1.172519325443117412e-02,1.585705509847084443e-02,4.412586691622620745e-03,-9.959124363694147469e-03,-3.747383002250253767e-03,8.121415159361596720e-03,-3.914519740462386876e-02,-1.089815209189446722e-02,-7.393719578683240201e-03,-7.557554685844482950e-03,2.263739562405064909e-02,-2.368555749270142424e-02,2.405849502966513412e-02,-5.191427676076333132e-03,6.801590068114891051e-03,-5.621419232790553222e-03,-1.498808846587952083e-02,2.614560666236459378e-03,8.790382912041053154e-03,1.005550238784957626e-02,-1.031188105689927453e-03,-3.058426018116615699e-02,2.205056146180765439e-02,9.284753937067940577e-04,5.623327952143840564e-04,-5.638092983241788266e-03,1.512744363733837041e-02,-6.537509502265349826e-02,2.474537412807529049e-02,-3.642865185265170558e-02,3.317318411164216913e-02,3.129618920570192281e-02,5.643556246813418754e-03,3.761918799954415416e-02,-1.062695183488954372e-02,-1.210171941112050259e-02,6.345561776558371857e-03,4.836775930744092664e-03,2.107525750411893412e-02,1.695919054513933891e-02,1.011258820952872645e-02,1.972867856538987330e-02,2.906282925777290208e-02,-2.849982244022167613e-02,-3.849531793279908215e-02,2.223092088084854118e-02,7.671551279947556867e-04,-1.274552273552325907e-02,-1.572829962708357718e-02,-7.141278706505001239e-03,-1.565616079655550788e-02,-2.547253529870590130e-02,-2.334277515232610622e-02,-2.688609441721680204e-02,5.499802532081221607e-02,1.052318264239467463e-02,-7.723786156726164011e-03,-1.459097987708194051e-02,1.917603287561064906e-02,-4.687336387491598116e-03,-1.517443474483723756e-02,5.419577033890154646e-03,-2.994920032634089055e-02,5.061167327319592533e-03,3.550070537271269797e-03,-6.483885966268871769e-04,6.700585338982154200e-03,-1.257572548496905564e-02,3.931204585277693619e-02,5.319065642824605603e-03,1.209830851137363647e-02,-2.166529129011363769e-02,-8.221456019008889764e-04,-2.057434578411820869e-02,-3.323967127568672793e-03,2.221288980547058214e-02,3.255496952957348533e-02,-7.462667964703577524e-03,8.930687931989523404e-03,-1.686639544360544465e-03,-2.394302052976912676e-02,1.485988015836689317e-02,8.854466057149094557e-03,-3.558710338161777398e-02,-6.945027400950712186e-03,3.863532011338307454e-02,-3.415929471659699679e-02,-8.353773847073153042e-03,4.878119182269370635e-02,2.014026978084103303e-02,-2.941709759573721446e-03,1.161853893696245324e-02,1.547214842336577453e-02,3.896446152094964251e-03,-6.771495482451935378e-04,-7.690606725506148218e-03,2.412731726513118319e-03,-1.489609129892368808e-02,-5.307710536931838086e-02,2.916274824991702680e-02,-9.708531942804620243e-03,6.054795091211105261e-04,-2.916606343666275011e-02,-2.475083089558768878e-02,8.575755580989616669e-03,-7.445053067137638592e-02,3.006793207506396298e-04,-8.346560822157159457e-03,1.421464924104392374e-02,3.785712517717133158e-02,-2.904103995823942991e-02,2.504718276949607914e-02,-1.956136487774050303e-02,8.527126321915782115e-04,1.432649469312717236e-02,2.060835527622488506e-02,-1.980887953141813665e-02,2.562701265221302080e-03,-5.775820830159925263e-03,-2.731746351874463075e-02,-2.295049783071064550e-03,1.010092586412969333e-02,-2.356348915631521768e-02,-2.661048807411503601e-03,-7.976930822825294143e-03,-3.251310073444830390e-02,-2.053390024580434986e-02,-6.096810702538472959e-03,2.535430012491950852e-02,-1.075921610807625307e-02,1.549083579465379036e-02,1.529724002295396353e-02,1.865780394517791221e-02,2.763262101117586905e-04,-2.953409415401711535e-02,6.514616129990099397e-03,-3.701873223299970844e-02,-2.269111203210290913e-03,-2.011420313603214018e-03,4.482160019850673846e-03,5.132955354997783583e-03,1.345267276977737611e-02,-1.338439584968522181e-02,-2.257809718202007793e-02,1.035200707092863871e-03,-3.182046361315026689e-02,-1.925509492525815866e-02,1.510609658083448235e-02,4.953441609912834047e-03,-1.435775022899708070e-02,9.397622765899203007e-03,-6.229046252416473375e-03,6.849212850560976173e-03,-1.229035386758056334e-02,-3.687058153567621122e-02,3.074363926993326987e-02,-3.527652201635846779e-02,1.046702801553436868e-02,-4.315592852373319535e-03,1.761660061976127968e-03,-4.676696165367006698e-03,-2.352143401872612907e-02,1.157515810619834298e-03,3.092222128664055044e-03,5.884220103717342776e-03,3.012220000131607747e-02,-2.685426234779577856e-02,-4.135761781893333017e-03,2.768914016634115710e-02,-3.371957244346984739e-02,9.918002704491592214e-03,-4.602897853970843584e-03,-2.851331059916852387e-02,-3.619112978104009853e-04,1.587503013645554309e-02,-1.652156352808524520e-02,-1.388623509140934388e-02,2.490577237245978400e-04,-2.625908540818293509e-03,3.161506578056758054e-02,-3.452750599509871524e-03,2.113591597238096559e-02,4.147097158001375634e-03,4.747235263127785876e-03,-1.349576162900170510e-02,-4.063258674185417710e-03,-1.586220384327775151e-02,-1.668667170874905611e-02,1.846383514987511021e-02,-7.440167555744281458e-03,1.942458965402579438e-02,-7.698661128417359951e-03,4.790853997551931982e-03,-3.902747770827301975e-03,-9.018317608914493133e-03,9.221947548823614463e-03,-6.752385569419209338e-03,-2.820902501039446522e-02,-1.985220497571811571e-02,1.080059801815503977e-02,-4.223806469627299637e-02,-2.138734101090960030e-02,9.212766810319728689e-03,-2.128902364530254471e-02,3.446065116111284021e-02,-4.598429358340699359e-03,1.713550231561783779e-02,3.425120845620176213e-02,2.274370794295343425e-03,1.848106131007720698e-02,2.302078232834696772e-02,9.671185575869261676e-04,1.044975792809108711e-02,-8.585207931728481776e-03,-7.817774469966709203e-03,2.218469717159658738e-02,1.983645214980422553e-02,1.179698807247920971e-02,1.269908765170437055e-02,-1.974517575430127445e-02,9.804920874440316986e-03,-1.964187032519208297e-03,1.274366112801592239e-02,-1.647105831396790052e-02,-2.467842738632633828e-02,2.633335106890674626e-02,1.254591522541936149e-02,2.139140374230805164e-02,3.785550633927699943e-02,-1.472181466742494144e-02,-3.637893671080816684e-04,-2.991498017010574273e-02,-9.142539699140020057e-03,3.032937125787345603e-02,2.126217576587280042e-02,-8.945946137023235182e-04,-9.009270732629104730e-03,1.445127233841515466e-02,-4.534380421529896760e-02,2.359982334417614833e-02,1.161129694725540965e-02,4.196508778045443880e-03,-2.831451716315976433e-02,1.370026873405180874e-02,-2.061950880643452153e-02,-8.180485686954968097e-03,-7.122937125413552999e-03,3.239538468051383208e-02,3.369230878845067695e-02,-2.416777382476361941e-03,-1.070970240843131327e-03,-5.928228805188971717e-03,7.554617673130779865e-03,-5.067073605082438731e-02,-9.297202279768813221e-03,1.113409343105734549e-02,-3.215352829664460278e-03,2.093086158559495993e-02,-5.789914935080130685e-03,2.294577262959599656e-02,-3.290759955628257127e-02,-3.894988991898570840e-02,7.895977220278516118e-03,7.250400604264016155e-03,2.804915691704039024e-02,7.530601297689976451e-03,4.206748185164060905e-03,1.252820439951847845e-02,1.510771015412346562e-02,9.445667409077401766e-03,-2.068036900116089483e-02,-2.511722352836187611e-02,1.494069717222932083e-03,-1.740303653323717684e-02,-1.351289722022113240e-02,1.742886181037421947e-03,-3.480383099140236473e-03,-2.940602958481519993e-02,1.412851125874410585e-02,1.357853307899418473e-02,-4.131699142935244679e-02,2.115766489335068473e-02,2.072409159583657803e-02,5.847271533920227714e-03,-3.032537930651837618e-02,-5.309391319726910856e-03,-1.979762927800252093e-02,-2.278602637697497990e-02,1.998472528158756062e-02,-2.399987816212341765e-02,7.173304084773348202e-03,1.794360608283275191e-02,2.201190022322284043e-02,2.466776115511442810e-02,4.126689590476824432e-02,-1.185435395788744968e-02,-1.124942793751434675e-02,1.943510133284960181e-02,2.532753002185025512e-02,3.193592573578572097e-02,-4.339838815107502704e-03,7.514439309987392020e-03,-1.426791558688208367e-02,8.775234824806611711e-03,3.598364289795420029e-02,-1.179529918063884457e-02,4.692143594897194188e-03,-5.764542784517148397e-03,3.213061163179205953e-02,2.310263615542642451e-02,-8.803331643644081786e-03,2.972496052155101931e-02,5.090858697081634965e-02,4.110151578331459367e-03,-1.465424566377811558e-02,-6.043873810862156193e-02,-1.110013662065370034e-02,2.465327089517809281e-02,-2.297501074904474347e-02,-1.614250253304122182e-02,1.326728734987535525e-02,1.249633687257940655e-02,6.810483821898590841e-03,1.804423722494510537e-02,9.037115957650372275e-03,-5.560892606322859547e-03,1.596120272348915820e-02,-8.262333661785640354e-03,1.559926785450465735e-04,1.196540266303266521e-02,-6.380493643961458912e-03,1.543066173325131213e-02,-1.169628383813200653e-02,-8.272603286788840840e-03,9.540600470184157009e-03,2.185332100306821342e-03,-6.604408006025221968e-04,2.235900198731701274e-02,-4.681107021548674627e-03,1.753852788804247803e-02,5.033489620937316687e-03,2.744363575086010074e-02,-1.080405561161034388e-02,1.575024243606956351e-02,9.616807691316089229e-03,1.660829883100906762e-02,-1.442239692150065582e-02,-2.133781396421611035e-02,-1.006898481686503699e-02,-3.531327727240255593e-02,-1.984890421650983491e-02,-1.783042919462391948e-02,2.822228611714671861e-02,-3.524563800045699830e-02,1.398929372178219638e-02,2.709684784843473249e-02,-1.960428978754851642e-02,2.495663404431198995e-02,1.362597581138154552e-02,7.109628594250573877e-03,-1.940758699252074755e-03,3.116398371596730901e-02,-2.094436164529202976e-02,-2.951747269377701446e-02,2.775001361065947136e-02,1.212478181355214693e-02,-3.504113788965689674e-02,3.036481558863539376e-02,8.997152531134689629e-03,-2.906935792518163322e-02,-1.528224303256829966e-02,-2.065084736552764109e-03,2.168368269705243587e-02,-7.239442921477924793e-03,-4.431179073309716738e-04,-3.331646327591413631e-02,3.063719610752641074e-03,-4.589621313041746496e-03,2.463776397798136952e-02,-6.764867241676721099e-03,5.888711306178745497e-02,1.999759934123446561e-02,1.565344683475811127e-02,5.607748010080865902e-03,-2.497445969741341268e-02,-7.797360277227048317e-04,1.362383347030594145e-03,-5.482921661605286157e-03,3.061880303994374275e-02,2.151656244673671309e-02,-1.348101432797003257e-02,2.137412311176649024e-02,-2.142041230121089976e-02,-1.371802034885196211e-02,4.660482065153337232e-03,1.093201313752979568e-02,5.077143796225118411e-02,-3.304032443733125740e-02,-3.599768338178112315e-02,-1.913463791947034656e-02,-2.492266484522559587e-03,-1.168380359292939090e-02,-4.036857345278401822e-03,-2.990483078696027155e-02,-1.009349191740916037e-02,7.191620847855308661e-03,1.718879885255873794e-03,1.625011950617948064e-02,1.190522768480801845e-02,2.996990657528325608e-02,-1.883957674848134312e-02,-2.850466721165246034e-02,-1.145584909797017076e-03,1.386042476810905172e-02,2.326437917189034740e-02,-1.962768853115172754e-02,-9.636085838912894789e-05,-1.322641513344218270e-02,-3.173601849563065236e-02,1.014798033759732772e-02,8.148930292230606443e-03,3.765736460563411103e-02,-2.994402731120384548e-02,-2.242787048891157001e-02,-3.836358363151408379e-02,1.555617248935296099e-02,5.216746812512398045e-03,-1.540485902963995013e-02,2.982545124058621697e-02,-9.129760232781426732e-04,-1.347337789019871328e-02,-4.706256056681006050e-02,-1.819103591118630819e-02,-1.550187388044411974e-02,1.507715480488005209e-02,-1.587952418956749268e-02,6.102708366864227456e-03,-2.565016105560315174e-02,-1.383775708537113638e-02,-2.110400839935864734e-02,-2.714925790265109926e-02,3.339780418819086188e-02,-6.315182221525008320e-03,2.739243303471490532e-02,-1.423350585479558547e-02,1.904483376759314242e-02,3.094264396637317130e-02,-3.439274775511154403e-02,-6.233123957310568626e-03,-1.437863507590957449e-02,2.027102353404697244e-02,1.009677002215389474e-02,4.278229766028319309e-02,1.595004795471725943e-03,1.256722483362318447e-02,-2.011520486286809059e-02,-1.160698046801525267e-02,2.160244400935741604e-02,-2.532244890352090133e-02,3.896452518507096535e-03,2.396995272180232547e-02,-6.629671429081700901e-03,-3.260690597307009091e-03,-3.354785946159896670e-02,-2.976516277921425688e-02,4.944835435396984814e-03,2.900664184601439710e-02,1.102465917735440636e-02,1.281460401976461556e-02,2.036648889586843703e-02,7.489847164693611177e-03,-1.944063502829291093e-02,-3.216539274956282946e-02,-7.592909741704669153e-03,2.561513329596764796e-02,1.573787657255047018e-02,-2.788708759879844970e-02,2.792873737048847532e-02,-7.398825068515101945e-03,-9.228731990413375011e-03,-2.250117769967602613e-02,-1.786273156927680600e-02,7.662423099943665994e-03,2.954724223227852414e-02,2.736198971810673702e-02,5.238495331545301587e-02,4.716981367945746739e-02,-3.465526429320404944e-02,-5.944606308061052211e-03,8.946253028973703142e-03,-3.873489207561468806e-02,1.982976708495274437e-02,4.920266065202504729e-02,-2.703340246910317535e-03,3.007684387118159802e-02,-3.238631272058615368e-02,-2.915024752594859089e-02,-2.878521102159532080e-02,3.177222638968884433e-02,-2.725469868348654248e-02,-6.391073614143168331e-03,-1.599689502744422107e-02,2.016949259956718477e-02,-2.819450841333761074e-02,2.160086107771598540e-02,1.046978951878434899e-02,-1.215329501990870982e-02,-7.524220211923983437e-03,2.102276742405614907e-02,-9.709727775955247567e-03,-6.020940732690097108e-02,9.892408284509969507e-03,-1.369922571735873208e-02,-1.688206887627021272e-02,-1.413529307226149426e-03,5.280190226328279612e-03,3.289418210039172369e-02,5.039301724463481763e-03,-7.362075529407439804e-03,-2.771301677007969796e-02,5.303497160196633635e-03,4.528108520386019305e-03,-2.187544856661352913e-02,-8.858034162669425546e-03,2.487242953453430369e-02,-1.035263019506937974e-03,-1.192147605015789896e-02,6.712184212968457485e-03,2.656852567601824047e-02,1.604153276725740068e-02,-1.592236550851748242e-02,-2.504700374189978811e-03,3.491739715966435398e-02,-2.113648748587988041e-02,-7.538405483600167482e-03,-8.375620621924345643e-03,7.591883079727290533e-03,8.654628332785832892e-03,2.513710708135723920e-02,-1.062902574180880216e-02,-1.294729518500602021e-02,7.593583148336242698e-03,-2.684729479500817806e-02,6.744970345134491604e-03,-2.930054533178555118e-02,-1.672614479296647512e-03,2.832956748403437156e-02,-3.290003123672353286e-02,3.581540725669922834e-03,3.126753610483091333e-02,2.564281090750624229e-02,5.326059733446505962e-03,1.676725265157311096e-04,-8.316182944013261746e-03,-3.234671296928213341e-02,6.816281046219759346e-03,-2.465408265945842267e-02,-3.431393928085992029e-02,3.372479257927727542e-02,2.230163825558021881e-02,-9.972283094565720027e-03,-2.499253409884079000e-02,2.208665028452805931e-03,-1.211930500597534904e-02,5.808194631559998773e-03,-2.485734042769596319e-03,-2.548735969404487128e-02,3.654113775784934709e-02,-2.740040164190345531e-02,-9.959605542948337178e-04,-5.777379076494294427e-03,1.503925289232235611e-02,-2.885462861827518127e-02,-5.977823434178009682e-03,-1.677944921062225758e-02,-1.392819183878654709e-03,-1.070722634542487818e-02,-9.371436788155176672e-04,2.308437992653999959e-02,-1.639988127751903016e-03,4.721057818450364457e-02,-7.042918979380961321e-03,1.676949138498897568e-02,-5.412895562530941999e-03,2.899714287132353551e-04,7.005458842906209238e-03,-5.176672605046357852e-03,-1.539877214570541109e-02,-1.055178208749412913e-02,1.829629864937756811e-02,-8.592114590493461074e-03,-3.860774932157372101e-03,-7.352007365142361472e-03,-5.580970131715753957e-03,-4.459078908838833184e-03,3.148707561160043328e-02,-1.962161263477544756e-02,-3.321586805162012653e-03,6.787337847029972261e-03,-2.288107579933525496e-02,2.044501599398546639e-03,-1.426852042167379292e-02,5.527701252992614153e-03,-1.464055815131422300e-02,1.521045233754966981e-02,2.642962998923139087e-02,-8.891510310690842883e-03,-6.248674501444934255e-03,-3.773766425291109308e-04,-3.804031818792064784e-02,1.494530039803395379e-03,4.648679423851391490e-02,2.429627584783975933e-02,2.060474120420458400e-03,-1.428658111753342355e-02,-1.372398289988412644e-02,-3.933063933694418320e-03,-4.508929847804715729e-02,2.600570362061140756e-02,2.172621693562309594e-02,-3.598330645383710641e-02,1.563090620209618350e-02,-1.048104442454584131e-02,-2.563615891530729093e-02,-8.746527761760167566e-03,7.643823665349105782e-04,-2.713859285053185286e-02,8.051634558242903514e-03,3.678963705667766346e-03,3.448913694167590749e-02,7.518913840016020617e-03,-8.711982271205931036e-03,3.117902884018768084e-02,-6.673486793790758126e-03,1.170953458406644426e-03,-5.875495384401688975e-03,-5.957168801791453208e-03,-4.135972835660427054e-03,6.012592249368410233e-03,2.986452498501655090e-02,-2.392598892476794845e-03,-3.045951305258669251e-02,9.839147906660026047e-03,-1.817378279963771659e-02,-5.176170805877523470e-04,-2.962737541375470504e-02,1.363230648654873041e-02,3.604812695862925909e-02,1.171006978547635587e-02,-8.672741803448008949e-03,-5.359169067835643785e-03,8.621030156012612564e-03,-1.357850187245717398e-02,-3.601286953059920463e-03,6.378558969166999793e-04,-3.384445694388464598e-02,-4.708334255722127284e-03,-6.716876298210466834e-03,3.889687058388788341e-03,2.609396911875141306e-02,-2.078615039996946010e-02,4.268942922678777008e-02,-3.737158661927915404e-02,4.694156262144673700e-03,5.172069762344801147e-02,-3.015654984192897917e-02,-9.791398401903298604e-03,2.678598313337938325e-02,-3.195860665038927160e-03,-2.675814937399407373e-02,-3.349376999514113579e-02,2.306399917787280845e-02,-1.423218778528012639e-03,-2.622026161638424391e-02,1.760398778136621628e-02,8.933646245056723126e-03,2.227998136634590058e-03,2.215238801494920015e-02,6.884364511142803018e-03,-4.937042523902422653e-02,-3.128263316984624537e-02,-1.120859683574295003e-02,1.847059723831883868e-02,-5.780478636109253297e-03,1.420225443670092985e-02,-7.873213632927729411e-02,6.332707074024009931e-03,2.944035727061598221e-03,-2.399237742071403182e-02,4.937228645453340184e-03,-5.452584358951272255e-03,-8.362439400202360124e-03,-1.316195135141282925e-02,-5.199784053647964199e-02,-1.078172684271709071e-02,-1.471775680212796065e-03,-1.502213208280301325e-02,5.750445396676805848e-02,2.019762854909091382e-02,1.724069044428612214e-03,2.164774194319480163e-02,2.713176049412432955e-02,2.913590081867153264e-02,-2.379506316914555344e-02,-1.169831851327190510e-02,2.571058606203107527e-02,5.679562441843048239e-03,-1.522364858174706133e-02,2.826515954638552167e-02,-6.985436230236691940e-03,7.154512084099852107e-03,-2.956980384038712401e-03,-1.648572643558127854e-02,7.597265714551688399e-03,-1.001838374750666991e-02,-1.208507054052729464e-02,1.244388510778612249e-03,8.222831701053867626e-03,1.074708442278864834e-02,2.161070013730960124e-02,2.176987279292061719e-02,-2.536947460056952416e-02,-9.596194969291141656e-04,7.433539117509927428e-03,-3.450395257606610287e-03,-2.966202916851812948e-02,7.432345749725508162e-03,-5.508050440714558176e-04,-1.192012836242923278e-02,-1.426044848880800991e-02,1.993294634691827882e-02,-1.037953386771507495e-02,8.245283244233170966e-03,2.209341082736789377e-02,3.621143989577892131e-02,2.235250622028289377e-02,-3.064789374354064296e-03,-2.891333689941943952e-02,2.696757946103575318e-02,-2.666800246148291059e-02,-1.450386162546970364e-02,6.771643236119145003e-03,1.007662111754521750e-02,-5.827837430648363098e-03,2.319165416820279449e-02,8.809779741184044916e-03,-1.911256376196968781e-02,-9.729166621774603188e-03,-1.207468888484189429e-02,3.521010545350887071e-06,4.256302087006444412e-02,1.477990099487958529e-02,2.123244233290614517e-03,-6.771594832506350019e-03,-2.909871122890892847e-03,-6.040173716705335948e-03,1.519051514182760167e-02,-2.092694247252553305e-02,-1.270494898548589491e-02,3.020712893190718312e-02,1.243858574137034038e-02,-5.381854819842465769e-03,-1.719661336934583812e-02,-5.067429622742746637e-02,-5.071377143665114703e-03,-6.313674735702184092e-03,-2.388394500037551577e-02,-3.097637746429738118e-02,4.432546460555459450e-02,-4.907931104564626848e-03,-2.197436789403091686e-02,-3.005073486766297527e-02,-2.677560335891609501e-03,4.305497878746631160e-03,-2.278888904208463059e-03,2.936026620944978335e-02,-4.810786311381622798e-03,-4.143506636249515152e-02,1.354789036682004996e-02,-2.870738441953796238e-02,-2.675771955554564693e-03,-3.607850664232404442e-02,-1.715117832420735497e-02,-3.894778627173143062e-03,1.433586427943658002e-02,5.821872843288240090e-03,-2.306251909032017849e-02,2.745161308974515546e-03,1.135034107148915825e-02,1.091838304784427741e-02,-2.450816777412661088e-02,2.042351949253513529e-02,-2.499709199274122162e-02,1.337077769813552197e-02,6.316366117419452975e-03,1.231465483575478609e-02,-6.850826927766692429e-03,-7.854878219408155740e-03,3.407548911033575663e-03,1.303820971059238207e-02,-2.360164410115769482e-02,1.199943880362285345e-02,1.833908640484610553e-02,1.428904448614355845e-02,3.195236054929739312e-03,-8.815301013205992936e-03,5.799708987452167550e-03,8.681248357425451131e-03,1.210260539040081650e-02,-1.730847056331260084e-02,-1.176311343465692716e-02,-1.513132987507638874e-02,7.221742256593990592e-03,-8.610786132279816055e-03,-2.073297515980845190e-02,-1.968738057720218274e-02,-9.878022817138454315e-03,-1.385396821195514910e-02,2.949675948919722873e-03,2.148526248481490847e-02,6.937062199637964929e-03,2.366829234472511700e-02,-2.452507021031916784e-02,6.270320222803727091e-03,9.176269225786929870e-03,-1.739031349714342464e-02,2.500572792765369187e-02,1.521477968488896791e-02,1.662779181996549421e-02,-3.358380854318023662e-02,2.040485003247904591e-02,2.991297434869286120e-02,5.102049708465913880e-02,1.206593146977863289e-02,3.867212234345349803e-02,-2.652348720692323386e-02,-2.853599263035174003e-03,2.751379815480473404e-02,2.288323180256186112e-02,1.078862631597177647e-03,2.063395679037801841e-02,-1.447394791088221083e-02,-1.613216638735901626e-02,3.098239618235768336e-02,-1.286175733162206458e-02,1.760468398163626130e-02,-4.140284361221849459e-03,-3.459129133661074940e-02,1.854564495322591836e-02,-2.105319553963348050e-02,1.798456174593467821e-02,1.462968205493433071e-03,2.263060731577949680e-02,2.724498282230308679e-03,2.496438753444521746e-03,-4.024384218980430784e-03,-3.391386467286240658e-02,-7.357883638521411918e-03,3.470099376722728807e-02,2.199220765693970722e-02,1.074214544993614372e-02,1.726611984263523927e-02,7.120883031472984535e-03,1.314847326427362635e-03,-3.474278021391195587e-03,-5.292808087741909633e-03,-7.133635842925224561e-03,-4.410317171712887369e-03,-7.497372661600282782e-03,9.838740250273621604e-03,2.048019746348050604e-02,-1.699792544992181909e-02,2.633156021481161332e-02,-1.778031972265321434e-02,2.366512465256101309e-03,-1.383353153978151250e-02,-1.509891637158753297e-04,-8.284698588659900401e-03,-3.541179401361587570e-02,-8.878431543636501264e-03,1.377566640395570981e-02,4.357330447706506127e-02,-4.380870745852199349e-02,-3.998243282415474970e-03,-3.052606050782232178e-04,2.910657854756223354e-03,1.420462052210298871e-02,-1.981013179065467186e-02,-5.501289840612030857e-03,1.072437093219763028e-02,8.111862091405099701e-03,-3.440219142576467128e-03,-1.970586668413709316e-02,1.892949025008698778e-03,-5.889410555388977300e-03,-8.621823419876188319e-03,5.251112521363285324e-02,-4.053038014071202316e-02,1.358062732132428452e-02,4.120041392740653868e-02,3.991626610371811000e-04,-1.600596740018600181e-02,3.048730787214637070e-02,-2.911562278759295078e-03,-2.272420316556782519e-02,-2.595109129062928705e-02,2.930207576706768055e-03,2.849603198415103650e-02,8.761794974446724532e-03,2.343145103572552568e-02,1.724296917938416846e-03,8.870190698833000167e-03,1.770035467421006512e-03,1.194334712676313644e-02,2.113098225656376630e-02,-6.671111194008254308e-03,-5.366888806000590269e-03,4.521329586967670795e-03,3.396545012954753102e-03,-4.506390207143954642e-03,2.027327264081358812e-02,-1.208565671888652167e-02,-2.384781539604305389e-02,4.141231010254722150e-02,-1.603376094407754637e-02,2.005175626001307748e-02,-3.437292264519890145e-02,9.895176841632206954e-03,-1.589387702831866972e-03,-3.775478351844844139e-03,-1.469450259562614207e-02,-5.816958896376873446e-03,-7.230655922157527317e-03,-6.522312351219206007e-05,2.771557641720902299e-02,-1.989577100895778550e-02,-2.321148908405196859e-03,7.608403057578434769e-03,2.195171561307382446e-02,2.963489697092200684e-02,6.317828034823403868e-03,-2.562832551638780099e-02,6.734059679448254308e-03,4.280436547256932095e-02,-3.217241033042912007e-02,2.390973149993376803e-02,5.262046415817379919e-03,-1.234030277078876359e-02,3.775757897762441022e-03,-2.617457821026042408e-02,-5.303521725965450358e-03,1.552002686623072877e-02,1.496763356424470059e-02,4.778596087283797783e-03,-3.248737419039598399e-03,2.526990447679485982e-02,-7.536499103043903594e-04,-2.227438632279519354e-02,7.562456543247574915e-03,2.595010025069241499e-02,-2.125949217607318170e-02,3.094717717872210241e-02,4.117504835405560309e-02,-9.220007429549412215e-03,-2.523705593205073650e-02,3.789351014957059727e-02,2.350473589155238543e-03,4.074512293836035116e-03,1.449816638249746409e-02,-1.330338694654497819e-02,2.328231309775303116e-03,-2.353291581830057461e-02,-3.092881325978108151e-02,3.296724752953730797e-02,-2.468552549970351451e-02,-2.437998455502646961e-02,2.572328964411661756e-02,-6.603905811242696475e-04,2.380613666126368475e-02,1.483316015215424555e-02,-2.127831094482171906e-02,2.736010133929520018e-04,-2.100485746010562552e-02,4.980476966183122398e-03,-6.526867204199835425e-03,-9.545225971498193587e-03,-1.046626531775725517e-02,-2.378467844151083144e-02,9.050664600458125861e-03,-9.363443110933900135e-05,-1.471276448361206112e-03,4.836324605768898069e-03,2.359948143201701966e-03,7.322591992878929937e-03,1.688339946548636852e-02,7.859000108268803311e-03,-1.781548240182706175e-02,5.713471249494049553e-02,1.262195688445504190e-03,-2.316826672970190640e-02,-2.547362603688262464e-02,-3.725956490953550443e-02,2.467399686430535310e-02,2.823702119944201949e-02,-1.739972743361954677e-02,-1.430679548564510115e-02,-2.747085748625089155e-02,-1.684949294889416527e-02,1.331153845056991247e-02,7.371196936966627547e-03,2.877606532679135090e-02,5.065751206860534192e-03,-1.059962494390881242e-02,3.249684441637985810e-03,-1.087372538523614669e-03,1.930690634388377083e-02,4.403913452496157482e-03,3.492604649412395929e-02,-2.870028157449960524e-02,2.759943111915513433e-02,-1.626001708002275739e-02,-3.178650672136183828e-03,-3.127028778152805139e-02,4.384949849966579723e-03,-1.529019895931454237e-02,-4.584388240285868638e-02,3.935049861188287708e-03,-2.523164000634076434e-02,1.271075569085252863e-02,6.096539400026227198e-03,2.241102437321724344e-02,1.006397611970682136e-02,2.138744754339982554e-02,-3.044561961053336013e-02,2.835131092470635165e-03,-1.227247820998765213e-02,-9.846419751224163089e-03,-1.038103735633151212e-02,4.852148991987062510e-03,5.846896977165417023e-03,1.464700755539886066e-02,-2.811627720429666147e-02,-2.474844723763599055e-02,3.652680125408213491e-02,4.540884049408655358e-03,5.065175731026821428e-03,1.070631168931660861e-02,-1.577408483130103567e-02,8.350287371112588217e-03,2.017002118623739682e-02,1.013090879014846672e-02,-1.240438206278889066e-02,-3.794065234782584284e-02,-1.400412679504048699e-02,-1.739054358299283115e-03,2.914298368442883383e-02,-1.575638712333244165e-02,-3.186063485999446332e-02,-1.311087762180386355e-02,-1.995544131254258294e-02,1.403447154976482543e-02,-1.161913204195739319e-02,1.062227640152899229e-02,8.407217131769596785e-03,-1.229377873055838115e-02,-3.737188183087982070e-03,1.612643290573050753e-02,2.690524829911618288e-02,5.691538256882611863e-03,-4.067578045797327381e-03,1.093714996120178154e-02,2.412338107958222899e-02,6.364169160777111492e-03,1.553015479048053260e-02,-6.588833624521696179e-03,-3.966296615306088430e-03,-2.859861511528043881e-03,-2.355554490478349583e-02,2.414345834437576013e-02,-3.531841185840053909e-02,4.350979789385365712e-03,-4.408732962718314198e-03,-4.399807621636753728e-03,3.713281830596837536e-03,-8.483593892117280433e-03,-2.534231326025949624e-02,-2.187520868039871669e-02,2.342952225035910187e-03,-3.918815101622910579e-03,-9.487974873407616777e-03,1.453170818703118303e-02,4.437482756369895420e-02,1.678513659735718366e-02,-1.877160249651381799e-02,5.218535852760699395e-02,9.278853611830518641e-03,1.201223481398151771e-02,-2.590484210060623512e-03,1.434441158621039929e-02,-2.395873932216401048e-03,2.618778375395429403e-02,-2.676908621459081136e-02,3.705676850268741634e-02,-9.656518967463631128e-03,2.974704298463001079e-02,-1.447953224177773827e-02,1.007059343857254034e-02,1.151278789224832906e-02,-9.575240992933218773e-03,1.292035348591849368e-02,3.374345853487462077e-02,-1.293730757620970874e-02,-1.098809879294210777e-02,2.771388307375312332e-02,-3.445548866481351613e-02,-1.060635970764287929e-02,3.084168831206069231e-02,-1.752570600669430337e-02,-1.595136879010814477e-03,-8.756164151433177070e-03,-4.355484322083606058e-02,9.184095411502527992e-03,-1.832593495210089671e-02,-1.611874875381255623e-02,-3.037319416495166957e-02,-1.686036327095580614e-02,-2.970109092759069466e-02,-1.820926019581778355e-02,2.297303952385160164e-02,6.357112879140357567e-03,-6.623936320804555203e-03,4.479417632675324751e-03,5.396975976086835526e-03,-2.535345477110775500e-02,3.136285647009443706e-02,2.224173855887152593e-02,9.547279062175242914e-03,6.676658883705205612e-03,1.839574523298252240e-03,9.524418937315875730e-03,1.035945468012437753e-02,2.173971047798141983e-03,6.883901273444795015e-03,-2.221039858735996547e-03,-6.090171329353547165e-03,-3.067314098567230918e-02,-2.963054202987143101e-02,4.533648202380119972e-03,1.890871878037060291e-02,7.586534391050218928e-03,-1.737928368660433126e-02,-1.444869926663916275e-02,-3.871419030817866563e-02,9.689906405005362447e-03,-1.287335330623002802e-02,-4.423096784157892758e-02,8.746034664513040700e-04,-5.841454747330234593e-02,7.391723555794647502e-03,3.756096346497583231e-03,5.195941335156803453e-02,4.748585253620307700e-02,-2.568689763754673436e-02,-1.048816151760061793e-02,-2.022278404254687287e-02,-1.513174419608535361e-03,7.750633702107403294e-03,-1.403283914822024518e-02,1.632795316891850687e-02,-2.752301642525500913e-02,8.673369253763966655e-03,-1.997080258573833561e-02,1.177127822377345596e-02,-9.125129920204418793e-03,-3.383946442057401624e-03,-2.573406532720231427e-02,3.742026121318467458e-02,-9.024326759540011664e-03,-2.213760438295159921e-02,5.942159246927090563e-03,2.649623379477700560e-02,6.134000489120011333e-04,-2.287209189329272516e-02,-4.581110960262054117e-03,2.848873999006464736e-02,2.276530798787540846e-02,-8.168814996542567153e-03,-3.237922922586713298e-02,1.785913741110659037e-02,-1.569749502050776790e-02,4.238126514454939632e-03,-9.694214309748528519e-03,-1.561516022908688607e-02,3.144861646231039698e-02,8.700142234696828930e-03,-2.675775963827739176e-02,-4.825471560281806641e-03,-1.727112409013150177e-02,-2.453589873771097954e-02,1.309279140222398101e-02,-9.137163295714042024e-03,1.586488617727901257e-02,1.253507831256436313e-02,-4.213783401774979197e-03,-6.669928570418448902e-03,1.557381775254362485e-02,-1.702697779677730949e-02,2.848481135891000812e-02,-2.500591267906653037e-02,8.714936175704426219e-03,1.163106410322920989e-02,1.883002816014798034e-02,1.247684019701184553e-02,2.372849375202793279e-02,1.371373060409843689e-04,5.518555705748745543e-03,-2.445221415978715909e-02,-3.790479439380149262e-03,9.941136438814439369e-03,1.502512069214986118e-02,-3.220712307786910422e-02,1.006409291330109985e-02,4.428544499684155394e-02,-1.629297144112997614e-02,5.625092445871471628e-03,8.974040164428974745e-04,4.327527413976624965e-03,-3.755748454396027475e-02,-2.992790303846128153e-02,-2.337460649661102577e-02,1.586144667996141483e-02,7.241435874482622659e-03,4.072984845711003811e-03,-1.113241661742424803e-02,-2.461282424823419551e-02,-1.106431078199714840e-02,-2.493522108762396064e-02,-1.689272604620955381e-02,-1.833457438272821302e-02,-1.672344202350301359e-02,3.475633649992369151e-02,6.199295436338524840e-03,-4.375913206535365571e-03,2.194911014532016993e-02,4.839346998640281158e-03,1.371110733552732483e-02,9.085822333982508658e-03,6.329569624432028821e-03,-3.315724121104712124e-02,-3.493997243313295975e-02,1.710919837230174059e-02,-5.360398099959398990e-03,5.835822917798298357e-03,4.152257779072717619e-02,8.289022535547526738e-04,1.362900380735279984e-02,3.534889954400802226e-02,2.374187341784164337e-02,2.104467941534550121e-02,-1.634864594638790443e-03,-3.746804870829118297e-03,5.814580346092474566e-02,4.568872285724848159e-03,4.453407511414772882e-03,4.231399654329547066e-02,2.797757152033509762e-02,-1.769825301549562621e-02,-6.058340089645776472e-02,3.789914434460961695e-03,-2.590496467385309740e-02,-4.845940312418574921e-04,9.621085383799890881e-03,1.647998750043436905e-02,-2.339939037660339685e-02,-7.045335526060948934e-03,1.518004367091653137e-02,2.705650263266476396e-02,8.195242420451833223e-03,-4.248244702808401732e-03,2.217361345142117995e-02,1.269725592702320056e-02,2.194286331409802532e-02,3.470138676963554353e-02,-2.731907581005894176e-02,-5.471253147832892683e-02,-1.630848122604467874e-03,4.824979359995464935e-03,-1.034072042204172505e-04,-2.214078279365174276e-02,1.760137925847380866e-02,-1.235138693348024168e-02,-5.254641874164000083e-04,6.110926283541891386e-03,2.960419739585048657e-02,-8.870198043461676243e-03,7.767684605631052647e-03,2.700497386604159417e-02,2.214507780110740870e-03,1.391855891134330218e-02,6.869356183067312251e-03,-2.010045698918663803e-02,-7.607042475053673973e-03,1.178525506371738349e-02,-1.993948830255349875e-03,-2.057183213046188258e-02,2.065956656088448543e-02,-4.988544823536172554e-03,-1.554240724724839130e-02,-7.425305132470745410e-03,-6.784085597473635265e-03,-4.393974687198107243e-02,-6.731772485891192315e-02,-9.947828450774994294e-03,-5.092269750085535313e-03,1.975234821077514330e-02,2.222046460057879730e-02,3.423668468284821881e-02,-1.493479116154805553e-02,4.423589121356471393e-02,1.740621723994545400e-02,-1.279957918085844124e-02,6.048376037553353061e-03,-3.418409937112755481e-02,-2.820899839109620999e-02,-2.480742365347041872e-02,1.375134936034809637e-02,-6.988131199871929844e-04,-3.297202723754615733e-02,1.795316640392771940e-03,3.647283812802079583e-02,4.601572543393039200e-02,-5.644034043695025232e-02,-8.547093038924499439e-03,2.400277261327929054e-02,-4.073102410641351971e-03,7.999689090898311596e-04,6.035595473749062745e-02,-1.652218009016475286e-03,1.257377567631410772e-02,-4.269201827388016679e-02,-1.369668711836855186e-02,-2.250353734948760780e-03,3.204735112163453747e-02,-1.297331323451865991e-02,-2.778272633714396530e-03,1.869134546347393094e-02,-8.889550382455372463e-03,4.445446914255224945e-03,-2.031420184941419918e-02,1.650880467163180418e-02,-2.355878194559210895e-02,-1.975130305078171000e-02,1.976027366831422868e-03,-3.559456152321293938e-03,-6.528329471531735782e-03,-1.531827123841194259e-02,3.278392298066116258e-03,1.944771266938648269e-02,-2.051204139904351173e-02,-2.989081062693527482e-02,-3.178412740983926378e-03,-2.337982495488787537e-04,1.214640555015465175e-02,3.330583562322853453e-03,1.353449176862967993e-02,-2.054885367462931309e-02,-2.520991630402965450e-02,-3.881580092784579425e-03,1.569812375481616576e-03,-3.080109836960237893e-02,1.460669778064105709e-02,-1.606913965374249034e-02,-2.794141236740512596e-02,3.067575324833006749e-03,-3.047983857231522081e-03,1.638492148912985835e-02,-1.718576089982506300e-02,9.586403561495907347e-03,-1.341914731851550973e-03,-4.976475608598734512e-04,6.944743781026489760e-03,-1.857812349510091577e-03,1.775262946674324022e-02,9.848558449816502067e-03,2.110468135294725489e-02,4.488109653973562478e-03,6.561823975272654662e-06,1.419778550649739707e-02,5.286988778095052209e-03,2.493224767285696919e-02,-1.069427599010989820e-02,4.710291563536733034e-02,1.841228400502850984e-02,4.236691024274091312e-03,-3.171065993488888374e-02,-9.470169110197174805e-03,-1.654851880700424632e-02,1.905443500725887210e-02,-2.734500609293114351e-02,1.845053459147104596e-03,-9.773184303569184411e-03,6.200542150221849088e-05,2.734141455906049026e-02,-1.187742491320410362e-02,-1.572856694667763150e-02,-3.311287102431147156e-02,1.676057079860545848e-02,9.821972065791672452e-03,-1.341065894620218149e-02,-4.076283494062272333e-02,2.561119315319323759e-03,1.739928792922019671e-02,1.036798628171527875e-02,2.807095271873787925e-04,5.663074360255812567e-02,3.425040805557148793e-02,3.228467698837860639e-02,2.727557390973915641e-02,2.053549166591004446e-03,5.553406807358736956e-06,-1.566133287620383521e-02,-2.526925382355515309e-02,3.006965821718661502e-02,-1.477014748048214275e-02,7.261189283236380021e-03,1.713168049046197294e-02,-2.967882526250779918e-02,-2.009187762022236062e-02,2.294638918606800235e-02,-4.677516358486550480e-02,-7.139719452888415238e-03,-5.212707224685488548e-03,-1.629568829573780839e-02,5.857183358505511049e-03,2.550718965982042008e-02,-6.864244680516980689e-03,-2.083119341821484342e-03,-9.958806972888348610e-03,1.699264278537619688e-02,-1.122582455220854161e-02,2.076332582146722672e-02,2.642626362753030742e-02,4.409907296485776271e-03,7.926775041092732135e-03,1.852848393164032575e-02,-1.294456695313540504e-03,-2.840911789245147839e-02,3.886145138505343617e-03,2.206435275294043805e-02,2.392071156939536841e-03,5.662378035117983203e-03,-4.009051193282774095e-02,1.285905756751358833e-02,1.976699285366298464e-02,5.942356526891711885e-04,4.708296537318732745e-03,7.097235785286803988e-02,4.352083604057317701e-03,1.256830584800067152e-02,-1.108592400628227552e-02,-1.189416940597129782e-02,-1.245173568095320725e-02,4.683382398339436953e-02,-7.691698737911138728e-03,5.104960044613665593e-03,1.611553857708499654e-02,-7.818207905269710517e-03,5.475175345746575994e-03,-2.640027375918702068e-02,4.129783313986382098e-02,-1.966286822899810521e-02,4.988681164755050766e-03,5.715901212571184407e-03,1.271296358505571641e-02,-2.468975307392283144e-02,-2.698316501818822169e-02,-2.038041155063862776e-03,7.027914090137014728e-03,3.092216752322514244e-03,-2.169507710558300426e-02,-2.609204850756927790e-02,3.208885562715069195e-02,1.834888832377143744e-02,-1.716735761549958994e-02,-1.841671179354907595e-02,1.294416537162159861e-02,-1.264744425299692970e-02,-3.205218255006211242e-02,-8.522432723419067629e-03,-7.256857500530981483e-03,4.024980784211902064e-03,1.174380726518626551e-02,2.817864822575653211e-02,-1.233113054303826110e-02,1.421971349052304420e-02,1.698951324296485779e-02,5.038622946650583856e-03,3.001144797507451431e-03,-9.027179739901585289e-04,-1.481327358298254598e-02,1.916809788710026677e-02,2.281625368354781025e-02,-1.466381269149473303e-02,-1.761522285382619360e-02,1.573256680376569974e-02,3.978085189986313268e-03,-2.590836733543900455e-02,-4.774390100003928633e-02,-3.848240955300585332e-03,-1.514727655225051040e-02,-2.925782301147328681e-04,4.210318997807300546e-03,1.700101455952645951e-03,1.534272154179625730e-02,-1.362113706618952452e-02,2.070563349425250804e-02,-4.034133818971011309e-03,-3.859761326064553577e-02,-8.850840175627677775e-03,-3.744153804173608324e-02,1.466328412947718587e-03,-1.019816034343543759e-02,1.202354746692915928e-02,2.591077733840296132e-02,-3.357929299993096112e-02,1.966529298720949906e-02,-1.399455693265604789e-02,-1.219444938540273143e-03,7.837943919313739710e-03,-1.332680368225550678e-03,3.729478048190525835e-02,1.101434312658720362e-02,-1.302894145649224206e-02,-9.562497732201689568e-03,-5.457985637319849592e-02,3.392091997924415875e-02,-2.690058403652200239e-02,-8.400988046711110532e-03,-4.862019483968180178e-03,-3.400627416204295150e-02,-4.398886602248426765e-03,-4.421077565460409392e-02,6.676407438601489851e-03,-2.829346322082297582e-02,3.243330322019435247e-02,1.762114117910218783e-02,1.992003475476998575e-02,-2.780865060559104332e-02,-2.619382028988838373e-02,1.067017425113694559e-02,1.179074671111234908e-02,1.649930228595758788e-02,9.431055859803787666e-04,-2.500938284830662994e-02,1.325475059307317308e-02,-1.472304900033410621e-02,5.021490591932782285e-04,-2.233639595648161114e-02,-8.439937714580447118e-04,2.554459282043821527e-02,-7.175184434238701670e-03,-1.660982613106652336e-02,1.281585835133007729e-02,8.693610140403826639e-03,-8.259202112304114135e-03,-2.236281872500441720e-02,3.789649781353560121e-02,1.485120475725169344e-02,1.867783014085337354e-02,-1.430153856604537456e-02,-6.963861401281393540e-03,-1.944676562656911731e-02,-7.013923278971291413e-03,9.748027165881283790e-03,7.943360493561922239e-03,-3.741380901562949002e-02,-4.375196187600215343e-03,-2.826653872994633679e-02,-1.663113102443947167e-02,-1.434425403063124480e-02,-2.162853874255426731e-02,1.719617195755130529e-02,4.065014464217139856e-02,-1.907681397179608607e-02,1.846144090791839928e-02,-1.753262800093124268e-02,-2.485428692796133859e-03,2.114729549142323542e-02,3.253354756312999696e-02,2.717159089423190881e-03,3.475726602768416940e-02,-3.547311906190896841e-02,-4.769351889388723925e-02,5.087149810205161132e-02,-1.048660410523121617e-02,8.952227312172158016e-03,-1.474153054953630457e-02,4.300488501594967872e-02,1.306661399396120450e-02,3.999291427269725981e-03,-5.048511185010710195e-03,-9.169693082352076141e-03,-2.622139842296966269e-02,-1.758103828177527347e-02,2.956072240246784485e-02,-3.003740310829861732e-02,-8.082304305496449326e-04,8.798038668070195731e-03,1.901715793794979056e-02,3.429487575299056124e-02,-1.620061531497078884e-03,1.515638227047074772e-02,-3.830118306013043875e-03,1.985728768621331485e-03,-1.548082238816477461e-02,-1.926225986752692519e-03,-6.460360157537690419e-03,7.503262889915258797e-03,1.651509619644457583e-02,-2.472265589828291643e-02,1.230380571362937967e-03,4.809871308798629314e-03,-3.852129436152582076e-02,9.827805497553368953e-04,9.033696413512063914e-03,-1.089446089571344083e-02,8.106948845019531016e-03,2.413966532865999964e-02,-2.400965576826396067e-02,1.205802899060194784e-02,3.334344486115459888e-03,-4.422700469683874154e-03,3.714173639544959132e-02,5.135815432213329534e-03,-2.801786985209131497e-02,3.443370381887755904e-02,1.432171790777471421e-02,-2.277599833569933160e-02,4.028895420595299953e-02,-3.475835584107687601e-03,6.036565283032506966e-03,1.077619392865937671e-02,-3.671399653041455130e-02,-5.462610862816039831e-02,-3.074776846774157635e-02,8.421859511677962443e-03,-2.555676772767473751e-02,5.640591898353751119e-03,-1.425723179648655595e-03,4.349211619432041646e-03,1.336447564485359132e-02,7.660862831565946364e-03,2.186767054555527334e-02,-1.092095271735124551e-02,2.122822479079317440e-02,8.489103413056267589e-03,7.563954581767914562e-03,-1.715920385407682797e-02,-1.351989957994174235e-02,-1.286444463785635720e-02,-4.872876741485320136e-03,2.273474610144864128e-02,-1.034418181926864862e-02,-6.149701858165211241e-03,1.242063289592761077e-02,3.754522710528244989e-02,4.331193680453703648e-02,-2.916348295383357561e-02,2.067505291216629321e-02,1.839809637170810100e-02,6.571117387126050200e-04,-2.298650171463947553e-02,3.306930775928155347e-02,6.476212755716540849e-03,-2.138501589716425549e-03,7.197934951591898611e-03,1.186458363952936669e-02,3.466186616419100752e-02,1.935625915235852576e-02,-2.894669871460910267e-03,-4.066417163315187884e-03,3.745178127754793251e-02,9.152675477604401214e-03,-2.292683840101302287e-02,-1.785596399533018880e-02,1.122640339711016878e-02,1.891713695313147227e-04,3.243790196846774859e-02,1.254968912300768319e-03,-5.608111406546632122e-03,2.852485827336508073e-02,-3.040163074618254524e-02,1.742553283628997551e-04,1.806081904102951538e-02,-5.446170873070010562e-03,-1.724765149513454027e-02,1.271994444975583539e-02,6.276956932598729347e-03,-2.301424757279446880e-03,-1.268591882186594294e-03,-2.235215757943798467e-02,-1.432372705972690362e-02,-1.704213251763041920e-02,1.335603217535888051e-02,3.255350746972892478e-02,5.814831841463280471e-03,1.703649518329801785e-02,5.448803251148755765e-03,-6.312611666048402286e-03,2.209338082764682534e-02,1.985921596481943913e-02,-2.183976322654065244e-02,1.148074903739529536e-02,-1.334017862781218186e-02,7.756531322710919288e-03,2.291692705596900387e-02,3.309502583531435255e-02,-1.107977406499959135e-02,-8.140774699164209094e-03,-5.232287119973045783e-03,9.599488726247744005e-03,3.112587395698624033e-03,1.371093632977063263e-02,-2.891761102480526480e-02,-1.263004011495206039e-02,1.071459918935170792e-02,4.294005607688411788e-03,1.058283373753643106e-02,1.559423910219800459e-03,-1.157637883121686792e-02,-4.713146344133171961e-02,-1.475969666247827633e-02,-2.711309422789510287e-02,9.140526592324387618e-04,-1.089355848849034823e-02,2.372431969211519914e-02,-6.832153131912662748e-03,2.666703794771013367e-02,1.717773686928968438e-02,-2.242174672686112619e-02,2.085221119425988839e-02,4.244275972406888237e-04,-5.120058308668490321e-02,1.445089201798085282e-03,2.993142719245693237e-02,-5.741462306460695490e-03,-2.969323890789784398e-02,-4.591385631356965751e-03,-2.137504546704781586e-02,1.716055446369961143e-02,1.537463936229994423e-02,-9.126893799596521445e-03,-3.734087307728931743e-02,1.804875275681871657e-02,-1.227667215313577205e-02,5.702921401266318469e-03,2.387431960622580368e-02,1.503523559408966905e-02,-1.227047661691690363e-02,1.698510343197237940e-02,-4.416018153288874676e-02,-3.124510225352105167e-02,-3.230381977587052918e-04,-3.072078762284272384e-03,-1.188202414292642908e-03,2.784904568618362664e-02,-1.087655287873058770e-02,5.603402894000193701e-02,1.284339820267993947e-02,-1.192402305444545049e-02,2.892242175885587768e-02,2.990529807298030959e-02,-5.312006708330214988e-03,3.949732643997936644e-03,-4.520487001827434154e-03,3.306543381040496360e-02,-1.129784447425554762e-02,5.414595162612827195e-03,2.258892477545101744e-03,1.350447166254836392e-02,8.792511827011569719e-03,-1.169411977486478800e-02,-4.032018696203629529e-03,6.078582792466991069e-02,3.751179033765923536e-03,1.629814104027946936e-02,-1.003077194311533839e-02,-1.016230208790968453e-02,2.396676520388868123e-02,-8.766866206604197187e-03,2.459922966740790348e-02,2.239780401070914917e-02,1.038997932727277716e-02,1.925429506862839577e-02,2.875184770010005483e-02,-3.616643168941914826e-03,2.335596231900777600e-02,2.787894720541012235e-03,-2.675726755672298146e-02,2.813202963831842873e-02,-3.113743016924619411e-02,-9.969440931372608797e-03,1.091952510765856242e-03,-1.166349428859195236e-02,1.732330300721875160e-02,8.565142899837027354e-03,-8.252149391643242432e-03,-1.654901374737660245e-03,4.358141287434858305e-03,5.808134220017835934e-03,2.374562614443474426e-02,1.265177804551330214e-02,-6.380856774696992174e-03,1.161400199355539301e-02,-3.154512948415956822e-03,-2.448676997337236386e-02,-1.595040549027132784e-02,-3.085527474286634680e-02,-2.187047007400963125e-02,-1.921885596747948885e-02,1.907851298132823975e-02,-1.345565445890719788e-02,4.318735015487168601e-03,2.563517631710554925e-03,2.967479434358930371e-02,1.593238442778771233e-02,-1.130738401216610511e-02,-2.383266813406905230e-02,-1.845901035219200612e-02,-9.663693385863076843e-03,5.176340534319492925e-03,1.040907181068070897e-02,1.757526475073497782e-02,-2.940553677271693159e-02,-3.740263193484297949e-02,1.626435952636564111e-02,3.720634594763765155e-03,-4.835268507612505706e-02,8.250787593425139635e-03,-3.103672910442195967e-02,2.186079317964052110e-02,-2.290895092863942314e-02,2.928361091054680621e-02,-1.782003091628526353e-02,2.337054179538995344e-02,-1.656294734595906148e-02,5.283491555017550551e-03,3.037859718539751095e-03,-2.653269691612009443e-02,2.366204986471408603e-02,-5.420095670517226932e-02,-1.269118012886783116e-02,9.506430199764980341e-03,-8.405026723265368940e-03,-3.074440559428454067e-02,-1.811450755633171525e-03,3.175213408916181812e-02,3.002444031517177269e-03,-2.782337914341750582e-02,7.220800259065080461e-03,-1.708773903576772321e-02,-9.258470716474044137e-04,-2.845577755806879758e-02,5.356841113079712250e-04,-2.477527372112924703e-02,-5.160934884699433338e-03,6.736058920618052774e-03,1.008733682274021506e-02,5.468961958088317497e-03,1.154174448359416259e-02,1.611820414462199940e-03,9.076997074001679627e-03,7.669757679693031162e-03,1.697245952675680014e-02,-1.971839671960770243e-02,3.780910739583185493e-02,-8.054329104558473687e-03,-1.561628861940217786e-02,2.869403025368797745e-03,2.077327620643193082e-02,1.126919813170092384e-02,1.834608800022431013e-02,-1.369280980475216921e-03,-3.245368065764250159e-02,-1.334812026713128735e-02,1.456242493145428613e-02,4.430564767575585240e-03,1.371892445818680313e-02,-3.448484214782862600e-02,-1.850128736182476974e-02,5.282115262568309183e-02,3.847592412530476298e-03,1.040698076556174911e-02,-3.258753217275400012e-03,6.531802871721066606e-03,3.762975432826930894e-02,3.169317677967260771e-02,3.578145217897521664e-03,-1.814597461506241955e-04,3.799236446960409328e-03,1.821686026628150518e-02,-3.934575929632305041e-02,4.139910510276931938e-02,-8.284773480926944586e-03,-1.495957538789326321e-03,3.401463976677582962e-02,-2.927389333129533019e-02,6.215343587971085791e-03,-1.692433020211017713e-02,-9.905260487597704333e-03,2.096915349408025493e-03,1.675801271200117251e-02,-8.852923844901215353e-03,-3.075845710148590248e-02,2.170247051100524655e-02,-4.477133906357629728e-02,3.271898963446210479e-02,-3.155601582388179588e-02,1.528624145805367908e-02,5.208626954459409999e-03,-1.255010349429858292e-02,1.712234172456428456e-04,4.524569730241249227e-02,-2.348850759757767359e-02,-2.874431195988090548e-03,-2.345190602372710167e-02,1.869224418003631594e-02,-2.490369831755149393e-02,-1.383376499708457823e-02,2.917520552137703796e-02,-1.721935318025531042e-02,3.304349231979553103e-02,1.096447566723687123e-02,5.494373819194196297e-03,-2.726584313232054482e-02,3.832723172012909678e-03,3.256943444164754620e-02,-1.548096169325798022e-02,-1.054779384879542085e-02,6.095885625094996270e-03,1.117789740299520579e-02,-5.204890898221930205e-03,9.635688089833118267e-03,-3.575825111475916529e-04,7.881146523615553158e-04,3.151556420109961898e-02,-2.662847622316646956e-02,-5.126721219687853728e-03,-1.234832109357708423e-02,1.247508029517412943e-02,4.092825829854734171e-02,2.915762986394809103e-02,-1.499080961532819195e-02,4.453400101843790065e-03,9.104970944481764598e-05,-2.938432719268720475e-02,-1.871049652778300834e-02,-1.606694712290384144e-02,-6.632740902579582938e-03,3.487783948192593048e-02,1.791673999707067352e-02,-9.040952744313718835e-04,3.856881010971066875e-03,-1.021275485622717867e-02,3.366599321568687631e-02,3.243059412410586543e-03,-1.486350617246658817e-02,-8.309038931501522979e-03,1.028964855020322172e-02,1.502086522853172436e-02,2.596196264012615856e-02,3.122170517671107870e-02,5.410207626881724692e-03,7.837740223136139064e-03,5.505673835432343954e-03,7.886594952506756004e-03,-9.659352754593524340e-03,1.703567240786750883e-02,9.761699945628185549e-03,3.135397270979634748e-02,1.139302122949964469e-02,-1.508625049479888833e-02,-1.765612459982333210e-02,-2.032490269688806001e-02,1.449032804509163899e-02,-8.541423662886177617e-03,1.650149640455676834e-03,1.773632528539884415e-02,-2.806084861627042987e-02,-2.218515550458537502e-02,1.845895919466920745e-03,-9.341967362866096178e-03,-2.656135632967378604e-02,6.817634796222234346e-03,-4.258841030012295789e-03,5.976027528836914439e-03,1.082192465465988893e-02,-8.547521727965058658e-03,-2.047328875726334846e-02,-8.387277378696121610e-03,-1.986334231097432179e-02,-1.260294887972044330e-02,2.702131938810263187e-02,-3.509500041884739199e-03,9.260066092129707466e-03,-6.772489104301772540e-03,-2.284877466308397539e-02,-1.477491858499394538e-02,4.476116156598722307e-03,-1.514352019219498795e-02,-1.367063227532860741e-02,1.862383254132787477e-02,1.208326563809143835e-02,1.474287797746448407e-02,9.155878285394190158e-03,1.342701474002483061e-02,-3.076959370005509509e-02,-1.599455246975718323e-02,8.655873154298786981e-03,4.519233681476617429e-03,1.618169220451711951e-02,1.603437434202785103e-02,3.903827346107731355e-02,-9.001239262476321348e-03,3.438904725261285496e-03,-1.947811733006994325e-02,1.047436638286012960e-02,-9.730887198441569297e-03,2.169139335375923697e-02,2.658788878819250481e-02,1.860870884023076242e-03,9.715445895575956347e-04,2.511057628914699705e-02,1.480821686623704468e-02,-2.365935990158631388e-02,7.214850053866625652e-03,2.898828210897225546e-02,-4.517723177776962473e-02,2.737275980241881887e-02,-1.331110664616772486e-02,8.746781534193526567e-03,-1.235402026494891552e-02,-1.819468126760168114e-02,-1.533098613845666584e-02,-3.428341371978302354e-02,-2.693504616874460231e-02,-3.934588491235403718e-02,1.969520946846341908e-02,-2.247997337976039359e-02,4.201918014323210993e-02,1.522009892150937883e-02,2.349244925506985618e-02,-1.105977236118506173e-02,-4.111312423584282880e-03,-2.132174824585758230e-02,-1.938832282835252496e-02,1.198536552149459186e-02,4.922688547796054762e-03,-1.561773558454880887e-03,3.261883656912960804e-03,-2.390926898085359714e-02,2.620623349180326456e-03,1.791422346618658928e-02,-1.505727839879212465e-02,-1.747610104229199018e-02,1.049336059955009552e-02,-3.141776873649312907e-02,-5.120392483934765177e-03,1.124234256960904982e-02,5.722896593726763820e-02,-1.851388437543380339e-02,4.245797534759594011e-02,-2.108222451291740830e-03,-2.329201783520712648e-03,-2.385803008526284422e-03,1.987948376773917766e-02,-7.093831984699581518e-03,5.341236973614368021e-03,1.111794099434569756e-02,5.519046651385585769e-03,-3.793828464990558168e-03,-6.728858510718910627e-03,3.508715466841496461e-02,5.275514908734806746e-02,1.056345975545863215e-02,-3.731920800497687350e-03,-2.651780402964586114e-02,2.715000708059410461e-02,2.151727274553639786e-03,2.399611543354876128e-02,1.964302640078821605e-02,4.951802865877832915e-03,-3.177578923438684807e-03,9.236476500162023318e-03,-9.900447960413770801e-03,-2.795784459604922639e-02,5.318959952225680958e-03,9.723919206533660972e-03,-5.912399135059144030e-03,3.510045561521135411e-03,-4.560963562581155616e-03,2.001135017476686484e-02,-1.854051319912625477e-03,1.091199852830046849e-02,8.786150678476720502e-03,1.151235346085731186e-02,1.390767543502171265e-02,-2.476154368422307794e-02,-4.335708069902999978e-02,9.527158981887867001e-03,1.334224465037054351e-02,1.255916279916673053e-04,7.028424287810959223e-03,7.068044407662062850e-03,-1.930584720521280259e-02,1.960470070949860144e-02,-2.268283616357015184e-02,8.366340380786599622e-04,3.957406876062771056e-03,2.271442606694146563e-02,-1.115230500008487259e-02,-3.118272598471062695e-02,6.806022272942718020e-03,-9.409252619708093762e-03,1.183203422863092144e-02,3.852526197080543072e-03,2.007772670580479715e-03,-1.046064089491627498e-02,1.221669261966103204e-02,-1.478124350262999438e-02,6.039693119417928469e-02,1.723136033236647921e-03,2.758464331776189563e-02,-2.911769198961065147e-02,8.737647800265528619e-03,8.395240539700527319e-03,-8.744081892804176845e-03,-1.742357122059740374e-02,3.205506527938814521e-02,4.161181522982385778e-02,6.836296647462083466e-03,-1.104577024588535017e-02,1.807536083223710080e-02,-1.628262890076735692e-02,-3.196633296323150158e-02,-4.943974771396388891e-03,-3.491212018145110028e-03,2.124456289264632300e-02,1.732817531561349489e-02,4.518646973065801840e-03,-2.063247054598974038e-03,3.770859066744218502e-02,-7.839737565361541705e-03,-3.274200514183109312e-02,3.126424185966980573e-02,8.102027004318036740e-03,-3.295471275901804345e-03,-2.727336923839556240e-02,1.355721645136934855e-02,1.078988865414569863e-02,2.351103167044423653e-02,3.078811907266069958e-02,1.763856867303825737e-02,3.210815107899055859e-02,-4.397633675973887726e-03,2.013421849483077591e-02,-3.732874045695855261e-03,1.829269174429814723e-02,-6.343146886901377887e-03,-3.192204432776908629e-02,-1.220447199278223635e-02,-8.898504983882738958e-03,4.050286359996498921e-03,-3.085208753982329744e-02,-6.424444426527229843e-03,2.135316548038750442e-02,-3.335697972777083853e-02,9.804075421134603521e-03,3.464018701215313919e-04,-3.145497309675172881e-02,-1.001197407869365563e-02,-5.153187134689739442e-03,1.577680091384269304e-02,1.655628998746336636e-03,-8.489125094249632547e-03,8.893447086082004877e-03,-3.523527667610448517e-03,-5.034827843142107746e-04,1.255394064671315653e-02,-2.255708547867369199e-02,5.401518193679693929e-03,6.728138501404812028e-04,-2.482180103325176690e-02,-1.525789081145696204e-02,-1.496275362830915868e-02,1.862370169179323326e-02,-1.416386111194897421e-02,-1.360675365199656879e-02,1.279620089376489779e-02,-1.689648905052683683e-02,1.785262117461617476e-02,-6.320164501150367375e-03,-2.251794362399710606e-02,1.040895909109112311e-02,2.678008871317252154e-02,3.949046560730420929e-02,1.838300498400922967e-02,1.746245647482713367e-02,-1.888360065522706049e-02,9.438944290782312618e-03,-2.331770881325867517e-02,3.371056414409177426e-03,-2.079013909354605893e-02,1.135982505092014011e-02,-2.333364747232240049e-04,-6.142568523339536797e-03,3.237353030322856311e-03,-8.231525284540087625e-03,-3.525814178263474152e-02,-1.586116883759148416e-02,-1.657777247169629764e-02,2.814718109674174337e-02,-4.856941632489750714e-03,2.801243608617121419e-02,-5.729475595776221258e-03,2.314205881771381340e-02,1.940612196131425229e-02,-3.591681797099738858e-03,2.201454489446494356e-02,-8.599621527719369940e-03,2.788772833215504704e-02,4.339681075641164953e-03,-2.003704955000986526e-02,-2.742901951897897157e-03,2.051343290905708119e-03,9.015402382623884450e-03,-2.990654146496084589e-02,1.459843815421439303e-02,-9.143956694096318574e-03,4.182031602157134791e-05,-1.731463606185621243e-02,2.959245274521559929e-02,8.227399568422220574e-03,-1.213894077694417650e-02,-1.340204469172281108e-02,4.501810252157329578e-02,4.384188861054461039e-03,-1.417469548719601201e-02,-2.068384660707136419e-02,2.379180298607619370e-02,-3.903035204107864302e-03,-7.415640286593688270e-03,1.216632857356368495e-02,4.988407672968929105e-03,1.540329033797681671e-02,2.553268834217118505e-02,-1.566319355179093820e-02,-1.446297372160168168e-02,6.288743432166016799e-03,-7.574182425373957028e-03,-5.339985479682327063e-03,1.973493524911971997e-02,1.766592309619055209e-02,-1.110920988006467054e-02,1.061299943800696373e-02,-1.473882343707891458e-02,-4.868821061440271186e-02,-9.131028208794555664e-03,-1.355775398175374381e-04,2.442517134643582347e-02,-3.316093499199274097e-02,5.231728951241859660e-02,4.273683588791814258e-03,-3.798799464313770691e-02,-2.991833955221304131e-03,2.197491964016095450e-02,-1.895637635209525967e-02,-1.538224005054138720e-02,-4.673551084598439979e-03,-9.921787558999270104e-03,-2.410837411803552419e-02,3.767477389878062105e-02,-4.163519038774659555e-04,-4.111712439709815786e-02,-6.514969216872409583e-03,-1.526698238090269666e-02,-1.377098335458243165e-02,-4.269725026500408895e-03,-5.325152233184984873e-03,-7.033294754376496864e-03,5.894827860606295482e-03,-5.040543283379744083e-02,-1.202989865954329522e-03,-2.938663345426620679e-02,-2.043848609540097408e-02,-4.669604045467141279e-03,4.261570275491241046e-03,1.607581559354433892e-02,-1.136245539808262983e-02,1.399711045537442057e-02,5.791277388831510969e-02,2.949901146085906131e-02,-1.858976834131846612e-02,-2.616626262002405209e-02,2.359314097462036561e-02,-2.451957180673626849e-02,-1.259727573762104910e-02,9.357499095455643415e-03,8.978842215944813146e-04,-1.223554724215821649e-02,-4.364349431175075511e-02,-2.052696027633762674e-02,-3.641110264731093477e-02,2.852722301503636104e-03,1.488183643650637517e-02,1.007662956184548347e-02,-1.301762844604248924e-02,-1.907963856109167952e-02,-2.494679805067790898e-02,3.342045302882180793e-03,3.262510578235142122e-02,-4.219032659760258742e-03,-3.344503496465426034e-03,-9.889668435835925406e-03,-6.192277406676070795e-04,-7.173466335411803237e-03,-8.844751222749294576e-04,9.286243032721247168e-03,-5.357054776708115862e-02,-2.716287286971320880e-02,2.295520787440592011e-03,-2.146493428545072704e-02,-8.445444130797648621e-03,-1.332868852286916810e-02,1.226684018325640245e-02,-2.146784793084959009e-02,9.143740204511438194e-03,1.313880873051857974e-02,-3.457762256596839251e-02,2.412859762038902650e-02,3.825617293158037335e-02,4.351869602464356751e-02,-4.119797484416312314e-03,4.001640240315993552e-03,1.355589264196549459e-02,1.786720789741859036e-02,1.371295623504767414e-02,-3.978026432813954599e-02,2.864948399601956099e-03,-1.882810712997657482e-02,5.424576249950240590e-03,-3.897849820660959086e-02,-9.860111696581682489e-03,2.021590631048304082e-02,1.634171589453766241e-02,-3.659317277367898653e-03,-1.053067325709271078e-02,3.511496919959961743e-02,2.642454652755235958e-02,-4.695996556369102723e-03,5.753233351757322013e-03,-1.772631258606905194e-02,-3.671043117269387045e-03,1.471863620505335993e-02,3.094573759200337087e-02,-1.633289353092658852e-02,6.869737600208504318e-03,4.448563123678245246e-02,4.343043477141996650e-02,2.587643122906934864e-02,1.272227682104568481e-03,2.291297411076836932e-02,-2.025196537914027151e-02,4.961185320311931046e-02,1.912574540201879628e-02,2.818694646300459392e-02,-1.320081786947321228e-02,-9.193164057533271746e-03,3.037961790597812524e-03,3.362759292826229818e-02,-1.171896593885234095e-02,-2.035400042104586193e-02,1.638417571528922798e-02,-2.224499749472388932e-02,7.123511923311979729e-03,6.995977543953333343e-03,-3.310422805946545283e-02,1.863770064702684540e-02,-7.475043310320369887e-03,-8.178269184841853792e-03,-1.098197091918190916e-03,2.601488999923761737e-04,2.063930207891362736e-02,-1.993581398757485884e-02,6.148980386265285453e-03,2.144634931479670169e-03,-3.964579087460116599e-03,-3.055694870240470776e-02,1.456483101520664181e-02,7.552656136741961110e-03,7.647263668936132679e-03,2.621604705357942445e-04,1.960244704460478715e-02,3.223009928060623086e-02,2.519813160733287011e-02,6.712416207064362747e-03,2.300454195970178320e-02,4.451511312490141759e-02,1.804395551572762595e-03,-7.899450591914313272e-03,-1.657964796756997497e-02,8.816908642795598036e-03,1.376714985156295840e-02,-2.270723092558255690e-02,-1.389145003244244940e-02,-2.577122725369795572e-02,3.232449462859212502e-02,1.766323495249245631e-02,-2.763250066036542288e-02,1.157611814946422034e-02,2.554821687144926551e-02,-1.209229123082315900e-02,-2.443187089796972772e-02,-3.672030561045070557e-02,1.052586485055740902e-03,-3.529930156371838788e-03,-3.194582369350210810e-02,-3.454240336448481663e-02,-1.435509871669446956e-02,-3.381783382735378818e-02,-2.227935320489144930e-02,-1.090011275414458185e-02,9.376369027094833821e-04,-1.449617954244162253e-02,1.829457854801092367e-02,-8.727088745702231767e-03,1.758891556398321787e-02,3.949713089142231452e-03,3.801135938092169782e-04,-3.821535027062220730e-02,-3.622316164410338546e-02,3.571480609121693850e-02,-1.965064641233118733e-02,-9.009198450244918985e-03,8.040131373372548865e-03,4.484507452513361407e-03,2.340133298619121935e-02,-3.195174497100498195e-02,9.043992987713661124e-04,1.264951837079413520e-02,2.744689924184459326e-02,1.154077439929250201e-02,-3.191517929656479541e-02,1.533963198961946911e-02,-2.019342235749421375e-04,9.171118728227066128e-03,1.023196087966134551e-02,4.881486138514045531e-02,-7.936171656154452497e-03,9.875666985768635081e-03,-1.721591040926542804e-02,3.136659236499074466e-02,-4.499778018458455014e-02,-3.158727410337787422e-02,1.501862332906026692e-02,-2.383015607953768711e-02,4.493528899573039082e-02,-1.821506293700381543e-02,1.203515354309337565e-02,-5.782643781370832257e-03,-4.758106608736375337e-03,-4.675843981311908308e-03,5.339466213042346962e-03,-1.806066192937403822e-02,1.627455419789342397e-02,-1.944385276758121145e-02,3.283187140044113023e-02,2.529450956756503291e-02,4.174578578618369333e-03,4.763298584779057654e-03,1.716484502704881954e-02,-4.327299708718117255e-02,7.416424772288332697e-03,-1.537934884920532687e-02,1.358591278722359047e-02,-3.361460122519860372e-02,-2.631918829618035485e-02,-1.846014368601221409e-02,-1.338700990760597134e-02,7.585059709976897484e-03,-1.686225501153565745e-02,-1.364161085501660979e-02,-2.648206335314966936e-03,2.702462923713347225e-03,-2.335165365557104883e-02,-2.643888526163427552e-02,6.214252402019395174e-03,-1.905299599508293584e-02,-5.537412803838995604e-03,-4.389870334613216185e-02,-1.981957575306086961e-03,1.730791476861644543e-02,3.334675767792936313e-02,-5.408501534951567005e-03,3.076961543096945820e-02,1.276157587551300134e-02,3.477424541756896775e-02,-1.729568819690103371e-02,-2.049874886616532763e-02,1.179097865774546110e-02,-1.043101335175358226e-03,6.185566228733180814e-03,-9.579513208674809641e-03,-3.407811073015798442e-03,1.569207013097695738e-02,-8.957359021572290636e-03,-4.836435930034452269e-03,-5.833867880013703794e-03,-2.959700942231039897e-02,1.498455634609090897e-02,-2.874231167951024624e-02,5.307266323150443624e-03,-1.520023483338526528e-02,-4.602420833174034401e-03,-1.030446886222010326e-02,8.515414602114688633e-03,-1.690983813112623482e-02,-1.467335663749282440e-02,2.840954180771343776e-02,-7.740713623613117503e-03,7.316313696087303753e-03,8.976873481858580611e-03,2.864156470147165984e-02,2.838478548161753670e-02,1.204423331655963755e-02,-9.077929042038090229e-03,3.412836877878473729e-02,1.697087907208240723e-02,2.279228332015427114e-02,-2.454684454841371891e-02,-2.572803433850525626e-03,4.996762108506825999e-03,-4.406238405047790269e-02,2.817901354501602465e-02,-2.411549271074273082e-02,5.292108954178130834e-03,-2.547255886143559578e-02,1.018523180262933831e-03,3.234242992863439487e-03,4.327682879751432871e-02,4.198603798423156813e-02,-3.042953900239861106e-02,8.549095458194714420e-03,-4.581630723946546191e-02,-1.042675916402919026e-02,3.763214946564306940e-02,-8.228681905601055793e-03,-4.229695913913473354e-02,-7.155444238297733930e-04,-2.562235331677971406e-02,-7.123294140231956756e-03,-3.145586632330298060e-02,1.594637407368662205e-02,2.646460519795957450e-02,-5.257161506859720640e-02,3.614785942261655033e-02,-2.181779590855531872e-02,-3.473752797856738232e-04,1.299819660158554359e-02,1.731095413142115166e-02,1.163781464818853563e-02,-2.993787615806107333e-02,-1.233028074882357335e-02,-4.125846031546909903e-03,-3.600279154837843915e-02,-8.005647436775958567e-03,9.558270093680340182e-03,-4.370462169404432107e-02,4.854897595777399322e-02,-3.105037231213927072e-03,-2.180170555095741619e-02,-2.976664803301455262e-02,2.461371595671850432e-02,-1.619825655791742522e-02,-1.763947185700933881e-02,2.743890552646378184e-02,-1.843050162367991518e-02,-3.780134940117482441e-04,2.394676695707246075e-02,-2.642169792342180870e-02,2.959044933243620487e-02,-7.570274511723739871e-03,2.062671324434376535e-02,1.385914253607405111e-02,-2.664285111867204653e-02,2.056492705194834167e-02,-2.160221632802259220e-02,2.090968130686635812e-02,-2.473815837356657665e-02,1.822657005912431231e-03,-2.159001281964582561e-02,4.898521521521215921e-02,2.582146992329858656e-02,-1.735227447799137998e-02,1.594154464298480492e-03,3.345050139440143566e-02,-1.217361255164458103e-02,1.247239261475288109e-02,1.863722308646874326e-02,-2.973797786668362989e-02,3.513915091640953340e-03,-3.181033452338206165e-03,2.260244645594000623e-02,-2.064465965576894185e-02,-3.957329747968926087e-02,8.977007548878764009e-03,4.238016072916447018e-03,2.364608660029148771e-03,-2.267059669144647332e-03,-4.462327641831870251e-02,3.099441877917385579e-03,-8.996788661709883422e-03,1.482987817804806707e-02,-2.614335912849232476e-04,-2.364318973474409738e-02,-2.458866057365985403e-02,-3.523596350712810722e-03,-1.391192737520137793e-02,2.571229903079139817e-02,-4.634816740146062430e-02,1.024636982064239601e-02,2.736051825834370094e-02,-4.817832291863484440e-02,-4.374056223384264336e-02,1.778941831201825280e-02,-1.152680934575811035e-02,1.519074394422921352e-02,-1.799479246711269825e-02,-1.095746926778370586e-02,-7.540097089798197686e-04,4.094277185998020790e-02,-2.702365546187450104e-02,-1.719606762413154397e-02,2.604026048807318514e-02,4.119005522126694546e-02,4.209766276399009785e-03,5.048984473542503237e-03,4.102478605709333932e-03,-1.290736031315559834e-02,-2.293613051967489935e-02,3.620600386354529132e-02,1.197087194966345997e-02,-2.479000759718353198e-03,2.670995593161260354e-02,1.508094116696423459e-02,1.057934633107391557e-03,-4.483153054391874823e-03,1.228378376114630348e-02,-1.060431072429662315e-02,-6.204287062394992988e-03,-4.870173399948205840e-03,3.989687855097808974e-03,1.120655744184903199e-02,7.386823605746504866e-03,7.117671372347248414e-03,-3.042718808988193607e-02,4.213658114111846174e-03,3.330518536435580351e-02,-3.408229377346484734e-02,9.543734275609314782e-03,-2.088785765870420502e-02,6.787228500323080893e-03,2.191272664516118098e-03,2.024417083009372870e-02,-2.017475970328341806e-02,3.306048597240009851e-03,6.935138168989294326e-03,1.349872473409339949e-03,-1.296309056775592043e-02,-2.309672193723774983e-02,1.513622321447163910e-02,-6.658026547940993842e-03,-2.910962209048655568e-03,-3.876363057976949054e-03,-1.597893134389092099e-02,-1.594354139456056162e-03,1.591922461723936644e-02,-2.570213865248758504e-03,-7.693110996034223381e-03,-1.290847993129443268e-02,-1.777835548339485455e-02,-1.436923545009089614e-02,-6.051261467339635880e-02,2.468718160811467568e-02,6.425204163326422163e-03,-7.841194068263810518e-03,4.593536898786634154e-03,1.239201982513536519e-02,-1.047340164913780972e-02,1.342202110247265288e-02,-1.436771609541482621e-02,4.904583903439640492e-03,1.291829479958961661e-03,1.966325935632507599e-02,3.015492390368712181e-02,1.690183635370028992e-03,8.662307315897706597e-03,-2.996866117230910509e-02,-3.137074933318478864e-02,2.089423184840453335e-02,-2.364927819440519607e-02,-2.170269256367980334e-02,-3.245986174827494852e-02,-2.053144929821096309e-02,2.015756995850455542e-03,1.587121235299953845e-02,-1.192371676823340658e-02,8.473059086537358675e-03,4.020769386105907221e-03,4.031901600162265953e-02,-2.026327728043489027e-02,8.411516157140142219e-04,-2.313269664532592237e-02,-6.187155836808951731e-03,-4.839870561921380543e-02,4.519727229021371778e-02,-1.435806417335207599e-02,1.950696374988886150e-02,1.271005030680523278e-02,7.936458589888121390e-03,-2.205923957745884942e-02,9.486588556050352256e-03,1.432403869090661044e-02,6.934385283015513310e-03,1.901272273157395692e-02,-3.460846286724773846e-02,-1.438953687944347949e-02,-1.445729506167590678e-03,6.609309342681594750e-03,1.812589850852544884e-02,-5.571135539336098848e-03,1.602443207225852199e-03,6.142544791189589320e-03,-2.476707197114046827e-02,-1.147110145122785113e-02,-9.292758758985299877e-03,2.622757266171096748e-03,1.990279793797012156e-02,-1.375645801592399221e-02,-2.992137799571551945e-02,1.637838950592609977e-02,6.773486099811240439e-03,4.366408700571682705e-02,-1.640342302566922400e-02,-5.777330746042105489e-03,-8.343295426598145185e-04,1.575217053328209840e-02,3.927449260462385905e-02,1.252542107492156907e-02,-2.525319101359970592e-03,-4.060491046669730680e-02,8.125508025314127079e-05,-7.402261221682884492e-05,8.928608512774461985e-04,1.653272741161958617e-02,-9.214572923680735064e-03,8.633680291813827790e-03,-2.779840928227415506e-02,5.163736685069597772e-03,-2.408560809619684009e-02,-6.950346495875986581e-03,-4.711395173850333601e-02,-1.238569574699221847e-02,2.194760927975941342e-02,-2.208005741769909075e-02,1.760994885613010111e-02,1.093816044358710861e-02,-2.689376309164620213e-02,3.569215467950654502e-04,-1.740694452644049595e-02,1.193638035460652634e-02,-2.726149114112888516e-02,9.448347346325623296e-04,-7.527101496778026285e-03,-1.681667846935557334e-02,7.777718559191168501e-03,-1.254498042080958928e-02,-2.368324625825899993e-03,1.595311309766028404e-02,-1.529844164576338707e-03,-3.901848456582792594e-04,5.648830477044209340e-03,7.307230507448670385e-04,9.395045579850627021e-03,-3.415537308066407540e-02,-4.169233459450970292e-02,6.595187584526878040e-03,5.062514842679388671e-03,4.143797055160677520e-03,-3.015539271248272781e-03,1.348871412904017499e-02,8.156881711434588482e-04,-3.108637241745389884e-02,3.077614383072719596e-03,9.040297446361745398e-03,-1.013020150818719038e-02,-4.468662044707220546e-03,3.093901340950418535e-02,-1.301714379527471252e-02,-1.037660985496651964e-02,-1.127057282018724448e-03,1.032362869890721818e-02,-2.109900062413287009e-02,3.534572544789013615e-02,-4.556768722761018672e-03,1.002014757826485275e-02,1.538098249558194101e-03,-2.582694171797694522e-03,-5.547542939789052927e-03,1.135647545030718693e-02,-1.703038877635645876e-02,-1.151669105415503019e-02,-2.794633527699683095e-02,-4.173685983074805483e-03,-3.207917318639062071e-02,-1.881355815792027167e-02,-2.372442283291660223e-02,1.373425314721707195e-02,-1.065918394861165150e-03,-1.598016930984586664e-02,1.545382235283549940e-02,-2.234581962953014443e-03,9.718599861146131474e-03,2.194013066574837870e-02,-9.742921015998396925e-03,-1.915604703934406516e-02,2.208639326128123206e-02,7.691294878963172640e-03,1.110311878733878828e-02,-5.824314009541566896e-03,-5.082630472336186096e-03,-2.583063114873692181e-02,-1.883458560744229876e-02,-1.794645387825308637e-03,1.518842157340837343e-02,5.383930744591363705e-03,1.491269129974210489e-02,-1.630177274177043931e-02,4.273785297275066453e-02,-4.817595287141464289e-02,4.684353986545594824e-03,-1.137404906657267858e-02,1.772332711859269522e-02,-5.799537467164782127e-03,-4.614812145189352288e-02,5.315631054464993628e-03,-2.799774630651627114e-02,1.353902398409318961e-02,1.130028332219895626e-02,1.236610600235743020e-02,2.872294515766788715e-03,2.093915428633152248e-02,1.789456357320069399e-02,-1.307432863054872746e-02,1.298004526694188782e-02,1.054103221523979873e-02,1.467102321519518984e-02,-1.828798007003550052e-02,2.450552325306963250e-02,4.126814783206706437e-03,1.085204157597605135e-02,-1.029179678671749212e-02,-1.361018655893352601e-02,-2.217382433787317905e-02,1.599892363097790010e-02,2.147355679749058874e-02,3.349627830769500488e-03,2.606378907388502697e-02,-1.724401288499686699e-02,2.190587520012078279e-02,5.631312523819379662e-03,-7.502888944161862500e-03,8.832170989447270942e-03,-1.471555950480584254e-02,7.981161932737488663e-04,1.823181319364648723e-02,1.451642609093076880e-02,-6.651948039862061110e-03,-4.916201354525898126e-02,1.609628439485508850e-02,-1.883391722499474369e-02,4.401021413680906123e-03,1.776728292988906388e-02,1.608546572188941301e-02,-2.074482807072264984e-02,2.921694891225255775e-02,-1.822833221727984676e-02,-2.601311559985054062e-02,-2.540563074081814490e-02,-7.157755496055805827e-03,-2.744340683576383926e-03,-1.514128087878252073e-02,-1.928193375894331901e-02,1.888424715887381672e-02,-1.756851762250728061e-02,-5.078860219752098087e-02,1.145324104970535557e-02,1.906193151826702722e-03,-3.023155361548288123e-02,-2.586859086440101638e-02,1.543664126323379855e-02,-2.905875894321680985e-03,3.370480361010533971e-02,2.818401282953762396e-02,-4.056258950966260685e-02,-4.164387284491971077e-03,1.006965435534082007e-02,1.216087941775491517e-02,8.192544285931213990e-03,1.623250418119546318e-02,1.877748813157873332e-03,9.437806039282331267e-04,-9.489598179907859790e-04,1.623545689882894411e-02,1.683871275345921389e-02,-9.477612250539117073e-03,-2.219462138886492408e-02,1.626573087932662968e-03,5.456754827824754350e-03,-3.414074438211331169e-04,-3.837622380484103507e-02,-2.934217948533024423e-02,2.939291350628444113e-02,4.401345907314589863e-03,-2.600383712556378867e-03,2.841552935128526663e-02,-3.353053501105493842e-03,4.371691757963104205e-03,-5.992057244433172990e-04,8.197788194829962183e-03,1.239666737631983998e-02,-1.883718543612878174e-02,2.149203131982195883e-02,-3.846881337997530570e-02,2.383509551646654026e-02,-1.742468097347059375e-02,1.249620433983657068e-02,-2.361777736137776751e-02,-1.150275180355223373e-02,9.508059503576570329e-03,-1.207339460470905658e-02,-4.306196055483884830e-03,-3.606530792295320476e-02,-1.468359829422822595e-02,1.851935727633107279e-02,1.944388723061441643e-02,-1.376909573147118600e-02,6.451674005857729356e-03,-3.071683352827589419e-02,1.204119737454219415e-02,1.386685751443124393e-02,1.601188436599935289e-02,4.007657567665484644e-02,-4.870455573047545277e-03,2.066484706345008207e-02,2.124831641206575972e-02,5.276104008408515414e-03,3.049638671510552720e-02,-6.251002281815593725e-03,-1.525419822340137038e-03,-1.070549595612357505e-02,2.076963264558035621e-02,1.790630285593018678e-02,7.987716039111882743e-03,-7.540355757129291008e-03,-1.979537932528307662e-02,-1.648574197018605123e-02,-5.956895846862747708e-03,1.654660341626935927e-02,5.587190961320927934e-03,1.024433261595746741e-02,3.476590809540852645e-02,2.344005890096450672e-03,-1.041122002490350341e-02,-1.207153615561203618e-02,-1.945475933066092081e-02,-2.508194742167272479e-02,-2.921475215944813880e-02,3.224917295718468697e-03,-2.485366736272934252e-02,9.369043332130644677e-03,-1.001216833728442966e-02,-1.273097344258405060e-02,4.584970925231895977e-02,-2.798530384408783392e-02,-2.308294709766477854e-02,4.043007219685372695e-03,-2.089936504193511124e-02,3.791162171528554559e-02,-1.579919303569655639e-02,-1.342437999909525635e-02,1.800622908984065088e-02,-1.564217764398381783e-02,1.062465682320783665e-02,-6.559068742108961451e-03,-3.394685997471641459e-03,4.875104009158983537e-02,-1.765594699784601637e-02,2.448144129744737277e-03,6.577185732479591020e-03,4.256029924804939635e-02,1.708747460425158460e-02,5.459423731103546333e-03,9.997453688455086238e-03,1.621594880387159515e-02,2.812106707788658913e-02,-1.327361041099037534e-02,-3.165796321253892126e-02,-1.443700873041627725e-02,-6.876958072718313865e-03,3.828271260406442000e-02,1.042661310654955861e-02,-1.263058226540767284e-02,-3.589183720175794651e-02,-3.597255594081139041e-02,3.376054290922739232e-02,2.286781487139484537e-02,-1.769451342274657238e-02,-3.037537507644481535e-02,-4.295686888980184553e-03,5.271443877149819580e-03,1.179402511207952933e-02,5.888915168283809405e-03,-1.491438683639824403e-02,-1.590074671337404419e-02,9.786792898901467905e-03,1.959401494302825952e-02,-1.830580560505890020e-02,2.619182794480001339e-02,-7.638410249086333148e-03,-2.229053161268695904e-02,4.091771661689880962e-03,3.736827332642001648e-02,-1.771749692204481474e-02,-1.337030454768618239e-02,-1.267831944271690173e-02,4.089585224229012883e-02,4.124321824304721940e-02,-6.631014562406248487e-03,-4.020172913485152433e-02,2.762051057006078766e-02,1.575035968668809377e-02,3.125449117336882854e-02,-1.570394247219076070e-02,3.965860060185020380e-02,7.445188135728988965e-03,-2.166300394334574192e-02,9.463162434007067053e-03,1.792647409277294684e-02,-1.550488446666040479e-02,7.662729046866106550e-03,2.566070383467340330e-02,1.486122003278468953e-02,1.841041709224332940e-02,-2.084823349730255057e-02,-1.306322418043862760e-02,3.107378714796813629e-02,5.587510078223563437e-03,-2.831009909126600606e-03,6.772136496398877513e-03,2.817398376423234374e-02,-1.388429192704162748e-02,3.543030999439228390e-02,-2.884869441258137296e-02,-1.229019181892804756e-02,2.493540352335887195e-02,2.248510515501568521e-03,-9.303686230731923398e-03,-4.402943424087066293e-02,1.867731601231306313e-02,-6.171979994878350889e-03,-1.423975309583980914e-02,2.374933849355840426e-02,2.927597622875335176e-03,2.131504166358013166e-02,9.549737848563191051e-03,-2.214256176621125661e-03,-1.514446245125913686e-02,-3.122723187170521695e-03,-4.318405107886567180e-04,3.497211460819604073e-02,1.811879747281939720e-02,1.427932615465237094e-02,-1.506411002667424823e-02,1.808313032428768979e-02,-1.494414880303161601e-02,2.145338105415007732e-02,-3.844022573971849627e-02,-2.407415040366566849e-03,-4.218741811344004639e-02,-6.202531426319190730e-03,3.282276085548748844e-03,1.840877867523384517e-02,-4.469845372667516706e-03,-8.916161579112305557e-03,-2.591396143427300569e-02,-1.511259514542722532e-02,-6.919390456541642254e-03,-3.542660825906016747e-04,1.467917523343185288e-02,-2.679009236642409652e-03,-4.129715405174327197e-02,-6.649641952294544408e-04,-9.780026729280073220e-04,4.949473408166030729e-03,-1.345705607432498389e-03,-1.899545960120658378e-02,9.833555735347542306e-03,2.271128247655909704e-02,1.474986775378150754e-02,1.237166016376251183e-02,-7.732463033453190922e-03,-1.138121616505371331e-02,-2.017359560478979019e-02,-4.060324519991537900e-02,-8.922806733436981427e-03,-2.965040954234308621e-02,-1.285388849748223504e-02,4.372413341771361900e-02,-1.923478091476509694e-02,1.619791845005280617e-02,8.393183788597645759e-03,-1.413768047509967804e-02,-2.080737756913277319e-03,-6.440033964662935859e-03,-1.564514594277955500e-02,-2.010708146485603448e-02,-2.144291690856086827e-02,-5.430817686364771552e-03,8.054493856708758864e-03,1.306545326800671349e-02,-1.135913219876813918e-03,-1.757223018224410294e-02,-1.754232584129967326e-02,-2.887056562814483210e-03,4.083707427572714002e-03,9.486479603336785832e-03,2.002563542747340386e-02,1.738724599528800388e-02,-2.146652375925369154e-03,6.943836082015415745e-02,2.232623333430604207e-02,3.635276936966440331e-02,-2.236433108697182676e-02,2.740142215300398268e-03,-1.832714157171174210e-02,2.202791734319294384e-02,-7.325418050417860198e-03,-9.315471547168557506e-03,-1.083445279441285804e-02,2.431093206819315636e-03,-4.690285132854519687e-03,-4.768708650541925165e-02,-8.372143317630925327e-03,4.730405850681324346e-04,9.213757000984621609e-03,2.057529431944208828e-02,-2.356066955940850326e-03,1.194621058894275445e-02,4.208833643584457967e-02,1.227689983809975016e-02,2.067416695112746228e-02,-2.137776133637361159e-02,-2.377105172771725242e-02,-2.062012035780945809e-04,8.845781307400544299e-04,1.513651374696047512e-02,-4.967026030420310795e-02,-9.572455074146538415e-03,2.907136906342454655e-02,-8.826329939599489305e-03,1.713847958765623777e-02,4.301746729654987861e-03,2.118114944537562161e-02,-4.100054059490752800e-02,8.962835863227231609e-03,-3.330587013380422942e-03,6.094130638706820625e-03,-4.256987004140980364e-03,2.589560693087067725e-02,7.625423649077668446e-03,-3.013112232216076311e-02,-1.448556550380392278e-02,-9.165550702597233604e-03,3.206464511558821534e-02,1.961279942760896580e-02,-3.017951212120522156e-02,-5.011587239731331300e-02,4.252613056280590831e-02,8.512762166911349432e-03,2.947165705548093415e-02,4.922699771480850556e-03,-1.059711509157027116e-02,-3.632372101832432275e-03,-3.851863276266973349e-03,1.525188306275594707e-02,1.737477357529037397e-02,-3.473144122503963455e-02,-3.247992899690440444e-02,2.934362351351689317e-03,-3.038354410130100422e-02,4.943572595275450704e-03,-1.216331543542289659e-02,-2.814262051846437573e-02,1.290736328074229035e-02,3.032702199643843438e-02,-4.458049662559730730e-02,7.678840666396510167e-03,-8.533943631147046516e-03,1.791503267970339991e-03,-4.695941247867128215e-02,-1.218629054282073694e-02,2.185503188927067665e-03,3.287362322251924374e-02,1.529018851455636770e-02,1.888539262408064912e-02,2.306693509423527952e-02,-3.847093175242989604e-03,-9.683996811335655180e-03,-2.932398503984894739e-02,5.404943448719042552e-03,4.425046272140915893e-02,-2.620440037148670780e-03,9.676837828168676631e-03,-1.119890619668933995e-02,9.478387085449610505e-03,-1.951729113296244919e-02,7.084734398968301622e-03,3.880984978652889106e-02,1.698787221655542398e-02,8.749813870905637919e-03,7.422767205383699017e-03,-4.534969714191607049e-02,4.248511861267143495e-03,3.042377049635751687e-02,-4.218757241168392957e-02,-1.158010947058433528e-03,-2.252079103839203789e-02,3.030131055353411668e-03,1.637580145108404051e-03,-4.498911067130902802e-02,1.819234848020333944e-02,-2.050226671246311617e-03,1.899369840267417855e-02,-7.979649032537479772e-03,-1.736405795646478456e-02,-8.922590036485347070e-03,-1.063034496192291276e-02,-2.222375215185442773e-03,2.104109340242859422e-02,4.848775039003375142e-02,-2.141349032508194344e-03,-9.193727840879580004e-03,-2.251276652886147200e-02,2.972745913957302102e-02,3.584762475335535273e-03,8.786628326967336339e-03,-1.775182582757017444e-02,8.930070558074910958e-03,-1.835742247890616297e-02,2.154343243184695875e-02,2.867507872608695413e-02,2.158531923233346361e-02,-2.018233518227743536e-02,1.043240388242210726e-04,1.315271210995803269e-02,-1.130822002103762207e-02,4.090571006166739826e-02,6.442139296082295338e-03,1.365129490499936323e-02,-3.394051994561848168e-03,-9.653342867027632935e-04,1.087597723125895578e-03,-4.033443182632501380e-05,-2.129520672593999964e-02,4.972999790098681441e-03,3.279519097984130022e-02,-1.239865187481447792e-02,8.989443489410917781e-03,1.227398859763301903e-02,8.100412100715138897e-03,-1.767706311746579037e-02,1.960450058832166609e-02,-2.073374280396436328e-02,1.315363138207151228e-02,-1.226394443183885866e-03,-2.446552015005705807e-02,-1.815639197606656527e-02,-1.548872574277037652e-02,-2.176170899893688573e-02,-7.374742050260494654e-03,-2.783333929127892667e-02,3.051998068998968208e-02,-5.890162324297617408e-03,2.428455025155764994e-03,-1.706409664610417792e-02,-9.360420874796158627e-03,-9.576662686647634259e-03,-4.501779602218972847e-04,6.381257819823894784e-02,-4.074812084972344317e-02,4.897573864058912124e-02,6.457618142555472673e-02,-2.343661019088896184e-03,-3.787367744200551695e-02,1.481032574283826231e-02,9.256835354973628333e-03,-1.933591046970887031e-02,1.402343856323445218e-03,1.817264160305312459e-02,-2.103515821338533889e-03,-2.762700656347047423e-02,-1.891104248622171857e-02,2.493781004120154774e-03,-2.950394589292076875e-02,1.207191044937500155e-03,-2.152536943467830630e-02,3.640447036577747555e-03,-4.122315958686337267e-02,-1.126445276325292906e-02,8.054965837550564361e-03,1.038230096913429074e-02,-2.831114602812155948e-02,-2.286767092744297798e-03,-1.550815285045583670e-02,-2.179029837146984408e-03,2.215269619486512007e-02,-4.415420156582617293e-03,8.132778238972702967e-03,2.466137758494503854e-02,-2.571190296704242359e-02,-1.709606420905952773e-02,1.094434779301932045e-02,3.659181016530153180e-02,7.747713627989728617e-03,-4.395047660445665187e-03,3.593269046512473624e-03,5.327863901389068811e-03,-3.963486712072440687e-02,1.945285357104571330e-02,2.284215373429579476e-02,-3.511149433421686950e-02,-1.699906789349658887e-02,1.605497281447629612e-02,6.731681017504491339e-04,9.080178745112736649e-03,-2.240138733064630291e-03,-1.270485499869517757e-03,-5.318703027324796218e-03,2.303047371046913760e-02,-7.726854454683683079e-03,2.868271021983872376e-02,-9.474022384617789352e-03,6.924497249530572884e-02,-1.999588424066845241e-02,1.154404088179384648e-02,1.576428220311886083e-03,2.533312494322502439e-02,4.671247821384404836e-03,-7.380588626446245998e-03,-5.670058251636867115e-03,-2.768760508418787250e-02,1.225217453300911884e-02,-1.613891409649508349e-02,-1.767092102766264520e-03,-3.134551649512275304e-03,3.427195327146818210e-02,2.006968543058715651e-02,3.061900043745316782e-02,8.874789154608923869e-03,-2.934433922382902876e-02,2.376899671109465942e-02,1.733982821276870701e-02,2.056429201322214698e-02,9.139603960982569178e-03,2.342962343133964120e-02,-1.215354606279153531e-02,-2.966338985265879954e-02,-3.746974471183783795e-02,1.152525097833394588e-02,4.166841066286492909e-03,-1.540602666447581223e-03,9.166269778850905103e-03,-9.686345619101182497e-03,-3.382557992741626329e-02,-1.700917862701011377e-02,-4.558227201696885694e-02,4.390847985198405301e-02,-6.165357266848664475e-03,3.265147125815899554e-02,2.790654993850273310e-02,3.877134453664363416e-03,2.305792971366564959e-03,-7.157966066847569128e-03,3.602318137141220095e-02,3.021020727277046528e-02,-2.672097150605272711e-02,-3.657317169402104357e-02,2.107385929333437796e-02,-2.385822440592470089e-02,-9.883161122531344128e-03,1.442627466896925781e-02,-4.320189096290865359e-03,3.327237237620359403e-03,4.385490911101706107e-02,-3.332578068470365418e-02,-1.349469082306332945e-02,2.919999854786436890e-03,6.253074077563638630e-03,-5.678832604049958467e-03,-3.704195203806072423e-02,7.522199054662741594e-03,-1.641936334880432936e-03,6.842791632010642583e-03,5.960084330910233284e-03,2.111555142857374223e-02,1.176661927494953956e-02,3.335143836793969668e-02,2.218225965755973167e-02,-2.941292795381614950e-02,5.914943685030502746e-02,-3.951790844213720795e-03,2.713031194817667677e-02,2.295074295683221036e-02,-5.807438927319043438e-03,3.150572364388497162e-03,-1.765413562230697467e-02,2.494801554360648668e-02,7.133247021717093296e-05,2.609266597632385262e-02,1.155331439536351652e-02,-1.152997007943460349e-02,-2.771366513556467685e-03,2.791099498208243768e-02,-1.210979127807615928e-02,-3.723667344066409340e-02,2.290673031691517481e-02,2.461898704649371702e-02,-7.525028303631973309e-03,1.118109714596685761e-02,-1.870512447949412155e-02,-2.241326142853315370e-02,4.223248273601738247e-03,-1.390697376239211080e-02,-2.443737475777998241e-02,-4.812395294016633650e-03,1.478777626570687564e-02,2.788527424842970198e-02,7.635254745171733519e-03,2.553913619039886035e-02,2.679691761526792337e-02,-2.767783220495220742e-02,-2.291785121445112303e-02,-1.061183030217748187e-02,-3.313742492233121614e-03,-1.277108727735425976e-02,1.336562583449212027e-02,-5.310840263476494794e-03,4.329036671614664572e-02,8.665780028467512733e-03,1.806282804996194036e-02,1.640180320026432548e-02,7.668345513515865269e-03,4.250581534862215433e-02,-1.713879720907339824e-02,-1.059704460840754300e-02,-8.972539157781386776e-03,-7.968312743247610991e-03,1.644502158494391339e-02,-1.340369869138425402e-02,2.108830287375023163e-02,-1.657142548588955155e-02,3.156884374271542310e-02,-1.341224484056054676e-02,-4.498554195113031728e-03,1.013913487386382782e-02,3.087908861653829769e-03,1.498243716654552339e-02,2.460069676590548315e-02,-5.211402135808980776e-03,3.045850642374310635e-02,-2.700306980185192621e-02,-2.380276345555255163e-02,9.379626773793458411e-03,-2.813951466117665598e-03,2.454211005923795721e-02,7.812525508061775661e-03,2.748409198727267896e-02,1.365750794927398162e-02,-1.570408375917878990e-02,-1.270673036948017330e-02,-4.461882151116874570e-03,-2.218740987385978136e-02,1.435108832379351079e-02,-1.986633729735783407e-02,9.559940690449190287e-03,-1.210250998949951792e-02,-2.134691658343427362e-02,-7.097247494259190971e-03,-8.544543108599152170e-03,5.070002251585380149e-02,2.726779587594529639e-02,-2.746422139287420239e-02,-7.200795707117764368e-04,6.238850208270987040e-03,-3.257405130503970153e-04,1.624882711754636194e-02,1.138083369822480602e-02,4.061856681907218686e-02,1.899125013147925445e-03,-2.499050984039086556e-02,2.149848150918801104e-02,-1.872960152773942358e-02,1.469429523032421935e-02,-3.216087966145779464e-02,1.650952082535694920e-02,4.197024841848267900e-03,6.391755208670245846e-03,4.789369790100582967e-03,-4.724862001726588302e-03,7.230013443087156787e-04,1.840419715041690524e-02,-2.087368701024041803e-02,-2.331069551945029808e-02,1.867635360784840673e-02,-3.867710784912079241e-03,1.720676830095082058e-03,1.139757884873724737e-02,8.295773825937567680e-03,-2.133351109151077757e-02,-1.452724966977721709e-02,-1.218668122701293058e-02,9.697109563620062711e-03,-2.316144090536550321e-02,2.166532858720075436e-02,4.031708890763308073e-02,-4.085722037414815135e-03,3.920686614071135917e-02,-5.491784105810772892e-03,-3.355398811720851013e-03,-1.962761079072985332e-02,-1.647458144045258269e-02,-3.907213035812687890e-02,-3.285925116145968494e-02,2.659498587320994947e-03,7.415016209592636617e-03,-6.362625413980288643e-03,2.153585469162642638e-02,-3.212614259839723010e-03,-1.314468769893516360e-02,-1.124848549427759532e-02,1.034827396036749891e-02,-1.882772990249535587e-03,1.173575520630143129e-02,-2.328208511424124938e-02,3.174255516898005693e-03,-1.050529238265392185e-02,-2.643932679120127721e-02,1.309323597970244585e-02,-9.740154123168530062e-03,-4.276638155317829051e-03,-2.061462045350547292e-02,-1.234024577775875466e-02,1.955582508295836477e-02,-1.566369935869340452e-02,1.224155779958819960e-02,-6.717638821186565530e-03,1.440855904828551755e-02,4.113475152851121808e-02,5.615467736551538365e-04,-3.354327797911031694e-02,8.196850839757104448e-03,-6.753464970536666480e-03,-2.402254175947121304e-02,6.065225220513752917e-04,1.221331502143627006e-02,7.088563940848243913e-03,-1.392647569819496951e-02,-1.137059735472559924e-02,-2.898840104561779818e-02,-1.762865947928054372e-02,-2.417265701817559401e-03,1.107399184243918096e-02,-1.021922405118173144e-03,1.587363940542377283e-02,-2.586472887420710257e-02,-2.053957041789363988e-02,-3.963054284805871824e-02,2.976656860144607716e-02,3.231817461697534394e-02,-1.794480838499914674e-02,2.850818797293869222e-02,-1.413523326909898320e-02,-8.084108676767844462e-03,-1.874767866156555607e-02,-1.029643996341375947e-02,6.090659385251509517e-03,1.980465923184557275e-02,1.240611496594037780e-03,-2.436231959080389226e-02,3.601416671553805265e-02,-4.320269101720827093e-02,3.843203848321881388e-03,-3.457143740058440072e-03,7.412317018509142000e-03,4.480238799888692364e-02,-1.574146176692688831e-02,1.676341635407281941e-02,1.234017199758617213e-02,-2.668928830164582489e-02,1.725138348639300087e-02,9.243832950493517664e-03,-4.013454699509929648e-03,2.123041116914798146e-03,1.217687409818926300e-02,-1.568355104953294415e-02,-1.959602644809391517e-02,1.790119169901691412e-02,9.792040283052857313e-03,2.581417638574403164e-02,-2.104622436599406024e-02,-7.597921347471923298e-03,1.160448809911958021e-02,2.439614503241691740e-02,-1.262327730551465396e-02,6.745731372755310595e-03,6.479032327149134192e-03,1.150459515522306644e-02,3.110166129160159970e-02,1.258001376654211030e-02,-2.882104970366077771e-03,1.179214102932668595e-02,-3.219053856606515687e-03,-2.341782651671926035e-02,-2.805453230284421506e-02,2.146800727391511704e-02,-3.363301688855918625e-02,1.593068081452268542e-04,1.007973398595681316e-02,-6.090062788337083366e-03,-2.062478233139889566e-02,5.314570863412558857e-05,-7.126130539736375002e-03,2.395175386553085109e-02,9.626559600991342874e-04,3.241639009497893770e-02,7.730446211878951208e-03,9.262689556415230896e-03,-2.991212970920127320e-02,-8.819022845640582878e-03,1.051105175864263525e-02,4.686269414825306595e-02,-8.872867263601360785e-03,1.241402286933645377e-02,-3.808485745746050671e-02,8.466365584681726647e-03,5.474002785975917544e-03,-1.683406487312034960e-02,-8.854737689283628333e-04,1.603243868630892938e-02,2.217905525389676433e-02,7.850710762635665666e-04,1.169834986366687611e-02,1.122417894702218031e-03,-9.346166336398916905e-03,2.100257025144544251e-02,-1.259503492545608824e-02,1.138323821851006633e-02,3.162754540893865374e-02,3.096444158784181395e-03,-1.284324832943809294e-02,-9.979230233160881619e-03,1.231746960639275301e-03,6.314305992738544239e-03,2.782024844798577923e-02,-2.144593674931183011e-02,1.745792313938575140e-03,-6.251673660371098208e-03,2.249397582017642269e-02,-2.516582054535837498e-02,-1.361784036879972772e-02,-2.081966261644338859e-02,-2.187073585449531184e-03,9.112941392440376473e-03,-1.344063011877108527e-02,-6.931227951044061086e-03,-2.044723914745810722e-02,8.333155626569006824e-03,-2.740370632442286000e-02,-8.680056896197834923e-03,-1.819334247098816290e-02,-2.633280015039330887e-03,3.294377871769111482e-02,-5.223836512804204413e-02,-1.219649939812530483e-02,1.552553594597324074e-02,-1.773423696949307654e-02,2.595843158014041543e-03,8.365053598651037495e-03,8.393171784007075892e-03,4.974151011980623704e-02,-1.584858523286130152e-02,-2.403279398585829105e-02,1.811036531674512298e-02,-1.535110114213830701e-02,2.289519863614888212e-02,-1.916136534106530065e-02,3.981883796266182107e-02,3.792349634004374154e-03,-1.436423020825956277e-02,3.262006637309258078e-02,-6.110981169982797508e-03,1.574995146340189486e-02,-7.681842538976226854e-03,-3.672076560812070206e-02,-4.093217838201779375e-03,-2.735671837481954555e-02,1.297029116278118448e-02,1.558119178275025295e-02,6.532661059801816647e-03,1.217323121821103048e-02,4.463053632951409500e-02,-1.144482499688548663e-02,2.908560258270509718e-03,-1.968266375361309509e-02,2.326279228243588806e-02,-4.905343127178440898e-03,-2.617342589353836846e-02,-3.117463771003966514e-04,-1.156695238753901490e-02,-2.758285507456247065e-02,5.856395687806369502e-03,-4.537793931315927190e-03,-2.593098676146969594e-02,1.677248476765704627e-02,-3.122201906166496149e-02,5.141994566120381034e-03,1.003106731482523127e-02,2.979932030079907729e-02,5.332267142577259804e-03,1.165825823345338803e-02,5.810328079273360466e-03,-3.511430056212426053e-03,-5.288379199914791488e-03,1.674526257907184984e-02,-6.757368677759433354e-03,-2.739568979215974143e-02,1.962203079314107923e-02,1.800528747938362831e-02,2.026734955540284919e-02,8.394680088713033297e-03,1.344823765553132718e-02,-2.114025029881069773e-02,2.344665231774129693e-02,-1.638437530106989781e-02,2.061574793634307623e-02,-1.764400628428846457e-02,1.581219734036059393e-02,2.403552134695795262e-02,-3.098742884030402517e-03,-4.744402864679482523e-02,-2.801864724761065622e-05,2.319956027430874340e-02,1.483315049989096437e-03,4.861226098188174000e-02,7.217407759451273906e-03,-1.123249262670160745e-02,-5.882919856861711268e-03,-4.204340179389470106e-02,1.108045713017543482e-02,1.955449065482183640e-02,1.969062817264091714e-02,8.976785585303700618e-03,2.729614733932122020e-02,2.816229669355842583e-02,1.299293815641223634e-02,4.282520595111912604e-03,8.276575236705026664e-04,-3.862711488961304007e-02,4.014604047467393473e-03,-3.601983616733280772e-03,2.939384325125574821e-02,-2.813291850387807450e-02,5.518473246042308140e-04,2.721712783240509345e-02,5.377509811790067394e-03,-2.002314291127076443e-02,1.589729132427519440e-02,1.497828357598638208e-02,-2.951942105419996451e-02,-1.910589381710047288e-02,-1.277089423268846190e-02,-2.548920666729539986e-02,5.231172047201898545e-02,1.779866153956743621e-02,-3.068400710564005152e-02,-1.175401642172643236e-02,-2.937212466592407315e-03,-9.106484665465916506e-03,5.704782652147129957e-03,-1.146951748452780528e-02,-2.609689111861253352e-02,4.196557290033094134e-02,8.240942638527360559e-03,2.216386116057809247e-02,-4.637168423648483154e-03,1.560065365712079129e-03,1.642456051264390773e-02,1.700621008639151971e-02,3.064105666446950271e-03,8.210358104665521975e-03,2.637202692871688445e-02,2.201111728757340884e-03,2.777712604720920450e-02,-1.268328059157584377e-02,2.156722190350286381e-02,-1.358353784487554422e-02,-2.010094472097976107e-02,-2.434967666959863327e-03,1.608528165349610781e-02,2.903170336542781546e-02,-2.144347393601081855e-02,-2.470217564165741800e-02,-6.166471434958977621e-02,3.540342598132542227e-04,-5.824831924413602022e-03,1.139960790800216084e-03,4.278352010529531957e-02,9.681274192289755429e-03,3.052803591323531920e-02,-1.483280097693625253e-02,3.275406988552877381e-03,7.260833586323742553e-03,-1.661243618554849178e-04,2.150175635472307764e-02,2.840330413283791156e-02,-1.404607251474435624e-02,-1.052730849628533832e-02,-4.700390136168621446e-04,9.668529892637927475e-03,2.772433947924618503e-03,2.003175578682622401e-02,1.903178406274727563e-02,-6.068895364694472036e-03,-2.006382537058907026e-02,4.942214758113847202e-03,3.007388205311941828e-02,-2.019062447334614777e-02,2.956882481273550439e-02,-1.430751521496817329e-02,3.301866179259552864e-02,-2.949094271811516631e-03,3.242319803659285404e-03,1.869989838382285149e-02,5.444682452172494927e-03,-6.658510376378147695e-03,-1.663718240600408141e-02,-7.133149574214921358e-03,1.129218596832508650e-02,-8.387706569839607773e-03,1.707390430730331907e-02,-1.409373333700188538e-02,-1.200880454160297046e-02,3.207330100992831362e-02,-2.476083927774645754e-02,1.798985743068332033e-03,-1.737337127550343807e-02,3.599552446714747878e-03,-3.135133164050746962e-02,-2.422340645993111344e-02,-1.030125704572487817e-02,1.824380457674306191e-02,-3.017956991853227786e-02,-8.035113364184097787e-03,4.259744920352762088e-02,1.923426992399191468e-03,9.755595906728262504e-03,-2.165849909814704984e-03,2.760584978207943074e-02,-2.019931685521725306e-02,4.385975547336651119e-03,-1.010253886640031899e-02,-1.042341276413136751e-02,7.853993422069303204e-03,-8.899006416505332931e-03,-4.620989723721666276e-02,9.587039566442993597e-06,1.790548553228323708e-02,1.026462436583963807e-02,-3.058246734122333985e-02,7.323908552893101595e-03,-1.222299634327293251e-02,-3.125125369451504410e-03,5.040589588959623960e-03,1.242089239779701343e-02,-8.469853974825129750e-03,-3.696595205361269398e-02,-6.293901483134544707e-03,-3.384657001403426624e-02,6.439397749576730896e-03,-3.344236251336874487e-03,2.404462467133474529e-02,-1.543462871658161061e-02,-1.108187751150517888e-02,