-1.049518314800160050e-02,-5.015597330838977158e-02,-4.105487401089738531e-02,-5.403136750999426585e-02,-4.799775760406808228e-02,-5.891740733275731279e-02,-1.844711592100124753e-02,-2.415676049359138933e-02,-5.840240231174653740e-02,-1.961225771599625634e-02,-3.879794347306474156e-03,1.532475103633906301e-02,-2.419538328224479437e-03,-1.904542734485433625e-02,-2.497530290533500966e-02,-9.130956256251080219e-03,2.932966447305675531e-03,1.223261140134294586e-03,-1.482557757277440727e-02,-7.836442155146621999e-03,-4.487552343159798701e-02,-6.879586981788983480e-03,9.145797750742253734e-03,-1.928227461919332017e-02,-1.222876612668598491e-02,6.099209653659749125e-03,-1.692412075049038941e-02,1.852971562002860700e-02,1.500120450018304925e-03,7.843512469862940623e-03,-1.924233238220597261e-02,5.012952655830756228e-03,2.160151285124396053e-02,-4.153913477294821771e-02,1.336145861710646282e-02,-5.282599738676495987e-02,-1.168637836013387138e-02,2.791696065233315906e-03,-2.628893986936971239e-02,-2.147031884664024528e-03,1.628943755699923182e-02,-3.191934116892022107e-03,-4.944164483002017746e-02,3.846492562524101919e-03,8.823382875566967293e-03,-5.236492653383329789e-03,-8.198785655745813652e-03,-8.604025647374689834e-03,-4.135146289954005211e-02,-1.632525150340902870e-02,2.631616313183104267e-02,1.268494269481971679e-02,5.250261021854365530e-03,-1.584964265288261315e-02,-1.421169320590724358e-02,5.166123960863879677e-03,-5.353136655484382576e-03,-5.774614607346515924e-03,-1.943016562815459702e-02,4.615845166226520760e-03,-1.780898801298385487e-02,-1.244906808861161174e-02,1.325147698441028407e-02,-4.250653482763467467e-02,1.733973691674157384e-03,-2.295047562399976648e-02,-5.412071612941325022e-02,-2.970357234879109076e-02,-2.688364003924296683e-02,1.181341529720759433e-02,1.560181246958167872e-02,4.362161198401104389e-02,-1.381434009502298388e-02,-1.363860063034284115e-02,-6.542631532318272936e-03,2.744533511134825132e-02,9.660065844335648938e-03,-3.382785528412402074e-03,-2.040115218226442456e-02,3.625147119552490915e-02,-3.529003835162587699e-02,-8.716731294354337911e-03,-7.035275066515889707e-03,1.049069631014782483e-02,-3.027372270938022067e-02,2.452083421513366612e-02,-6.196721782619978025e-03,-2.169928562495153368e-02,-1.321616148783205658e-02,-1.236051420972759420e-04,-1.352371937421574521e-02,1.552263182047321569e-02,-2.184681461786015452e-02,7.733247914773084056e-03,3.780533334048751665e-02,3.977052216850151568e-03,1.907777577683848411e-02,1.483625171617640112e-02,-4.027040617620960411e-02,2.170408151694389748e-02,-5.481095778605952346e-03,1.569599968652641425e-02,1.923691447426131504e-02,6.954433863680859786e-03,2.063690231543929832e-03,-2.741242937920385092e-02,1.462788875481464169e-02,-4.452174636416514689e-04,9.315299394852418965e-03,1.847644893783579809e-02,-2.379719157298441218e-02,1.811691586443307106e-02,2.554285385698676011e-02,-7.391687702743915227e-03,-3.646263227090299625e-02,4.079042908729818562e-02,1.204531444209796728e-02,8.482574182014739755e-03,-1.190978271321372359e-03,-1.370456796645624052e-02,-1.453667302589029160e-02,9.995732341792065365e-04,-4.096200874131080815e-05,-8.403661098430258505e-03,-1.861871190647981789e-02,2.379557098113079319e-03,-2.468461121148038742e-02,-3.433630377061718669e-02,-3.022646654685286205e-02,-3.463187856063003334e-02,1.050721593732037960e-02,-1.708714059444437633e-02,1.405011141051893189e-02,5.781376794598017989e-03,3.260959253566132060e-02,1.298772155085695275e-02,1.311035308758374748e-02,-1.291338572670929462e-02,-3.725212273623645931e-02,1.115691787951874486e-02,2.078801031238051641e-02,-1.071469339136930932e-02,-1.258511960396245175e-02,-1.006849398038595945e-02,-1.625018534617378094e-02,2.137291776978592420e-02,-4.017925453922145847e-03,1.363974437333722103e-02,5.109309697699851265e-03,-1.907212318785620614e-02,3.666475502506467976e-02,-5.810014542209766299e-03,-1.728098759427386388e-02,2.652792183702835926e-02,1.252163709314712409e-02,-8.174543835184632651e-03,-2.130599037740545446e-02,-3.069859029555012733e-02,-2.081243761888146651e-02,6.590529774949109576e-03,-1.930589188862416941e-02,1.886375086057448872e-02,-9.283221557641045674e-03,1.577076575492124960e-02,-1.813252707623837917e-02,1.531378780973450962e-03,7.982781921004311870e-04,-4.374492388807998608e-03,-1.371304093478133059e-03,-1.082713770739241604e-02,-4.008800944263606406e-03,3.609840916735453098e-02,3.434483028621823988e-03,2.658062595899138639e-02,2.861708652480617066e-02,1.104169697199991300e-02,2.433491712941451834e-02,8.835304873602048761e-03,-1.573029753692847484e-04,-5.165052316302737312e-03,-1.422514474077452191e-02,-1.814531550424430470e-02,3.778141193608619552e-02,-2.635973040540747414e-04,8.131653188050441293e-04,1.842502449989473143e-02,-5.753985737878556522e-02,6.146485733353212501e-03,4.582498457054415969e-03,1.320012852837018419e-03,-1.239352541678581318e-02,-8.757789510003242961e-03,2.106693788464804318e-02,2.780763737022497531e-02,1.310257935716548604e-02,3.080585286378233895e-03,1.375816237998690825e-03,-4.627294900274226373e-03,-2.299272744732665241e-02,5.173566225681667033e-03,-1.656403965320725480e-02,-3.550333258354330945e-02,-3.323861305006138838e-03,-1.009282717721825783e-02,-6.865422116931640083e-03,-6.796342441518733388e-03,-2.654186925870456737e-02,-1.255482817979309759e-02,-1.340519271551393610e-02,-3.409492932222874667e-02,5.972757424835657518e-03,1.526971102187591085e-02,-5.287996217616826138e-03,-5.897651697189478306e-03,-2.976078615675285550e-03,2.911907958183448421e-03,-2.481105127872989743e-02,-3.003467822899875093e-03,-1.129634480051762424e-02,-2.272156483544572614e-02,-5.899113051978209163e-03,-2.013901185205608374e-02,-9.873591377816515191e-03,1.396368897013495168e-02,3.229827994803260993e-02,-1.177417143898696825e-02,-2.660694205902605983e-02,2.187577364161868293e-02,-2.248939745367527221e-02,5.071838856647048824e-03,-2.205621362276649383e-04,2.441204875941678770e-03,-7.170261393206645885e-03,-2.746344787039800214e-02,1.284357093938392341e-02,-5.989550739581055855e-03,-2.054706184953213402e-02,2.027124337324799543e-03,-1.642626589438760110e-02,4.373253715421970833e-02,1.011453943234623225e-02,-1.908920876574856512e-02,-3.992827571242013769e-03,-1.424974740761975577e-02,-1.962788968208355883e-02,-1.885434738992384021e-02,-7.204355521435985496e-03,4.824860606654566252e-03,-2.125871485810510841e-03,-8.251936789034011385e-03,6.106154316972592193e-03,1.944188036792441482e-02,-1.161975363044140744e-02,2.596041577140468029e-02,2.832572858943649061e-02,-2.020703542873442810e-02,1.460552235713293880e-03,-4.825663348602904357e-03,9.628410087954668295e-03,3.082559326379287132e-02,1.796435141267714586e-02,-1.577817813315596229e-02,1.106858269624813942e-02,2.287007384954507262e-03,3.733369946512817006e-02,1.906009306555376311e-03,-7.035696205315604065e-03,2.995667352196880635e-03,-1.098611675647043293e-03,-2.341248983291897845e-02,-1.179605765523612793e-02,-1.614077256285493048e-02,-2.126685279025839967e-02,-2.357299963769500864e-02,3.786293504018863141e-03,1.201388667630552036e-03,2.663943760920372064e-02,-1.871066068025873871e-02,-1.207556154533163603e-02,-9.838021591494008899e-03,3.281136678114532357e-02,-4.566427359653031821e-03,2.730616698828122052e-02,-5.628134372489541210e-02,-1.835028806462557852e-02,4.456714628556162489e-02,-1.151469777882231649e-02,1.836841476008898091e-02,-1.683965546642041122e-02,-2.727309936391805398e-02,9.626573625870264717e-03,3.620364998097875230e-03,2.190661837693558180e-03,4.342463776454771190e-02,-1.501733441810720014e-02,-2.399138825319698746e-03,2.417073683586265162e-02,2.641975622725993567e-02,-1.268597779833662009e-02,1.320041587655572217e-02,4.315556545070957893e-03,-2.330282978774457503e-02,1.761731898057864593e-02,-4.597374241790997372e-03,-6.005497447001188933e-03,-5.347975801926129272e-03,1.393767284535061234e-02,-3.683948537042715937e-02,4.276446060233063916e-03,-1.222073943972680835e-02,-2.760004959807091027e-02,-1.163784436618821305e-02,-4.076674674770373874e-03,-7.533923749099843232e-04,-2.218081942054430863e-02,3.113717220786173419e-03,-6.123339817708808863e-03,-2.865309514347035708e-02,-2.222778117101423083e-03,4.236474329971413530e-03,-2.220065116767256860e-02,2.578094941998197720e-02,3.310080391066440308e-02,-4.960650937669017907e-02,-2.960180983658620892e-03,-2.500098943268188462e-02,-3.026124707734724473e-02,1.704780538818185393e-02,-5.871174303958519650e-03,-8.925024932306045017e-03,9.095768159604116984e-03,-7.074083052898105274e-03,-3.074878718422330293e-02,-1.012715645418177726e-02,2.424373966152557069e-02,-1.058878467520346298e-03,1.282743573820243656e-02,-4.044400072884820653e-03,-3.354107998410685992e-02,-2.874728956527025994e-02,1.112977264761865794e-02,9.093761513307077951e-03,3.638408380149108640e-02,2.058278084843894254e-02,-2.323641218234705902e-03,2.296366309887579518e-02,-4.547391730145811800e-02,-1.606512441154988799e-02,-1.304345811864981303e-02,-4.702029994927456324e-02,3.907850209948285358e-04,-2.334796823028226914e-02,-2.140452923256627119e-03,1.665757403703859579e-02,-2.020435311254193539e-02,-1.061470063443699027e-02,1.326036865381255425e-02,-2.551559266025687014e-02,2.518082757175689815e-02,-1.348213751719768479e-03,-3.362078264285238427e-02,-7.242945031147603359e-03,2.305033806820008455e-02,-2.085297063333850162e-02,1.702286357611160206e-02,-1.427134128072389541e-02,-2.023835186535336353e-02,1.244340973931861837e-03,2.182475048920635291e-02,-1.923475253100724244e-02,-3.449046991510898441e-02,8.490544228721424655e-03,1.331475990673514770e-02,6.003363783527137544e-03,1.505217713864796976e-02,-3.277459056981854493e-03,-1.396423254991355223e-02,-7.688697620402178828e-03,3.031562489253849385e-02,-5.624844152359614879e-03,3.115523884345556237e-03,1.087451323647859250e-02,1.993586110667034533e-02,-1.785863465390526497e-02,-7.573729315496512994e-03,-1.664731103137166018e-02,3.121470360047334108e-02,-2.319604373763077196e-03,-1.003606856454919080e-02,2.218297515829191838e-02,-6.185188191261293579e-03,7.625986406594203147e-03,3.259316319148524571e-02,2.515221001666948300e-02,3.424134088620273825e-02,-1.409774935250681510e-02,-1.104647544205136951e-02,3.781632528565362101e-03,8.249737119102091079e-03,-2.793409408491864809e-02,-2.442567899053224318e-03,3.083021545021879736e-02,2.442906826164633564e-03,-1.403627018629875767e-02,-7.884900115942661963e-03,-2.719687752189487578e-02,2.280889470505692920e-02,1.538863991948251006e-02,-3.532020401153197764e-02,1.447711935275513943e-02,1.680280900513522399e-02,2.357943488523469786e-02,-3.413476881797086054e-02,2.758333936284362506e-02,2.471033702223372763e-02,1.329629122599292838e-03,-5.742601010371655747e-03,-1.751297611514597216e-02,-3.924960825492303240e-02,1.816395673435827057e-02,-5.654239965118240674e-02,-2.680975490003825214e-03,1.382940230221239505e-02,7.048056629940717237e-04,1.535323967125525914e-02,-2.238972273105138862e-03,-1.655257780119689937e-02,-1.323627462973555984e-02,-2.375379892871101739e-02,-6.134477083514937312e-03,-1.859653331557572023e-02,2.034951562647098824e-02,-2.504738809605479288e-02,-3.333591606234607551e-03,7.477051854039382800e-03,4.978094082447829562e-03,2.020996375830893046e-02,-3.143779619727944674e-02,-2.371273823463433683e-02,-2.036312956128391236e-02,1.830110948087244199e-02,-1.898912320949241788e-03,-7.542299570228732861e-03,1.607342355524421160e-02,6.743378218801918816e-03,-3.245084947529754821e-02,-1.591643195688977616e-03,4.697049294799918867e-03,3.123637008205089674e-02,1.067604591161787873e-02,6.728686664100399020e-03,5.073042938066977224e-03,-2.132210875672321121e-02,-3.213551197148509231e-02,-2.068423227689632216e-02,2.723140272716600280e-02,-2.240813383821695700e-03,-3.649488661233581555e-03,-5.509620882297840139e-02,-7.525341570543415959e-03,-9.435503814258960203e-03,-2.515890059169974963e-02,-1.766132820820091182e-02,1.327311383229338483e-02,-6.421722377415853278e-03,-2.901620580796069118e-02,-9.972849749393046526e-03,-4.479609675954806733e-03,-1.308384750300043212e-02,1.377157034135600326e-03,2.191680577749641895e-02,8.845478063249664555e-03,-4.074054202274336733e-02,-2.498840137797887773e-02,-9.489730156315769397e-03,9.431816551672656326e-03,2.041466603213640263e-02,5.394116549640160657e-03,-8.753602637677833365e-03,2.016566100420025612e-02,3.484611956802813326e-02,-2.543197669652064521e-02,-9.738467927519908751e-03,2.679648287620056864e-03,7.756730528333084188e-04,5.556507461303922604e-03,2.069950034996023355e-02,3.659198377207173707e-04,-1.806210705062758284e-02,2.063018580134895474e-02,4.745355260021387814e-03,1.497133678777704847e-02,-4.002625861446508504e-02,-1.401805838945205211e-02,4.833328827920596593e-02,-2.811025432558981671e-02,-3.610194232280957566e-02,-1.980228180689402894e-04,1.958451039889367098e-02,-2.663980549498159989e-02,-5.739674581459419840e-03,3.252457213957202047e-03,1.539621204782565765e-04,1.448145455776669692e-02,3.940978391105343093e-02,6.579865440241979002e-03,-1.191674921216922395e-03,3.355331099701636816e-02,2.581710278196062969e-02,-9.118059204905954590e-03,1.986064447119863761e-03,9.291813234515118591e-03,2.841956455518082972e-02,1.808802247418749010e-02,-2.820400109372297928e-03,1.018245952907832763e-02,-1.836166480938671713e-02,-5.496092640836540248e-03,1.894278660829864375e-02,-3.459073663975524311e-03,8.798657981930548683e-03,2.160747969687452918e-02,-1.147041578887705859e-02,3.463587799021762559e-02,-3.986333633964526946e-02,-1.689371309985193692e-02,2.157367595131541235e-02,2.053904104014876025e-02,-1.447881853371025922e-02,-3.434680788792582318e-02,1.315579735196848940e-02,5.398015356732712745e-03,-1.752727869358056134e-02,4.149142955139195794e-03,1.643729612765901585e-02,-2.414620815059664860e-02,-2.978401381421849625e-02,6.502287314816324743e-03,1.369668621225196559e-02,5.130074246012349126e-02,-8.782075279707084181e-03,3.047128500913014529e-02,8.139351685158419114e-03,7.877796941065405567e-03,1.239563620266562194e-02,1.772877512344254655e-02,-8.365818504772092740e-03,2.869887608732863814e-03,2.241731521972457723e-03,-3.376896546679201971e-02,3.230711902117212875e-02,6.343978075626215477e-03,-2.415344963883250123e-02,9.799011459010482233e-03,-3.062657553907874655e-02,-1.521175932052683255e-02,-2.163612398486938412e-03,1.885663345357889084e-02,1.897091990851107815e-02,3.065823164718661092e-03,4.542823507589942821e-03,-4.430013279344230913e-03,2.290879075335488721e-02,7.694165389489742747e-03,6.377605669406866476e-03,-1.731366858943922740e-03,-5.591421961218027113e-03,1.831477935136673757e-02,7.176971268776384701e-03,-3.534985491733721487e-03,-2.815077450103356874e-02,7.860777375149776910e-03,1.794245370990410829e-02,-2.293466511993342422e-02,-4.558934296209441600e-02,6.240002540097482932e-03,-1.054639284234501180e-03,1.730745976008976443e-03,1.055948900667802795e-02,2.565738051173091505e-02,-1.940439173479245605e-02,-1.229022148661864690e-02,-2.906521470738566287e-02,7.645266345532409497e-03,-4.620667688220265676e-03,-1.169816001576636302e-02,1.418393655979693956e-03,-3.884160396837100376e-02,6.406943516599676244e-03,9.237841781967168209e-03,2.135884005523653456e-02,3.242108346528501522e-02,1.252314108906757255e-02,-1.442221497874827257e-02,-1.025172937433707285e-02,2.629917242484184833e-02,-4.096807326459787901e-02,1.122905399152051079e-02,2.613271649650210707e-03,-2.645649616844888020e-03,-3.229721515038774804e-02,-4.291598077807166900e-02,2.929386729414042156e-02,4.400008501449943765e-02,8.609018541089119222e-03,1.561230294263423260e-02,-2.077642022559151105e-02,-9.762724194004058012e-03,1.181032383250272709e-03,-5.309130200371112293e-04,-1.111770370820551641e-02,-2.087574477039916623e-02,-2.239841997061987541e-02,2.118706442364007292e-02,1.522544633942922616e-02,1.866428790738523455e-02,1.899908200996042879e-02,2.589402367556780521e-02,-1.291434941187894966e-02,2.088360961367008439e-02,-1.450476273084228516e-02,1.183818338296711284e-03,2.445128225903618613e-02,1.244304731730504557e-02,-3.605583029439861451e-03,2.178580381107717012e-02,1.571325298528613440e-02,-2.394175849339582121e-02,-3.221908621530593375e-03,-3.886047987637945844e-02,-2.814613236833270193e-02,-6.821003286505152030e-03,-1.833521410130375950e-02,2.039958487004380622e-02,2.154651171179659125e-02,-1.129160179918899803e-02,-5.990865508079805824e-04,3.037248989058540308e-02,2.910350545641901543e-02,-1.331805131126175164e-03,1.434084383477207160e-02,5.350605730154035788e-03,4.088938725625961695e-02,3.090257685621368433e-02,5.006602927746412217e-04,8.674729539490080160e-03,1.842038193617645406e-03,2.582871665224631495e-03,-1.506825034034148941e-02,-2.208481544542103756e-02,-7.386875685834704344e-03,1.077412133098366864e-02,-2.797740998690896597e-02,-1.868871900384222115e-02,-6.618732804769604690e-03,-2.737815283074493747e-02,2.258169633795741732e-02,1.281274492194839527e-02,1.472458045777142593e-02,-1.584365108890702784e-02,-2.156340995221492016e-02,-1.389610183820856257e-02,6.960013642334762773e-03,-1.612910079006616912e-02,1.547891548297032106e-02,4.279244542795530501e-03,1.649574305905794278e-02,-2.980314853328863266e-03,1.539372027884570310e-02,1.705157522458463498e-02,2.441924503958550069e-02,-2.097165586895726255e-02,-2.969955241113132055e-02,-1.604363456974410365e-02,2.504168948223651700e-02,-4.626588200063427685e-03,2.234097820124657588e-02,5.592510025699395926e-03,1.642301937676386367e-02,2.371130194041303971e-02,-1.367431642746186164e-02,-4.530850232097387645e-03,1.394061725361687466e-02,1.257088941236308120e-02,-2.409160683003232564e-02,1.930711038126035894e-02,-3.481017222426070756e-02,-1.880294151330716423e-03,-2.764861491836765727e-03,1.943060690591814216e-02,1.852066405243507977e-02,5.298083730766638480e-03,2.499888744420530537e-02,5.044216575130249652e-03,-2.508101966795258167e-02,-1.386942749542031776e-02,1.907347082833634605e-02,1.091772959088886316e-02,1.066979858545663226e-02,2.013074393438079104e-02,6.061636883595651962e-03,-2.637267489230223083e-02,2.152683299465274480e-02,4.258957123941327361e-02,2.442123560202992538e-02,-1.662018259910138726e-02,-1.471892888167536731e-02,-2.692963077006849115e-02,1.110560471404600444e-02,5.676749881483898925e-03,-1.713550965146439647e-02,1.084597972400526758e-02,-1.141926274976796767e-02,6.913719908934187926e-03,1.742111551737604569e-02,-2.689771505910193081e-02,5.184269646311132074e-02,-2.975672845519511736e-02,-6.345930016244346640e-03,1.864848137718998905e-02,-1.877370279043800300e-02,-1.485062801869011656e-02,1.976024319220346173e-02,6.933705287027825195e-03,-1.410103124304970881e-02,-1.256512265861144638e-02,2.510573724373488941e-02,3.930808188870826836e-02,3.091746307051266435e-02,-3.437554971838899937e-02,-9.449562162642630159e-03,-4.206049167714492193e-02,-1.846509680840002082e-02,-7.067459431879805250e-03,1.261319004670866106e-02,3.190461302782744701e-02,-2.147757415322064725e-02,-1.482437421989816866e-02,-2.752885294345379288e-03,2.928150135910708926e-02,-2.695684293377462876e-02,-1.824472962778999480e-02,5.314505023176784894e-03,4.309614452394764511e-02,-1.820880618425371050e-02,1.576125514508178171e-02,-1.594136819910386624e-02,1.974491882056689240e-02,-1.373020846345425830e-02,-1.106471901456704569e-03,-9.417268055755090989e-03,1.531687129778273870e-02,-2.774288719479693459e-03,2.906534232911758484e-02,8.575933982360213134e-03,-1.890414117550934942e-02,1.538872228282815550e-02,-3.025265615494040702e-02,-1.596408247909760283e-02,-2.778212736635799190e-03,-4.038294084496758807e-02,8.668540930438501171e-03,-1.905614645258248488e-02,-3.707109145006131333e-03,-2.517296535412123434e-02,2.623258536510065728e-02,-1.747523902635521320e-02,-2.362252034233158771e-02,1.871706648874238085e-02,-1.391988589797429031e-02,-3.046159938456943425e-02,-8.035346403755186037e-03,1.983065025274349802e-02,-5.154322499678645059e-03,-1.441955509721267598e-02,-7.490103400308038145e-03,-1.336555500739401887e-02,-2.763459005736571689e-02,2.939571746024055923e-02,-5.981657222053267733e-03,1.812591181532994047e-02,1.465380663852438106e-02,-2.132074918254879894e-02,-1.600596083851728540e-04,-6.081652299761256507e-03,-9.653756965532354906e-03,3.925786270021480555e-03,-1.912658235117271899e-02,-4.020366226505030921e-02,1.535111530541093117e-02,-6.471175298979404619e-03,-1.046914307804298373e-02,-2.473094313195431035e-02,-1.319677120397410447e-02,2.254294796066714374e-02,-2.334673756413226109e-02,1.856878515233779600e-02,1.364221220711355972e-02,4.767534717944529876e-02,2.875406992216379752e-04,8.530438174964308229e-03,-3.889662105911598916e-02,6.640010834144853026e-03,1.775167168277125979e-02,2.351777988415898468e-02,2.707666583814721459e-02,1.749543879552896116e-03,1.152950676853069928e-02,-2.566578786439236565e-02,-2.275473857653453544e-02,1.093583372370192895e-02,2.334434505528858173e-03,8.808081963419714389e-03,1.203793019934430025e-02,-1.248179424299166590e-02,-4.388140436714254439e-02,1.808983278734416222e-02,-2.212750040609716418e-02,5.179013825706945198e-03,1.633278914739845142e-02,-1.931229542601655205e-02,-1.611096109775131402e-02,1.444044355597360598e-03,-5.692628360849675585e-03,4.400627729195107085e-02,2.970769553738401847e-02,-2.244427039042994759e-02,2.743013989284161930e-02,-1.530484848216107302e-03,1.133128391110591222e-02,-7.702782132052539074e-03,1.556255776413013013e-02,5.964685559168797502e-02,-6.330184366329837109e-03,-4.821707032117211050e-02,6.604940331338198314e-03,-1.259344969823288952e-02,1.074883326726394292e-02,8.131623817578507649e-03,-4.533333813291666285e-03,3.734071284486499727e-03,4.415885129834822703e-02,1.326377406808858629e-03,-2.621492612900315142e-02,9.906881742747704681e-03,-8.702120498753188743e-03,-2.087977470819481034e-03,-1.932956220762520674e-02,2.630919667860662572e-02,1.076998664575552940e-02,-2.207925028027388215e-02,-3.476287222833189527e-02,7.091734619134496855e-03,-8.510861100830494769e-03,-2.271343197935040531e-04,-5.132060432604817340e-03,-2.550346218255227296e-02,1.317895819168585746e-02,-5.089867715871783382e-03,-5.380102269051723063e-03,1.894101552330333324e-02,1.644493324009149021e-02,-2.397636865897381786e-02,2.195618970649843710e-02,4.370933487584120758e-02,-1.622668585450110987e-02,1.394704700734680433e-02,4.016442653424909942e-02,-3.870962483157954631e-02,-1.344119890141430573e-02,-3.344068509148773443e-03,3.015943169466732410e-03,-8.521063209357578744e-03,1.893811441621115130e-02,-9.510396714300796417e-03,2.238505409193198431e-02,-4.262216602762792378e-02,3.896555787920938027e-03,1.674676408113815254e-03,2.390765792477749299e-02,-1.042260953528177485e-02,2.168774037041830069e-02,1.379512432340430743e-02,1.489033122558186539e-02,-1.522849358186193804e-02,3.255588828654539663e-02,-2.004246953245690174e-02,8.021454013519842274e-02,-2.837558883903852983e-02,-2.820414574610569103e-02,9.518356375463778510e-03,2.236068666127036253e-02,2.025317094267220855e-02,6.496349760260003610e-03,-4.297222920062935408e-03,-1.831360224190385980e-02,2.218525023663892384e-02,2.415661188313448365e-02,-6.147182433184668750e-05,-2.241053129424817880e-03,-1.527787005876093300e-03,4.094076334933852666e-03,2.402379260579573170e-02,-8.808736233503111981e-03,-5.699821174115198702e-03,-1.832594326896921921e-02,2.157393840103836655e-02,-3.863611576860905266e-03,3.595742825243528756e-03,4.647372872320237186e-02,5.887936990566596494e-03,1.262653277708112275e-02,2.628324759102227542e-02,-1.724692758240702105e-03,1.908741654929319714e-02,2.943438030839061123e-02,-6.817750778501316389e-03,6.004755042951270654e-03,9.023840020700573186e-03,2.878147302519471970e-02,4.241828993457876298e-03,3.952060223720024051e-02,9.840477641791970514e-03,4.332238334200304297e-02,-1.488886122437683111e-02,7.760634447341663474e-03,-1.482430799451236840e-02,1.435413093042535101e-02,-1.819506699689877900e-03,3.884601475655944519e-02,3.272990435078976679e-03,1.508941027684989993e-02,-1.074389654215397033e-02,-1.497132983680718975e-02,4.832760448441638496e-04,1.465527261111779743e-02,8.223252250829938756e-03,-9.271073589442331217e-03,2.833223442229696604e-03,-3.453132944044048219e-02,-1.300467073829042301e-02,8.179704008134067519e-03,8.163115195314785480e-03,1.846907842974568684e-02,-4.266030565234676247e-02,-1.949538887768443793e-02,-1.773292820681804383e-02,-1.135364713896932706e-02,-1.262893815745617931e-02,1.694147223994129509e-02,9.602298098646069608e-04,8.135074526001463691e-04,1.926001516395533381e-02,7.411337973031457103e-03,2.058688219101563813e-02,5.189950471094705378e-03,-1.966017159492183114e-02,1.474064485057111247e-02,-1.340570190162166872e-02,-2.497075562455439504e-02,1.379871586541625908e-02,2.544921537657587884e-02,-5.944847010076075022e-02,2.953462147835267740e-02,-3.272550223651746887e-02,-2.005915647435061247e-02,1.370991974404275698e-04,2.151983909501931774e-03,-1.309832622027449177e-02,-1.127620226402256329e-02,-1.219372358500601418e-02,-5.276518709994812949e-03,-6.777310503610347800e-04,2.497690777812312107e-02,-1.492250160669598633e-02,-9.859538905792534884e-04,-5.256669113498477382e-03,-1.894800297070602796e-02,9.048215706994669483e-04,3.457066160052010839e-02,-1.986746318292185662e-02,1.318927180331721377e-02,-1.521273688715883655e-03,-9.814743122417781546e-03,-2.949926112631561306e-02,-1.098652031829761011e-02,-3.431955079748944676e-02,-8.529830748180127625e-03,4.633525751083620442e-02,-1.821749063862017348e-02,-8.668635567456844590e-03,2.492488997509729673e-02,1.287491108017013546e-02,-3.127206057510374670e-02,-5.389275489531564212e-02,-1.780742097414398165e-02,3.978785037836002000e-03,1.678016803257872600e-02,3.468369714066112802e-02,3.873261902665247475e-02,3.738968104479498036e-03,-1.639382707474076536e-02,3.437111131944637493e-02,-3.168562441260835364e-03,-1.131817948630946605e-02,8.387722672281654190e-03,-2.278252464832748042e-02,7.494746925755703046e-03,-4.749678267652036184e-02,-1.142170563434496966e-02,-4.108807962642638256e-03,-1.851017773977675293e-02,-8.766634032333993701e-03,-2.951939309914316384e-02,2.811510893557461668e-03,-4.852332935807088243e-02,-1.343980148855739715e-02,-1.149799414757722571e-02,1.519911752994019052e-02,-4.098992590293523697e-02,-2.325949445129949639e-02,-1.931637533376250743e-02,-1.438599901041183980e-03,-1.760082069539250366e-02,-4.575084502748629281e-03,1.073547991026202464e-02,-2.320807938514194216e-02,2.119667435921935780e-02,-1.174524379817133528e-02,2.872217090800736547e-02,-1.848736103823065899e-02,-5.200986140664390356e-02,-2.255913287533959158e-02,8.646668941488173596e-03,3.943685563198166865e-04,2.289978111283057574e-02,9.833265013275905436e-03,1.761728620727781580e-02,-5.016820415729922669e-03,1.832308794591085144e-02,-4.393370404127776296e-02,1.048714351147694845e-02,-1.427104262113132807e-02,2.825963129498356569e-02,-2.984695796240183913e-03,4.491246573912148661e-03,-4.584195436016425679e-02,1.054250287982039236e-02,3.397142116554131928e-03,-1.623292312482148281e-02,-3.775520201306913765e-02,-2.424675517380842776e-02,1.557162064659213009e-02,-1.953313675450200557e-02,6.585590501726054473e-03,-5.860811049850776777e-03,-3.478887062665871055e-02,-1.568349070557661235e-02,3.208951497257832818e-04,3.381498648049657829e-02,-1.118502637421312645e-02,-6.167187832334734311e-03,1.954571870738379749e-02,-5.883109060749604213e-03,6.356102431093965839e-03,5.964629608368567266e-03,4.072967007402963219e-02,1.186157436914369798e-02,-1.862702903727124493e-02,-8.445618669553964578e-03,-1.755700348615436444e-03,3.814543496520456101e-02,-1.736455136898220437e-03,4.952967177837593743e-02,-3.795983885202653535e-03,1.499787871592911728e-02,-8.480163475413689950e-03,-2.108792232129844471e-02,-1.317795659667192303e-02,3.023143076261875992e-02,1.193789736840903011e-02,-8.786662442940433235e-03,9.277444372891454835e-03,-1.706715412376013166e-02,-3.126440480893862700e-02,1.460077424432676407e-02,8.756663414502794535e-03,2.660991858740094709e-02,1.263107474504828430e-02,3.487311570272003114e-02,-2.578156844881271392e-02,-1.149606697028144296e-02,4.324098523233335309e-03,1.310637434388861079e-02,-3.767344747167506586e-02,3.048616118490218505e-02,1.903161207964976578e-02,-4.411827662354835151e-03,-1.424889301406849929e-03,-2.335495090793755779e-02,2.274540112474722833e-02,-1.492869319156373605e-03,-1.536294769599694070e-02,1.366598195779172679e-02,-3.220826646040568508e-02,5.264122132322896115e-03,3.490808236957313338e-03,1.815853353117563573e-02,2.624276279116521601e-03,-7.537562711150773941e-03,-2.233753657215158377e-03,2.529121351716418983e-02,-2.882649602563351360e-03,5.524624465394789227e-03,-5.751878756720865682e-02,2.762045447681481160e-03,1.069817016423462580e-02,-2.141965141356367425e-02,2.738345047624049771e-03,-8.335504092379587143e-03,-2.892416112572071887e-02,-1.610981427023724238e-02,4.892223149114011821e-02,-1.740834480961239022e-02,-2.590599180918419162e-02,2.719290880233865039e-04,-2.781267237606773954e-02,1.257423471205657874e-02,1.202509540659173204e-02,-1.143208936323436911e-02,-1.510751710062944488e-02,1.109282777730491616e-02,6.937490068293475191e-03,-1.447250769058973374e-03,-9.931057991738734617e-03,-7.493679777681785774e-03,-3.735926079813497308e-02,1.738622757672942873e-02,3.770175864660038623e-02,-1.145102561278607024e-02,-1.353212664977300299e-02,-1.312092328400663727e-02,1.446564196880964839e-02,2.275295494710411273e-02,-5.556357851673437986e-03,-2.809971563127116462e-02,6.046927925452093983e-03,-5.434220556799899612e-03,-7.356197945455265376e-03,3.027149909947755954e-04,2.521167113725104186e-02,3.250426147517539686e-03,-9.548253689188655399e-03,-1.392083087140105367e-03,-1.092396652687063069e-03,-1.019810264086335426e-02,-4.152160184040227728e-03,1.408849123224580405e-02,6.904144250062482085e-03,2.956596687570405696e-02,-1.737729383405329023e-02,-2.299812464876826654e-02,-7.472818120153911989e-03,-1.592551601967595251e-02,4.078171898154932945e-02,-1.926581889644387105e-02,-3.602780279044704576e-02,3.113269210284261290e-02,-1.847319619703653021e-02,2.750875734594550662e-02,1.934433943769164194e-02,-1.586255981481890856e-02,-3.151713958109726016e-02,1.001091953314443622e-03,-7.540083745803641442e-03,-5.326122228650221994e-03,-7.998180665382378235e-03,-1.669100746575474456e-02,-2.151388751813456193e-02,-1.291078387843921449e-03,2.866495219481984130e-02,2.336358888498519040e-02,2.400836943806037606e-03,1.279130866718022203e-02,1.345834250566967788e-02,2.221340530235469887e-02,-2.234763852849485852e-02,6.383687821701834915e-03,-1.597794933428960118e-02,7.688240295458493440e-03,-2.826892478390379080e-03,-7.940348396152395460e-03,-3.220382205811023885e-02,-2.054606224782674559e-02,-1.264045070271818845e-03,-3.103091802860146950e-02,-6.321627618289273748e-03,2.458497386859245099e-02,1.691765430694808572e-02,-6.488479093641559038e-03,-1.589761187601329909e-02,2.550382823691519849e-02,-4.572910449190347153e-04,1.612418258612289754e-02,-1.592347271150707302e-02,-7.743522215813669965e-03,-5.241425711900727898e-04,1.464721043984483495e-02,2.235781585047720912e-02,2.233934217817963586e-02,-3.412321691035097478e-03,-1.024555615540541711e-02,2.236878026462373048e-02,9.145176037526094731e-03,3.352508920606921128e-03,-8.975725221313706487e-06,1.311585285614911070e-02,-5.140767598573438291e-03,3.968974494231706888e-03,4.008837842460542811e-02,-1.544023049788630260e-02,1.374919141440356096e-02,7.491130937782377285e-03,1.411831712430924868e-02,-1.932462157532391714e-02,-2.487319836569156298e-02,2.516150033971959951e-02,-2.860195866899442954e-02,4.659191631375209953e-03,-1.801130551296808296e-03,2.877519225139607735e-04,1.366072807232841975e-02,2.791647098643057490e-02,2.192728871200990554e-02,-9.405657778311512021e-03,-1.619800843441647833e-02,9.447158526494343553e-03,-3.124819024411063049e-03,-1.519682862628518594e-02,-6.135070272026305407e-03,-2.458527447911301386e-02,-6.078489919257815989e-03,-1.375730563007671915e-02,1.975972762189795104e-02,-2.440574194348093043e-02,2.461364282703592046e-03,3.461094481587071586e-02,-1.512749143967460908e-02,3.018008661194354018e-03,-1.045212301131650569e-02,-7.339164325552598352e-03,-1.491431062626715973e-02,-1.200712302360117979e-02,6.987118907760223388e-03,-3.090827360906591575e-02,-8.972901063756649406e-03,4.718668053595806260e-03,-2.699702154458715961e-02,2.688453211480333616e-02,2.458028916469415584e-02,-2.720754869893048447e-02,1.089891804145760174e-02,2.630815413158993712e-02,5.199167894935920707e-03,-6.001485239788674139e-03,-1.944565236827090066e-02,-1.208412861183092574e-02,-2.230893157681320196e-02,-1.227250466216099969e-02,-3.775200504689859606e-03,2.391178451333135155e-02,4.836622536577597081e-03,2.292396201682313922e-02,1.786651603439278618e-02,-1.318361173735223572e-03,2.218665843120444861e-02,2.739643865165436801e-02,-1.856619464008363307e-03,-4.224322810288962809e-02,1.393309899046200244e-03,7.278938601173228699e-05,-5.623884718061653541e-03,-2.062540266171450365e-02,-1.865830794384045963e-02,-1.536819745299514844e-03,5.325046800527254457e-04,-4.507793487028992178e-03,-3.104063575810888861e-02,8.743646308258817444e-04,8.530778964245843907e-03,2.715983028985455294e-02,-1.040655700182291886e-02,-3.610116045210394475e-03,2.200109268932951695e-02,2.763406090494140502e-02,-1.493543656648064349e-02,1.521401007253688105e-02,-2.995577707175999319e-02,7.993296296844564983e-03,-1.898035764244349749e-02,1.366880515254242923e-03,6.530523605891642297e-03,-4.494723364665201282e-02,-5.831061772621985717e-03,-1.537650982780400027e-03,1.565055889694557181e-02,6.824081046803993043e-03,1.163689966772676106e-03,1.844626145874074183e-02,-8.021629200686044778e-03,6.670359294616399690e-03,-2.664429203767057844e-02,3.451050347901739312e-03,-1.108720048549768390e-02,2.258556084156367397e-02,-1.368878646906698977e-02,1.229409525886544091e-02,4.973615768803353251e-03,2.293178135291652764e-02,4.525021090870929436e-02,1.665947963340331378e-02,-2.859969095128803845e-02,4.678040867940796120e-03,-5.224655333260999450e-03,3.619161519923268927e-02,-9.165420038757570581e-03,-3.187599438472902419e-02,-1.709055652228998537e-02,1.271695839235485563e-03,6.056753861905727135e-03,1.231383157019861133e-02,1.288681593700104558e-03,3.682864820676248849e-03,1.088301629817045243e-02,2.838905401360927033e-02,3.023907053895334360e-02,1.710124257315635832e-02,2.127059314594659939e-03,-5.023605444268256295e-03,5.156047226299563697e-03,1.203521637401009162e-02,4.430533824228582475e-03,-5.220475805718288557e-03,-2.297265417983688010e-02,9.060308275393960664e-03,2.501840901604404383e-03,-3.006696374327065546e-02,9.685029866972514560e-04,1.703531860394333006e-02,-4.356136911147279189e-02,-2.261689849465084792e-02,9.536925940045161421e-03,4.863017652572089976e-03,3.907943340080743955e-02,-1.511301745523466536e-02,6.998859081016581968e-03,-1.343128741677531530e-03,-5.261789923257274154e-02,-2.850247451210059443e-02,3.395499724487849660e-03,2.848888621289942177e-03,-1.968689278212249275e-02,9.980829356006432757e-03,6.702835733214556647e-03,-3.582262131188599513e-02,-1.448672445046141457e-03,-1.210767905291376678e-02,-3.184551333947575197e-02,2.169042753395938536e-02,-1.264101697184830814e-02,9.303377261842396551e-03,-2.366156157446053232e-02,3.614995606566650393e-03,2.725638583469714230e-02,7.885048965354979518e-04,8.567513457646747446e-03,-1.604242589818975426e-02,-1.942490237576267745e-03,2.187775759763710415e-02,-2.748241719519012999e-02,3.142976568863059539e-02,1.308711503873019426e-02,2.985729042408702405e-02,2.057304016784790301e-02,7.016779094112548382e-03,-2.385254181332976259e-03,-1.072099842896327574e-03,-1.427842001175414974e-02,-2.159261444893952053e-02,-1.600619375287913246e-02,9.046292316004161255e-03,-1.750640128281530719e-02,-3.505532406007954259e-03,9.804447197869768302e-03,4.408802231433809476e-03,8.642253461090753600e-04,-2.743699536305369696e-02,5.514273092245790958e-02,9.759432997161315501e-03,-1.955838739604809579e-04,1.395204246611699873e-02,-1.635909809889237246e-02,-8.744481863685451628e-04,4.538406308452520507e-03,3.843979737595312057e-03,-5.157585157144738836e-02,7.871011610047204399e-03,3.074983952169894029e-03,-3.294954055253299097e-02,-1.788695796906678015e-02,-1.308886861880866927e-02,1.124413146311073648e-02,-1.442998373486115322e-02,-4.346675885249290383e-02,3.641013253984786129e-03,-9.868260964276964059e-03,1.497071430034790929e-02,-1.408241700707318390e-02,-2.185143403571253654e-02,2.183398673945878554e-02,-2.608502838714188074e-02,1.716622232696483289e-03,-9.389857156724704113e-03,1.218942564388194975e-02,-5.115892349317720071e-03,1.281483380559458873e-02,1.917785406092949825e-03,-1.772768114328109566e-03,5.349620694021900089e-03,-1.413839517388859775e-02,8.578116950378767216e-03,-4.743164220314408791e-02,-3.360784361657920272e-02,3.400521205342270370e-02,1.384840196330574917e-02,-9.991472481525374635e-03,4.644806128333760914e-02,-2.532034243765440840e-02,3.943936937951761715e-03,-5.757514992413337307e-03,2.405237827551040541e-02,4.408060001928362087e-03,4.028547449179083195e-03,3.333307671988128273e-02,-2.427928561071875796e-03,-1.532149389821289148e-02,5.844159680128137649e-03,-4.156758187052625453e-02,1.913621755050883694e-02,5.068694433075724912e-03,1.772476637938976904e-02,1.388394360123271568e-02,-4.417443085204485025e-03,-5.173336580152015571e-03,-3.795087880041116742e-03,4.470466062309861460e-03,1.193260180168162835e-02,7.563326989989235111e-03,-1.677663781001833415e-02,2.265684736365961710e-02,2.188404495505860345e-02,-1.778769988740916408e-02,1.103758459435295360e-02,-9.509576999897776176e-03,5.307677135415274708e-03,1.909358472602317239e-02,4.894932126212001196e-03,-4.068626246476652122e-03,-2.527319684770994168e-02,-7.580926161103869812e-03,-3.271249686506944726e-02,5.042926816949650816e-03,-1.200067187113290808e-02,1.194065084160386182e-02,1.774968996362567136e-02,9.619854692820770103e-03,-6.689331989970874123e-03,-8.553835022358435500e-03,-2.111394079082955580e-02,-1.003792958235700736e-02,1.999724243792187078e-02,-1.575056533810321926e-03,-2.664903771160858498e-02,-6.140181779514663520e-03,-1.738623169992277104e-02,-3.032124335954827429e-02,-1.339709512957224305e-02,-9.094083234452128919e-03,-4.934814444149920008e-03,-4.438057156219970580e-03,-2.273105159946156931e-02,3.407393340739126725e-02,5.600188074190979616e-03,-1.227386881282017603e-02,-1.290684045610184481e-02,4.790237611776241569e-04,1.616760270374782704e-02,2.984383446837490794e-02,5.911248496975527594e-03,-9.090389235940632418e-03,1.196908102690288737e-02,3.582678788534010821e-04,3.370533021185619094e-02,-1.856104404448024464e-02,-1.306305395075452701e-02,-3.686125650342705895e-02,-9.030852573342018630e-03,1.456096173268806243e-03,1.268070874143650134e-02,-2.036289649293824156e-03,-1.282721678847801618e-02,-5.830944193936021119e-03,-1.544038221490176901e-02,4.053576214469583293e-03,-6.922933801279006726e-03,2.058007281778384198e-02,2.882049612633579417e-04,-3.237414490658503067e-03,-3.423118578702449150e-02,-1.456818584402171622e-02,2.717431735477588914e-02,-1.243104332465642427e-02,2.949824412666541325e-03,-1.633509308333447665e-02,-2.206634392120931931e-02,5.937484157081222846e-02,-2.918487423311310128e-02,-1.478742924756001366e-02,-3.836110076977268524e-03,-1.242141276546077262e-02,-1.638849376294842239e-03,4.652038015030554585e-02,-3.258284083053170077e-02,-1.469660651844733636e-02,-1.231508049743055590e-02,-9.489377809468700631e-03,1.296127743939898968e-05,-1.839922548064234315e-03,-8.350534095132439855e-03,-2.409566643992882423e-02,2.437730640024295126e-02,-8.353302938009921422e-03,3.120612919459948148e-02,1.651483899196813654e-02,-1.510026519997576498e-02,1.085418272459534421e-02,5.684078523247355214e-02,6.715789554229114645e-03,-7.170273993372574530e-04,-1.684803807258261274e-02,1.389322843887722675e-02,-2.336956365456415233e-02,-1.084579021590745783e-02,1.267580801210930856e-02,-1.690224241515778884e-03,1.612189640653702294e-02,-6.422353754533908880e-03,4.543507448464376847e-02,-1.169804787078830913e-02,4.830019476104094149e-03,-9.053822300114800631e-03,1.608209573568298786e-02,1.109252222506513401e-04,1.633303973948839775e-04,-8.766184761421639063e-03,-1.262889182914229795e-02,-7.879227891798006034e-03,6.427463697078483924e-03,-3.942452492122864097e-03,1.042799347175437990e-03,-2.311049607432832248e-02,-2.373300917407996855e-02,2.118213011113360966e-02,5.643953935750500688e-03,-8.587425874135665854e-03,-1.219216821149825269e-02,2.272944779915057195e-02,2.206698094416532571e-02,4.712440564875561289e-03,8.908798136828979461e-03,1.651017859781594641e-02,2.994655982761166430e-02,3.811881533931939237e-02,1.340708106670837271e-02,-3.879182834645010514e-02,6.262426201126617721e-03,-2.409631460524336646e-02,-3.299936927396800168e-02,4.028314120256564108e-03,6.112839749798274804e-03,-4.515073261005748788e-03,6.470247180148960137e-03,-6.892506547816657121e-03,-4.769002799411677963e-03,2.270168802707227262e-02,6.679229137397399083e-03,3.956116267379599510e-02,4.774910321554110687e-02,1.972525421021801423e-02,-2.739526345149837991e-02,2.437980845819394046e-02,2.640880839101341845e-02,-2.024486025584026905e-02,9.576819692518561897e-03,-2.500571618438932053e-03,1.707460242452383051e-02,-6.091667470088403796e-04,1.000624765513348328e-02,2.573273752056725976e-03,-2.273344159128829964e-02,1.488394396200632200e-02,5.715308055321413790e-03,-3.004159166542441899e-03,-1.777676631440149382e-02,9.542395654971185318e-03,1.259678043131873953e-02,4.040318316215959875e-03,9.845112484883861842e-03,1.094687261865349287e-02,-1.742280497260184288e-02,-2.671813139057928332e-02,-8.368373685549621542e-04,1.831788595279415163e-02,1.802623135340402846e-02,-1.912734551017540585e-02,-2.318927149949960229e-02,-2.279483248076108123e-02,1.898824556826975152e-02,1.324722161280348677e-02,-2.467304292108236929e-02,2.524506021279398008e-02,-2.836495449438162716e-02,3.005132593701480628e-02,-1.853198916257264633e-03,4.676417021461203895e-03,-1.424130273263747798e-03,1.878415250835855158e-02,-5.800669759918362228e-02,-8.828811918291842517e-03,1.711408555450148750e-02,-2.839328073396368488e-02,1.146266105206797739e-02,-2.538556924563074857e-02,5.693505154861695262e-03,-8.857784166711235585e-03,-2.521115791767063880e-02,-2.778856467027439672e-02,-2.147752617632588037e-03,-1.178145737573333546e-02,-1.049474457130362970e-02,9.791901840290315184e-03,8.861320910990878874e-03,3.291453440821339241e-03,2.964912116352990713e-03,1.737717606280356208e-02,2.377457639319778462e-03,-3.013025831412233929e-02,1.310102789018070986e-02,1.105727453126366215e-02,4.771588538482906920e-03,8.894045156610935754e-03,1.061948658777387214e-02,-8.843370146283932587e-03,-1.513691509812986787e-02,-1.596309503514766956e-02,1.613309473296486649e-02,-1.512165005741481459e-02,-1.254796249518998728e-02,1.581173199921097686e-02,1.334796787549011668e-02,-3.833260836999998616e-02,1.683111494394123192e-02,2.568686148245962093e-03,-4.547317539984542696e-03,-1.895477285325478101e-02,-8.675356360837634465e-03,-9.960301435258080843e-03,2.483512903786264255e-04,-1.282270753550815261e-02,-1.484916043579956324e-02,7.426770693449473264e-03,-4.349971735167159140e-03,-1.022945874107863105e-02,2.863254356201209647e-02,-3.191800849939428059e-02,8.170890557708658866e-03,2.517023011655132245e-02,5.023791748817212771e-02,-1.770805270293679401e-02,6.053736048700119991e-03,3.575117852045840618e-03,-2.209048775235997533e-02,1.405537883735045665e-02,-3.429674661544388891e-03,-8.323294086369503741e-04,2.245545027580304887e-02,-2.531285326106396186e-02,-8.652634859738626838e-03,-4.904003579622078640e-02,1.750062668999361956e-02,-3.538750816964437301e-02,1.793177790652322051e-02,-3.385265393040604986e-03,-1.896565990067590121e-02,5.302508062100343145e-03,-3.667781993021794300e-03,9.736026416095103740e-04,1.277182157112682730e-02,3.284848164195678906e-04,1.975531337468159482e-02,-3.628655443350119799e-03,-4.326300049822897481e-03,-6.498703642130047690e-03,1.333238505475173134e-02,1.733335250581683265e-02,2.748389872795973729e-02,-1.267734434689763920e-02,3.165215747618609771e-02,6.449576319017786413e-03,2.623180179248332019e-03,1.406336983773468288e-02,3.071304610385747896e-02,-8.082159743308206870e-03,-2.083310243804762513e-02,3.692913711743382038e-02,2.819543035085021049e-02,8.304990588256179820e-03,-1.112730445950683641e-02,-5.028067258234944709e-04,8.353501044534916709e-03,-1.582007145779267335e-02,-8.733868451871671908e-04,-1.907430509808305183e-02,-1.350171282989966713e-02,-2.012255282229535175e-02,-7.499102835357014142e-03,1.043728768590428818e-02,2.999201047648419188e-02,2.125761459818977916e-03,-3.337508962822818837e-02,4.117205817608386720e-02,-3.222582851363729739e-02,-3.401135538680782194e-02,3.619223948282956904e-02,-2.849796942555744839e-02,-1.569158950490818702e-02,-1.257223808787345104e-02,-5.711049426844467397e-02,-2.035353871015591759e-02,-2.139442150608833471e-02,-2.887778826737786436e-02,-1.569613675537912803e-03,-4.272592330063807418e-03,3.281624320746760661e-03,7.645317919609302551e-04,-7.727199345289413081e-03,1.761783470224184342e-02,-5.834970367302393882e-04,2.916593089907691672e-02,1.414706147670587166e-02,-1.447733245468838708e-03,-2.815581303644615688e-02,-3.293262551371673504e-03,-6.816303666891727897e-02,-1.099038394200154388e-02,5.640305074402803334e-03,1.049487275225641572e-02,-1.632147165706954867e-02,-2.590195552882367490e-03,-1.111902822017216651e-02,1.226277042044058262e-02,4.238181787066543776e-02,-9.061575890872876002e-03,-1.549505655575199141e-02,-2.592451422214435246e-03,2.110155838839955673e-03,8.314692351449838245e-03,7.468663470794912121e-03,4.056114744933281280e-02,-7.857393796857996965e-03,-1.326399070738512251e-02,4.311684992210878219e-03,-2.636059303069155160e-02,5.746545755204111525e-03,-2.876491555718132045e-02,-1.527680133330893862e-03,-1.004514017668774531e-02,3.168023149591465276e-02,-3.101515453110363293e-02,2.844127127747195921e-02,-2.042184328465495094e-02,-1.839224416566003287e-02,3.591730613915143644e-02,3.708536939306757846e-02,-9.710762947818155078e-03,-1.195160551877561157e-02,-2.697252284102776357e-02,3.422161444107443135e-02,-1.487457462480457418e-02,-5.049252588079267308e-03,5.319962898728739994e-03,-4.213489358979262064e-03,-2.129891827044592956e-02,2.606155485902044051e-03,-1.692072907718588509e-02,-3.300723964358464463e-02,4.035591585238709061e-02,-1.060845486332796447e-02,-1.241004885774516474e-02,2.040325146076764351e-02,-1.311812206916548873e-02,1.135200713048132443e-02,6.675661433944718101e-03,-2.179009072967497129e-02,2.016850668775289554e-02,1.017808411921242856e-02,3.581890865214287789e-02,1.559969369074995851e-02,-1.330544721516404086e-02,3.655904872372355008e-02,-1.336232834793600697e-03,4.205486256392185901e-02,1.269607588139011652e-02,-5.417746002276048467e-03,4.966705386325162910e-03,3.960427013145722402e-02,-1.238801054804295095e-02,3.207006749913709999e-04,1.364488510217989458e-03,-1.776559021323977127e-03,1.085426020305839401e-02,2.529148407940057935e-02,-7.131278606480722856e-03,-1.682990851820001868e-02,-2.902437405560779823e-02,-2.053015123618563698e-02,-1.053211221396032141e-02,-2.480231111930254057e-02,2.943100110588104529e-02,7.434714628723643713e-03,2.576933257448146483e-02,-4.424224797495868861e-03,-5.232937065806303988e-03,1.848665433329790136e-02,8.435495997954182285e-03,-1.648148689936157485e-02,-1.299973033757722369e-03,-2.608008593209235407e-02,-1.540627212215330867e-02,1.024811157848956253e-02,-3.188055477595137105e-02,2.295244790183697745e-02,-3.790064461172346078e-02,3.510251206567389232e-02,6.812082539375549986e-03,-2.617357521541140500e-02,-7.672534829103075209e-03,-3.614425207456949812e-02,-5.401435463928581752e-03,3.904876129106747045e-04,-2.648436930145205842e-02,-1.066216499205530251e-02,-3.288520363965520554e-03,-6.266819183836313222e-04,8.948404245456672429e-03,1.359247028325448123e-02,-1.919731841063032282e-02,1.421282472259769065e-02,3.484211201123865731e-02,-1.286306573330172134e-02,2.776385168705707701e-02,-1.721631975122453473e-02,-3.508949264094675738e-03,6.149714508841848566e-03,9.442088805965902915e-03,1.861227198991218315e-02,-2.802482002188392499e-03,-2.159125524062497151e-02,-2.082546624820316369e-02,9.969065509067885980e-03,-1.363120122354314658e-02,2.727390960823219707e-03,-3.142873976723617457e-02,-4.662146174100414465e-03,-6.122616569281657400e-03,-1.629479137127469836e-03,8.124166175624756431e-03,-1.508740041448525943e-02,-1.437946120256736486e-03,-3.076961720855195953e-02,-8.204376518206737273e-03,-7.215411237523101581e-03,1.913902343947319548e-02,1.384241683200873249e-02,-8.853125707814926779e-04,-1.111345437900071800e-03,1.590565549306552362e-02,1.418150246394218016e-02,2.777841399286253704e-02,-8.817725166844637280e-03,-1.156757132680007009e-02,4.543103388940575305e-02,-1.007294040027865122e-02,8.780768514698979177e-03,-5.555441177050333967e-03,-5.343823879249722658e-03,2.473975264063990511e-03,7.980229576000846120e-03,-2.744980136997433959e-03,-1.868108752285091781e-02,-3.662021067141184652e-03,-2.316962941532745707e-02,3.187815825962669186e-02,7.922141989001910481e-03,6.678838197605362938e-03,2.475716544809814651e-02,-4.066940969712128963e-03,1.243179890509933314e-02,-1.767743537289515748e-02,-3.013898158778292261e-03,-4.036169575902059589e-03,-1.213855179472356043e-03,6.639184659837302216e-04,2.071296255828703609e-02,6.135069336730504530e-03,-2.096922066767301085e-02,-3.285036031047193494e-02,-1.336596513670637934e-02,-4.019018882723037617e-02,-2.679690748444302911e-02,1.842833770678947020e-02,-1.527960004988075313e-02,2.308567501261323332e-02,-8.740661944520599150e-03,9.107489944529629719e-03,-4.346781544897355271e-02,2.165096654214290067e-02,-1.474147660015211539e-02,1.400966512953937676e-02,1.032970623517579130e-02,4.244696799600003456e-03,-4.168171439741234774e-03,-1.689770819109919983e-02,-2.748344779889320879e-03,-3.234513092016588071e-02,1.667786768298671132e-02,7.898951184895352043e-03,-9.670329717590256391e-03,-2.015231195203935621e-03,-3.372986093633364990e-02,-3.234992880380544952e-04,-8.241426736735873310e-04,-2.984739431284697334e-02,-4.433293429070098504e-03,-4.054222165506003034e-02,-1.062193528103335879e-02,2.292323252844093943e-03,-2.065738876883318337e-02,4.154329078963609617e-02,-5.824959821428461748e-02,-1.014857727573806627e-03,1.199347767679203973e-02,-7.363898956083570618e-03,2.900122893421958406e-02,-1.052254440844539035e-02,1.227137700963223249e-02,-9.292767485048140930e-03,1.985207686168774174e-02,-1.036640565638080082e-02,-3.543093033917892997e-03,9.709861891972003389e-03,2.504478676381725541e-02,9.056273032537575166e-03,-7.081301305082521660e-03,-1.096901902801135711e-02,3.067197748471164626e-03,1.530749408690363494e-02,2.347373960504595472e-02,8.616644514369413074e-03,2.574936571765128537e-02,-9.394871717458112836e-03,-1.862887795841313213e-02,1.948824574385395409e-03,-3.388016039438261628e-02,-4.209192317828317105e-03,1.643904406065075513e-02,1.310908822000291657e-02,-2.444090488708743417e-02,1.268361192803383643e-02,-1.677052618841518364e-02,-5.172965597803298905e-03,2.278723844004237539e-02,1.186026572768357316e-02,-2.223739047139540459e-02,3.096972144492113679e-02,-7.242663291020344854e-03,-2.724310931556081158e-02,-1.233164075999374810e-02,-2.888857374075487830e-02,1.004014993773766871e-02,1.928152896102800981e-02,3.525110555359068504e-02,1.152799839733370003e-02,-2.683350682687098143e-02,-1.095301049093868467e-02,1.081734038375796805e-02,2.355749852614181031e-02,-4.881778850922026403e-02,-1.137180947148730241e-02,3.110837249145638559e-03,4.635433305275358379e-03,3.088342357686722425e-02,2.094433768141800573e-02,-1.255351463349512441e-02,-8.150377517048897503e-04,-2.258595095553235857e-03,-2.313971328614608178e-02,-3.149722540310256891e-02,8.104458326297022536e-03,2.742835501829378117e-02,7.506763960398886784e-03,-1.285788135432785508e-02,1.774798961230883258e-03,1.773003470486110220e-02,-1.353567445472036133e-02,-1.925104495020214107e-02,-6.313851703506467156e-03,-3.593426630106563713e-02,-7.150426543795650527e-03,-1.576018410140155035e-02,1.600470231150347145e-02,-1.165476477511829742e-02,-1.164331330420611925e-02,-2.498243431701463804e-02,1.092369552151129441e-03,-1.972016888698775033e-02,-1.996099992795973346e-02,-1.329572771578762559e-02,2.942744973224875604e-02,-1.493713215931813214e-02,2.717477726112988573e-03,-4.406151034912229869e-03,-4.423668402141420208e-02,-2.112444427541663311e-03,1.761005139703369221e-02,5.019908514918622507e-03,-1.323867974448929632e-02,2.903344134886757036e-02,-4.622290470311323993e-03,6.341722598284343232e-03,1.042532710363091794e-02,-1.494017953326818443e-02,-4.488550867223629892e-02,1.800305576557921505e-02,-1.121991237627626564e-02,-3.196229767188799552e-03,-5.861417024114902626e-03,4.878823980702246682e-02,-5.208837044533972879e-03,5.936203830960410863e-03,1.023860644531808528e-02,-1.014161644801339635e-02,-4.153142513078782010e-03,-2.288342344673458331e-02,5.448660758476679168e-03,-1.607445474212461714e-02,1.125562807405485963e-02,1.391584389658788445e-02,-5.673538807231688066e-04,-1.070793432748196744e-02,-1.947897639564713512e-02,-2.201097452930944956e-02,1.047605291614210274e-02,3.566419549577837245e-02,-1.832188046673446794e-03,2.517013392485666079e-02,1.975852732019615920e-02,-8.697109521796605666e-03,-2.587387023786216506e-03,3.217926475611391363e-02,-2.184069122279980180e-02,-2.348360292458971307e-02,-3.480182237498232085e-03,-1.163262551819456599e-02,-3.864306563074075551e-02,-1.723759766513658503e-02,-1.448027927482683011e-02,-5.220932185535769043e-02,9.430891478779873660e-03,-1.866442297156807942e-02,2.077152573256574666e-02,-2.071620638114644516e-02,-1.371670586505488974e-02,2.255806839377734116e-02,1.094588826929904918e-02,-5.751749018295813009e-04,-3.142593984345511821e-02,-2.054176206723595105e-02,2.263789258294714862e-02,-6.954808946236535998e-03,-2.904933134459274438e-02,8.583154116262614944e-03,-1.014485347037943387e-02,-1.243085558212154995e-02,2.207502992474340980e-02,7.134814299002058963e-03,-4.029497047117869442e-03,-8.897481364823102770e-03,-2.656045409639004248e-03,1.459327191056560870e-02,-5.457957757036121550e-03,9.201958602858620329e-03,1.286405190272437923e-02,6.248137217482448678e-03,-2.245278477352173965e-02,6.333275999981127606e-03,3.207871533748082871e-02,3.860486659085027306e-02,-2.732188367162171477e-02,-1.050998279406960625e-02,6.910517217999326842e-04,-1.358049651879564799e-02,8.994860310195688935e-03,3.653945996576073163e-02,8.472445302932486710e-03,6.359067524902534130e-02,-5.236592953586231662e-03,-2.776396822758496127e-02,1.205860186693186002e-02,1.120278056303483823e-02,-4.193784551022268492e-02,-5.187612466990812639e-04,-2.118593078933230303e-02,1.065303219434507323e-03,2.817949721440881575e-03,2.297849227519757620e-02,-2.315064603487843042e-02,-1.517566921746220710e-05,2.011041513723673194e-02,-8.549936725873492557e-03,3.230364955226307233e-02,1.309746332754063020e-02,-4.316595567045641152e-02,3.658563535732952537e-02,-1.928619580162183045e-02,2.488627733167664974e-02,-4.814560567985098037e-03,-1.478490667521375861e-02,-1.062729593026324158e-02,-1.571074167354788789e-02,1.230540668000874166e-02,2.125005359437451974e-02,1.034030592054236385e-02,-3.265996129486805136e-03,-2.048050373801041033e-02,1.232513908617207353e-02,-1.487233703925871717e-02,1.183399668935016837e-02,-1.657003775154412828e-02,-1.262663123403893160e-02,-8.100753618610097642e-03,2.027961699867156936e-02,2.972571867685220356e-03,2.710675655231619893e-02,-2.941417994937579189e-02,2.633969649435261755e-04,8.037745282397727384e-03,-2.082239136497496257e-02,-2.721511391647711900e-03,-5.557202875283591414e-02,-3.522077340530854576e-03,8.363531187780437470e-03,-1.690206562016049324e-02,-1.010529477298508991e-02,7.096875726422086431e-03,3.685957519886024630e-02,1.293232106123713351e-02,-9.280238714761510077e-03,4.004562869566086203e-02,-1.675390235996022329e-03,1.640200730412918681e-02,-2.754965872823960087e-03,-7.430624328373281948e-03,-9.202222401391303361e-03,6.278489154454384991e-03,-5.017018886710227638e-02,-8.855545118354738593e-03,2.524400622340670572e-02,-2.333343235924769526e-02,-3.848456365053946199e-02,-1.410349866781930063e-02,-3.995302709863901222e-03,7.306097296475728628e-03,-9.373961475416076397e-03,-2.170563058409845716e-02,9.359940816495444793e-03,1.108043082932197443e-02,-2.349184074917552364e-02,-9.992721555240891007e-03,-3.519482948301234839e-03,5.097257218763626141e-03,-1.133493776905627852e-02,1.092805488537715655e-02,1.914638251526936188e-02,4.231137435470323088e-02,-2.134693960098366160e-04,2.437102818189756850e-03,-9.656638637834365560e-03,2.940335845412010013e-02,1.447144280765524232e-02,2.522353969157771578e-03,-1.576459002260663031e-02,-1.107312926513125996e-02,-1.329083861783418238e-02,-4.797900839714173971e-03,-2.170588497065644232e-02,1.148181692169662066e-02,-1.172368679782291416e-02,-1.540508755424284393e-02,5.224716458407761312e-03,6.747475071418826756e-03,-1.612116470439179175e-02,1.433626010510334788e-02,-2.224356419102337720e-03,-1.496466914964563952e-02,-2.830208655752987010e-02,-1.370525006126127078e-02,-4.424111932586178957e-03,-3.946445231248913582e-02,4.204595511822952630e-02,1.365700170906838581e-02,1.040366846033914314e-02,-4.631395370606208872e-03,6.570525764573643783e-03,1.883989759033107003e-02,7.283159635285777096e-03,-8.658170430275535442e-03,3.501734633843683886e-02,3.665572518468064589e-02,1.915021481632438616e-03,1.146371924088713677e-04,-2.872483976496669270e-02,1.443075872281250095e-02,-2.103212282836461420e-03,5.519439467529076333e-03,3.719238287207150828e-02,-3.489802259540258390e-03,-3.278545343125259526e-02,1.362208139012950278e-02,-8.395074515004402604e-03,-9.578568277303566372e-03,2.433676359530011733e-04,-5.665977992172244529e-03,-2.610379965934895435e-02,4.304614184689142461e-03,-2.410767232942119878e-02,1.831926595208125536e-02,1.395554486298181476e-02,5.266977168173611265e-03,2.903416966997397416e-02,2.525432669111054088e-02,-2.513871961944767752e-02,1.168635064524167592e-02,8.036342565505945812e-04,6.006112858997749750e-03,4.544728247770595322e-03,-1.221528209754162327e-02,7.871998997952189478e-03,-1.021002761505963863e-02,-1.571799603034017973e-02,2.534022634982499664e-03,-2.502696908709147253e-02,-2.719594107668706420e-02,1.344770783202986042e-04,-4.402425542673069070e-02,1.018264205993951906e-02,-2.960351298448185564e-02,9.991716195089641803e-03,2.359460198004386527e-02,-1.359408550797040456e-03,-4.711009318748552582e-02,-1.644805039140908448e-02,2.582853338171014687e-02,-2.283829404929889340e-02,-2.822847826313054642e-02,1.616265459884191555e-02,-3.398771236017333885e-02,-3.295412290242279163e-03,-1.960900000010784138e-03,-3.715987172676286227e-02,1.254665324592807267e-02,-2.031045320455862353e-03,1.910374242098641234e-02,1.648142850361058662e-02,-3.408741746044225817e-03,4.694629677305679934e-03,1.384512089676952218e-02,1.885151936335943690e-02,2.021522275993534873e-02,1.818513885522627174e-02,1.429236016494937929e-02,-3.789540332693964379e-04,-1.000767185069831658e-02,9.206796548391439627e-03,2.998834277735350912e-02,-5.604328643206223093e-03,-7.149456859857683533e-03,3.785304715475404803e-03,-2.536798987857873805e-02,1.757539001969231351e-02,-2.616327595662994512e-02,-9.396949782071509910e-03,3.502944587741074062e-02,-9.841770675185382983e-03,-1.454800152303148408e-02,-6.634199066867698356e-03,-1.639708947928951444e-02,-2.597085222455536302e-02,-1.412594257085684167e-02,1.699780558936518637e-02,-6.416840713684625330e-03,8.271522935864967022e-03,-5.913602420113892033e-03,1.038560181717005163e-02,-1.178150073560135444e-02,3.594212409293596875e-05,2.644842135337051314e-02,-1.935493759323140411e-02,-7.780246348535507957e-03,-2.706101090516237987e-03,4.533827368629432357e-03,-1.987282105077545213e-02,4.735397643887703269e-03,-1.811001097867668630e-03,-1.071499293217476056e-02,-4.111616000230051277e-02,2.617515234201361202e-02,-2.341043244504938982e-03,-4.174610586574178245e-02,-1.250280962799493398e-02,-1.174720930508430829e-02,1.845554235522901126e-02,2.575273424349847767e-02,1.614541128651728052e-02,-3.737084939107387233e-02,-3.185318335261525663e-02,3.623593750261942803e-02,1.062048521049671623e-02,-1.184246237511624687e-02,-1.259589918157810046e-02,3.526539011640961868e-02,1.702678547491869726e-02,-4.495737331237401740e-03,-9.025552262351790520e-03,-4.545243727997736773e-03,1.789377998808626066e-02,2.797700563630357851e-03,-3.772562096594113401e-02,2.324054489645849611e-02,-1.293327954971082612e-02,2.862836733607342782e-02,9.625526290372500918e-03,-3.009124068912439817e-02,1.157103068843728239e-02,1.678453402953606483e-02,-1.231475164264639842e-02,2.914101525784265970e-02,-2.204778333776737445e-02,-3.025254825051991794e-02,-7.705625967617079145e-03,-2.060816331207575638e-02,-2.168625183268920939e-02,7.541981585002173775e-04,1.052548450494606921e-02,-2.522717557992793739e-03,1.267816509695929815e-02,-4.609260651188305802e-02,1.834054374474795857e-02,-6.537173250352810820e-03,-1.620000308678452502e-02,-2.715213733175475541e-02,-3.517837785051783350e-02,5.865588804318751931e-03,3.915556607173163034e-02,-2.006609770338121240e-02,-1.115455113699261036e-02,-6.713217744195359364e-05,2.766204486328021142e-02,-3.655757199895545359e-03,-2.021437517191642178e-02,5.249235186431661440e-03,2.554696802745286006e-03,-1.662660035981208470e-02,-8.119493140545499046e-03,2.204588067624226738e-02,-2.092025421449928216e-02,3.612465185631533182e-02,-3.085932274824285289e-03,-1.979643904688949477e-02,-1.818612252822866208e-03,-2.324355466978738835e-02,3.496721592833898669e-03,2.288863432418377503e-02,-1.400150071699999936e-02,-5.074352489756868596e-03,1.154664517871797393e-02,-2.048293758715090049e-02,-1.896823644764404626e-02,-7.480134148330995318e-03,-1.047373357724137345e-02,1.331197037713031245e-02,2.167280439857589489e-02,-1.963731044432127926e-02,1.694813581944800210e-02,-1.097415610164531943e-02,-1.130339243996217715e-03,8.871405758238110062e-03,1.887450640892722117e-02,2.956300490841881276e-02,-2.454161595543596572e-02,1.025367566220138950e-02,1.303736493131605646e-02,-1.713414061974457767e-02,-3.095925549680909189e-02,-1.086423732353000889e-02,1.143767813682897150e-02,1.361362404750775766e-02,-1.821384007314677533e-02,-1.685225707802259776e-02,-1.563757241893267824e-03,-1.018184081983840653e-02,1.658970533058487865e-02,9.903334839461883435e-03,2.279960803762102681e-02,2.078257998695630382e-02,-4.431807509337858629e-03,1.260149992883432928e-02,4.981503424916438813e-03,-4.410844989940732389e-03,-3.682117407509281903e-02,-1.583341437219569622e-03,1.175013686692054360e-02,-5.241247909530995751e-03,-9.795962882304484753e-03,2.953855378296254153e-03,2.831284000002751589e-03,1.050372467651225624e-03,-8.239691441963086296e-03,-3.816834225112571838e-02,3.178649270587993736e-02,-9.829958286109902882e-03,2.542410476612507950e-02,-6.093211261969200959e-03,1.924289953372384327e-03,1.869719617836904102e-02,-1.429866309109091051e-02,7.144249237901595211e-03,-4.946929722583030820e-04,-1.197549631641251985e-02,1.607581794175528406e-02,1.177734577030417271e-02,6.117261089878982434e-03,2.154915255435230909e-02,2.762593745867207573e-02,1.669642993627907385e-02,-1.449009018062440146e-02,5.791534922568536414e-03,9.607837278171920542e-03,9.563061698115981127e-03,-1.103917250476514796e-02,1.215239747363204385e-02,5.734039654478435225e-04,9.264912292142858663e-03,9.949722106624219256e-03,4.872124528309644542e-02,-8.760856342298365892e-03,-1.699491058295699237e-03,-1.636385600339431996e-03,6.324128245906029087e-03,-2.213853483998684535e-02,-1.958835842105861522e-02,-1.208552882151591942e-02,1.068522046214068211e-02,-1.491231667506642822e-02,4.265807137693623796e-03,-6.774173794457599186e-03,3.434067208788481318e-02,9.119521107638023719e-03,-2.335709147840909702e-02,8.366956813525698242e-03,-3.956052609124462854e-02,1.574305785857465362e-02,-2.091796152086328880e-02,-2.347409871388288563e-02,4.150696195795255602e-03,7.494210849049918327e-03,5.013399991531347633e-02,2.888583245458218110e-02,2.666884165739300677e-02,1.060776445083506242e-02,1.070742885316925894e-02,8.784552524759875469e-03,-4.274569245353244257e-02,2.868189155918741268e-02,-3.104357692845412589e-02,-4.822467096896755623e-02,-1.168635109240368126e-02,1.654976945308422182e-02,-1.854333390247649496e-02,1.131685669022710825e-02,-2.012230157075981310e-02,1.617824413025922836e-02,-2.732636973518956860e-02,-1.371168177504349106e-02,6.990032863953506148e-03,-1.006112002479787881e-02,1.879091334097151081e-02,-1.164524754345266921e-02,1.439923000517966123e-02,1.006584923659778301e-02,-4.840667343690381597e-03,5.275224901325823584e-02,-2.206588895271560311e-02,-8.931920513538631201e-03,3.731392968774383239e-03,5.363513923023553731e-03,-2.572124585947753103e-02,-2.769732968663129319e-02,-9.206896866108526048e-03,1.080764138927895563e-03,9.683643631191192870e-04,1.004259611165979858e-02,1.955154139214095033e-02,5.859096416551422964e-03,6.767344206942940005e-03,-1.294926161043006944e-02,-9.586035336128412992e-03,-7.350676718592041338e-03,1.861425838369171887e-02,-6.376403018449859801e-03,2.251902972477486109e-02,1.536628456475091359e-02,-6.230581957931738066e-03,2.910754751808595359e-02,-2.716988292561738332e-03,2.946747792916869918e-02,2.596736841242108795e-02,1.158862771226300097e-02,-6.029943812112863351e-03,-1.566787178953394158e-02,-1.995979028491100607e-02,2.785182651022257566e-03,4.512833446950715970e-03,-1.419960269369586851e-02,-1.119282277144293888e-02,-2.389968065072130970e-02,-1.231988801395753844e-03,-1.510770366116217546e-02,-3.343287025660387352e-03,1.302966585173242001e-02,-1.698507981074327128e-02,-3.706182667794602741e-03,-4.872982873061218467e-02,1.265156292293244389e-02,-1.811778684262905711e-02,3.002082666636658737e-02,2.504984849388133469e-02,1.217580776091377326e-02,1.154025328182611831e-02,1.045633930696350175e-02,-1.033569972517626480e-02,1.702413467002026736e-03,1.606643334407538426e-02,8.904598087716810492e-04,-6.817024544304495226e-03,3.569859796936206836e-02,2.381249188022526234e-02,-1.654020148184883604e-02,-1.962932650689977465e-02,-3.467155683600776916e-02,-2.202411442405740119e-02,-2.145130817126381789e-02,-1.656021065706781564e-02,-1.358994716805789552e-02,-7.314223396764287996e-03,2.667305254598464209e-02,-5.920008994724000259e-03,-4.557834152099336095e-02,3.043155811502195815e-03,4.401094980297064890e-02,1.204104443941169528e-03,1.440081609581164018e-02,2.316481083376554714e-02,1.760235608092272294e-02,1.814442181727080744e-02,1.017189554376390047e-02,-2.342214949900431678e-02,1.614920893381872197e-02,-5.187368306116059945e-03,-1.292357920835481705e-02,-1.003830428153125801e-02,-1.261977042502357600e-02,-5.752532803638192539e-04,-2.116582635146063013e-02,2.265501608125185598e-02,3.737665171848161827e-02,1.003805965870420078e-02,5.445144713259257065e-03,-1.304639843140205369e-02,-2.577322510534964251e-02,-9.162071569331822068e-03,-1.263072502741719415e-03,2.267313608032389682e-02,-2.728939236016305128e-02,1.146675935740204891e-02,8.378010167846340964e-03,-1.376109972192865287e-02,-1.511187994264023750e-03,3.654703031522978790e-02,2.618614258160814959e-02,-1.537856357695260856e-02,-3.616572230816755135e-02,-6.224644959234378223e-03,-2.252652491675426888e-02,1.886444546049549295e-02,8.066402657907588078e-03,-6.972100017427920390e-03,6.805946546628302736e-03,1.995504912156228355e-02,3.678832608742921978e-02,-5.612962153239016948e-03,-1.418062436397701277e-02,2.004735249317519052e-04,8.342598888025219012e-03,-1.264376834172794249e-02,-1.263187102211167818e-02,-2.249975241800796985e-02,1.016059540067687506e-02,-1.924229272141470231e-04,8.823438918424079264e-04,-2.762217871619978768e-02,-4.815071997748310816e-03,1.627699093643052500e-02,8.387373615648896497e-03,4.106033920048231256e-02,-5.058965356471894874e-03,2.361091166136347088e-04,-1.488181297475767162e-02,5.433381730624965711e-02,-4.585591845631821592e-04,-9.860634653595119065e-03,5.427589964863632592e-03,-1.050301634334455288e-02,4.325031245048853619e-03,-2.310238937951282229e-03,-3.740000526066076386e-02,-3.489842735664416915e-03,-1.201644760692704463e-02,-1.238771784255915213e-02,4.702649696096107557e-02,4.784990951414071908e-03,2.587073214427862422e-02,4.967453799339141031e-03,-3.620594003676257111e-02,1.892705295203686577e-02,1.252339192952014839e-02,-1.315255739456904979e-02,6.709487882171360357e-03,-1.230476370556199059e-02,5.994692314056885782e-03,-8.237783798762395027e-03,-1.366100772978821529e-02,2.392239743617622511e-02,-7.081745438790262338e-03,2.770891371353257152e-02,1.041049158998549017e-02,1.582449730793658582e-02,3.860522708901803490e-03,-1.175096387995254107e-02,1.594799028403453417e-02,-5.474024887639990233e-03,-1.465558419176978336e-02,-1.687912547623573317e-02,-1.377624210276404831e-02,-7.393652285662689373e-03,-8.697544573532958734e-03,-1.303965169801749209e-02,3.007920376808138549e-02,2.356662782958475130e-02,-2.053961404948271511e-03,-3.728920754756991432e-03,7.016299784768168131e-03,-7.161277823999777012e-03,-4.282787081561518529e-03,2.317644996604762558e-02,5.346254178518205363e-03,-2.205892044704231905e-02,-1.173191372577756485e-02,-6.399476944668621402e-04,1.548754645918412956e-02,1.476669774848060092e-02,3.394966902778232074e-03,-9.833294870517055378e-03,4.795177486467438674e-03,2.182841778802402724e-02,2.834576499020718607e-02,1.470912394814700812e-02,-3.440261605070682460e-02,1.042917774969466006e-02,-8.055276932902843620e-03,6.648905310987301108e-03,-1.657022675656959904e-02,-2.124111962254780772e-02,3.708796027287015410e-03,-1.254207725054507817e-02,-1.221801150173162931e-02,-6.090735639998835944e-03,-1.248111263883768668e-02,2.641425070229612079e-02,1.458951315193195500e-02,-9.092732104062627510e-03,-3.068383993260881404e-02,7.245844927670612185e-04,1.435307345689582461e-03,2.075005320208664697e-02,-1.590634527406192822e-02,-1.696464311010181455e-02,1.099301696013795133e-02,-2.636117033450458350e-02,6.998973228414399721e-03,-1.943537072957300963e-03,1.312257481689164777e-02,-4.225474553100465498e-03,2.709854349205708182e-02,1.640871680064694832e-02,1.823060752682568661e-02,3.135715113678669286e-02,-1.619903215680279420e-03,1.936364475947159949e-02,-1.028975085244490488e-02,1.143261626176142812e-02,1.821609565067484546e-02,-4.346686123520164535e-02,1.476629235260672407e-03,1.435128057048121013e-02,3.654165228582481086e-03,-3.985868274310185033e-02,4.096983295355167629e-03,3.392074984805523025e-02,3.053704481424822023e-02,4.781311167271155155e-02,3.497257693018187251e-03,-1.987461932249426789e-03,9.311643920870618998e-03,3.552356820631784318e-02,5.628154170538284679e-03,-1.364793746882595263e-02,2.007058630411438088e-02,2.359300521031369030e-02,1.975182347872268124e-03,1.037776415634599284e-02,1.696280342514409943e-03,-8.726661313166243078e-03,5.332643792013270047e-04,-1.484081507820554126e-02,1.409251912229697763e-02,1.482468216437172158e-02,-3.673336346690480453e-02,-1.057011773021251239e-02,1.676810360937850894e-02,1.513443750118996338e-02,-6.820248049452921901e-03,4.605419639732133072e-03,1.796648982892016036e-02,9.830893226057433459e-03,2.832625782224846775e-02,-1.022707444528547262e-02,3.977761063633132588e-02,1.223086573194157901e-02,-1.302815045095538117e-03,3.490916182478874183e-03,4.738278519074007149e-03,2.087911921885969926e-02,3.728399929624822730e-03,-9.403417578227804899e-03,6.231864047707339101e-03,-2.196354890817557234e-02,-1.426752553699573399e-02,-1.924818914829265482e-02,-1.490854558855583649e-02,1.640513202972794168e-02,1.162775147908369673e-02,1.387127236619325847e-02,1.525761611799156085e-02,-3.657115825395119285e-02,3.121748697517071763e-02,-4.600254098441008271e-02,3.680848731294042485e-04,-1.418067869160708448e-02,-2.067720070240603933e-02,-1.361557125871650474e-02,3.120139526034342373e-02,-1.287411888346341390e-02,8.037554211873212257e-03,5.527238362379943183e-03,-7.256712440340532498e-03,6.345636793768641946e-03,9.398899619656887598e-05,3.290444450365979240e-02,-2.481364950362807686e-02,-1.116680390037895834e-02,-1.054560468076505726e-02,1.171223074105651012e-02,3.589298070505506089e-02,3.555853839187769067e-02,-2.618103599741778559e-02,-4.160313036454550001e-03,-8.043662975954948835e-03,-2.482933411877379787e-02,1.730337608716669279e-02,1.542343732332134704e-02,-1.494293941897714348e-02,4.360058192923300588e-03,-4.375508743186464801e-03,1.035028607254425380e-02,-2.279994152157398604e-02,-4.016238190176824908e-03,2.562566454548539582e-02,-8.768068177864584561e-03,-2.015043310638048660e-02,-2.402036697782347283e-02,-1.180685549616940049e-02,1.269801255423395024e-02,-1.995020572709199635e-03,-2.834711066518860040e-02,1.929468936554844249e-02,-1.557794484840356597e-02,-9.184000969820905330e-03,1.202962841745309694e-02,1.935918579771001707e-02,1.308645490946811190e-03,-3.076945205325126026e-02,-7.959719742048865579e-03,8.053800629797986397e-04,2.645748825170920679e-02,-1.234641597317962490e-02,-1.470733030285505984e-02,1.028437875341989619e-02,-9.925078780965072497e-03,-1.718765165141673129e-02,-2.107143085197436816e-02,1.231722541198306507e-02,2.109866813457329793e-02,-1.867020743830532029e-02,-9.813088699901419132e-03,1.142307146417328306e-02,-4.832289704715033753e-03,9.950233485805565214e-03,8.551160901367985817e-03,-3.789454355926984847e-02,-2.152099484469589818e-02,-1.580781880187847460e-02,2.661994678172784068e-02,-5.165488765193142554e-03,-4.322554981236685634e-02,3.647709817949584127e-02,3.321290718249297197e-02,-1.219255864490332219e-03,1.217446145531052640e-02,5.541879021523751087e-03,1.568070853002607665e-02,-4.701605997608152530e-03,2.569568477566366166e-02,-3.059423947754548369e-03,2.556425078778397364e-02,4.372145011267046348e-03,-1.684086434469021787e-02,1.848539269331735818e-02,-1.592363420669364212e-03,-2.268957578367800099e-02,-4.111327816212549668e-02,3.239831184092040184e-02,-2.192235750540095021e-02,9.758047752412492282e-03,-1.889503551333670053e-02,2.051427384219026498e-02,2.608872091233338519e-02,1.376538860660200814e-02,2.076707995296078399e-02,1.568096128346338838e-02,1.074650426015665537e-02,6.417606301616462020e-03,1.500835193178149188e-02,-7.533815289135543762e-03,1.492177999128442654e-03,-1.650360270623536102e-02,-6.637044776131459378e-03,-3.281181961774579103e-02,1.264094538152952737e-02,1.083007244442316282e-02,-1.889019987708226087e-02,3.690155849595816440e-02,-3.693874226271405461e-03,-8.425074230899505523e-03,-2.498030366789381201e-02,4.651743712111563143e-03,6.903962252098396445e-03,1.796261039732605092e-02,-2.633548872270869909e-02,-1.692342978451602878e-02,1.741419484331030096e-02,2.680539912066868743e-02,-3.239966234812330370e-02,-1.757341104353368766e-02,-4.135894205624080465e-03,7.395343661782335931e-03,-2.323337541819063545e-02,-2.354274144721271722e-02,-4.923338059857394755e-02,-2.467066851136030456e-02,-2.725255466248554040e-02,1.879299514763360310e-02,6.171601837126143228e-03,8.889311208698536318e-03,-1.231284762210813413e-02,-1.444131537935517892e-02,1.679877285954001209e-02,-1.329882466434587681e-03,2.407345751936819378e-02,4.554087005290587478e-03,-1.996046155543007919e-02,-1.100574850241379556e-02,3.496902687300416316e-03,-1.604723251562803835e-02,4.241738142695493548e-03,-2.975553846611202202e-02,2.017139842124951801e-02,5.278242828842798044e-03,1.198397056024378890e-02,-6.764799997139686952e-03,-2.133160076567743729e-02,-7.531668159187357783e-03,-5.897833686589530611e-02,7.288062215758963312e-03,-3.056328344591763280e-02,5.492050363519637192e-03,-1.490121045779355807e-02,-3.915907607281165180e-03,-3.094224449739277349e-02,2.097624064728353509e-03,2.085004439772832410e-02,1.677265679993087191e-02,-6.766306610206676564e-03,-1.671484800588227473e-02,1.939773439695123558e-02,1.004637901689688431e-02,-1.956013589597631677e-02,-2.483263108619455581e-02,-4.730749854933209535e-03,1.862488202562960146e-02,4.424089849628576321e-02,-1.010233195237063286e-02,-1.319087650055556817e-02,-9.307359108350784366e-03,5.878655932456567653e-05,1.511581842535712240e-02,8.839718931586389508e-03,-3.881030636330580486e-02,2.346085643039219886e-03,-6.647755439088353334e-03,-1.346718603891163685e-02,-1.595324532351119137e-02,2.474196880881776930e-02,3.293479649803681981e-03,2.669742460152971231e-02,2.553036954845672515e-02,-9.520892348892244506e-03,7.081852378771925742e-03,2.895791671407607626e-02,-2.249286975835665739e-02,-2.639049356291081963e-02,2.707383350957157445e-02,-3.335867403065728709e-02,4.144522755863737362e-02,-1.450616329947043487e-03,6.440270321995305094e-03,-1.817273626278902848e-02,-1.953598114643389583e-04,-3.361312212640972519e-03,-1.256739729682212516e-02,-3.169775854461514414e-02,-4.116882814563222956e-03,1.102141868774215473e-02,-2.260041583191971237e-02,-4.339825446842196337e-03,-1.783750920900787143e-02,-4.291126622615190622e-02,-1.073238839820386988e-02,5.075128788223774376e-03,3.268394751667679041e-03,4.786172674217566841e-02,8.545657892008977005e-03,2.805272619073199969e-02,3.015611194630852046e-02,-2.909521791477007180e-02,1.061385405237565138e-02,-2.338516890264488550e-03,-3.598937948961023012e-03,-3.028765800467508179e-02,2.548334273866388958e-02,2.574301261889823736e-02,-3.286440738276397763e-03,-2.511696927630431217e-02,2.318736482509913682e-02,9.588138802851938966e-03,7.900288491733279198e-03,-2.120256747106142106e-02,2.000882816475348450e-02,2.439825893508183394e-02,-5.513896793539124937e-03,1.948035766931268883e-02,-5.116880534155690032e-03,-1.786684370725461976e-02,-1.600274770974507293e-02,-1.152542161290779667e-02,2.551528032327535570e-02,8.002354223277675579e-03,-4.038595025019081283e-03,-4.136164580140014486e-03,-1.859712320072111347e-02,-7.203382842311434504e-03,-3.233889793941316869e-04,2.723964031708875268e-03,8.123390802691676446e-04,-4.806558151230059563e-03,-1.108608640584513028e-02,-5.214168131152201874e-03,1.635946016550860610e-02,-4.541486612290804824e-03,-1.313994709207796756e-02,-2.031225773905883172e-02,5.058847313305833530e-03,1.200716187414936111e-02,-2.543650708942532881e-03,-2.632834640380468183e-04,3.760237401863280454e-02,1.928464754791375455e-02,6.633350091053675547e-03,1.792448123462278553e-02,1.349033261264372292e-02,-3.004002251519146890e-02,4.330831618731657319e-03,5.646817235907172208e-04,-1.144504040948898620e-02,1.950387213511205545e-02,-3.077558894313744270e-02,6.024794052703782987e-02,-5.087485131470253184e-03,-2.831019754525682108e-03,-2.669018324758298810e-02,1.363654189883943199e-02,-3.091636812213986382e-02,-2.834352332288081130e-02,-1.662594859697546102e-03,6.861389462060989153e-03,-5.129005175658570698e-02,2.824075450390720055e-02,4.516152411143967670e-03,-1.277891543872854922e-03,1.147938865310634687e-02,1.257481772867399469e-02,9.689654152807692516e-03,9.098610783352086354e-03,-2.550063313405668067e-02,-1.558459319497589729e-03,1.630184079018780555e-02,-3.033802546985853686e-03,2.393709255553216550e-02,-1.840760204738250277e-02,-1.192721188684210849e-02,-1.868441068487492135e-03,1.486558438178856717e-02,-6.723392617890398479e-03,-2.385878516632462039e-04,2.628840940905725204e-02,1.013318761869734692e-02,-7.278508087062372442e-03,8.831608042933931924e-03,-4.742004091902634125e-03,1.324294380442898530e-02,-2.279834092590836761e-02,-2.425933439781916001e-02,-4.614210716649221056e-02,4.707409819354126806e-02,-8.737492032050089494e-03,2.701450486343498839e-02,1.661251346883866123e-02,3.627295998578687619e-03,-1.722125950230689664e-02,-2.383400806130750622e-03,-5.731881290560475288e-03,-1.099916098263555367e-02,1.485518396086356156e-02,-8.574854164899533074e-03,5.471886924431431168e-03,1.996431943583383203e-02,-1.673237962529430106e-02,1.166865990367648272e-04,-2.019693097155022057e-02,2.570276981537295349e-02,-2.093128872827391615e-02,1.371136631290149899e-02,-1.384736450944971595e-02,-1.390101872454823327e-02,1.417084595678502236e-02,-3.452423421214458749e-03,-1.268529386556807408e-02,3.778301292355661783e-02,-1.053955090419380312e-02,2.690431076197787388e-02,-1.550202664789914093e-02,2.232480463939016599e-02,4.164648603234834962e-02,6.481101550282556030e-03,-3.512985911302905686e-03,-2.216519733128084410e-03,1.275327149453642098e-03,-2.434469725829883219e-02,-2.559204936090562956e-03,5.194621639631385145e-03,1.294529548641896489e-02,2.962099255947993424e-03,1.348689549611619722e-02,4.585482229763907652e-03,-5.561093207215662970e-02,-1.596479300590161743e-02,1.088967592846923522e-02,-3.196436233414520073e-02,-1.607865191813089923e-03,-1.858151106847851647e-02,-1.702701361802979804e-02,-2.569342263042180552e-02,2.535032410152852217e-02,5.584746833021354828e-03,-2.734260369160389226e-02,1.487945772762399796e-02,1.849361358161447436e-02,9.633775133338530342e-04,-2.188953149025807746e-02,-3.582923900185882443e-02,-1.814665646259432498e-03,-2.870418945717138730e-03,-9.518279186967988983e-03,-4.787972613681332201e-02,1.672122571570860625e-02,-2.906980876783865977e-02,-1.024901901006960124e-02,2.265801350086383767e-02,1.559393446464299796e-02,-1.032798646539942640e-02,1.777922658891109347e-03,3.831357622282009854e-03,4.615095616566568682e-04,1.207647571726928361e-02,-1.084622492748095295e-02,-3.393417870601987772e-03,3.866970550549662933e-02,-3.706848962690501015e-02,3.110572608569372663e-03,-1.317297862433086664e-02,1.913841209327002066e-02,-5.224005345029432423e-03,4.428721465192266699e-02,7.042101912075383364e-03,7.052339132763723109e-03,-1.344901638504345312e-02,2.960144362358649219e-03,-1.883730167494770957e-02,2.050889700971625720e-02,6.383373211418934788e-03,2.026965554922611351e-02,-9.733662470290536245e-03,3.680711849285525639e-02,-1.866413689465631215e-02,3.531550197146293701e-02,-4.165089012503468170e-03,1.692071542019532582e-02,8.826350259404759993e-03,-2.763459585611121108e-02,-3.155418390760761967e-03,-7.924626938589378680e-03,6.847454761267513651e-03,4.213873317615115383e-02,-7.493487302609935438e-03,-2.957408888850614204e-02,4.567322470638233642e-03,-5.154366960044325791e-03,-1.152791030592433853e-02,1.442295660697128987e-02,-5.361957930017947904e-02,-3.353259637681591486e-03,-1.471520796770866418e-02,-8.805738647579248275e-04,1.160710900628234357e-02,-3.618014888238676747e-03,2.766128888029880523e-02,-1.150995338612964200e-02,1.567545284941218933e-02,-1.485587622738106066e-02,1.037947221269115662e-03,5.780239121110434565e-03,3.145455030340212760e-02,-2.872469439306643210e-02,-3.207021192651693213e-03,7.040042248292540002e-03,1.020781155795180348e-02,3.315671771706172472e-02,3.105886913018726311e-02,9.728258857443352475e-03,-2.943089345183757307e-03,3.150545129636526161e-03,-1.629938859403367094e-02,-4.119530526183699803e-02,6.339099179044684410e-03,-4.053629996264546988e-03,3.241989938333923044e-02,5.627476246906216138e-03,-4.739262922731021788e-02,1.482626467576007336e-02,6.064689974317871886e-03,4.337862406544530408e-04,3.200229948668275454e-02,-1.670087961699850618e-02,-3.951892877484178973e-02,2.359460309854179844e-02,-4.355972633395339272e-03,1.622838692431598576e-02,-1.898024411729696886e-03,2.206129238994161690e-02,-6.470853263320620018e-04,-2.078098583628991067e-02,2.200648998428114331e-02,-1.261965843309540390e-02,1.066061573307286459e-02,-2.402101892644463096e-02,4.492310389604204160e-03,2.286817590183339369e-02,2.060761065260850039e-02,2.196474766835144685e-02,4.057243563381125913e-03,-1.925577836710993390e-02,-3.152621873545214531e-02,-5.432613866769302365e-03,-3.311871779133965113e-04,2.726101796950399295e-02,-6.679645081304417739e-03,1.514440105351222247e-02,-3.874385850365250766e-02,1.530816180985324938e-02,2.126807041756865850e-03,-2.769487880937682341e-03,-3.322493538919539524e-02,1.505710142692667265e-02,2.108540676585107798e-02,-3.842364066252309650e-03,2.768975728161864394e-02,7.812573791823869233e-04,-4.227325159443431207e-03,-7.421513993446114676e-03,1.113006810148060681e-02,-4.161318238117444820e-03,-2.038528731584368300e-02,-4.253068002255704777e-03,1.158755203500365545e-02,-2.894406989070600483e-02,-1.457928949164850711e-02,-1.431473367186399462e-02,1.426068713615052420e-02,-3.187989099391565911e-02,8.485558841682854306e-03,-1.743124924803361384e-02,2.379418274873105685e-02,2.061040715429067818e-02,1.138824963519746540e-02,3.826970875147688543e-04,-8.472895939967655179e-03,4.966993872471661600e-04,7.934002764200706950e-03,1.519990365106792078e-02,-2.330905008267142656e-02,2.699274810296767822e-03,-4.930114501438816882e-02,1.601336960751456595e-02,9.438586668015299871e-03,2.656462303389718355e-03,1.889426531062078987e-02,-3.016393154417760722e-02,5.181839646732454632e-03,2.661729261670158636e-02,-3.899578337784312464e-04,1.571417463609545845e-02,-1.319210036056638231e-02,-2.196619982670752064e-02,2.864748634946951561e-02,8.601954512143189600e-04,-7.380538964806432518e-03,-7.607733552436325188e-03,-2.388024066238588275e-03,-2.373765355948878348e-03,1.808273609290099102e-02,1.661381482162543801e-03,-1.774206769166903480e-02,2.104633734080600682e-04,-2.424866800658002225e-02,1.322101517364584339e-02,-2.840506323638291447e-02,4.707590699009510209e-03,2.867845218743679189e-02,-2.207786952378110179e-02,6.187499071432078952e-03,1.902346062965527135e-02,1.448759180293933586e-02,-2.658928841975775198e-02,2.215050921712918841e-02,-5.182839989740850757e-03,3.141484685170491814e-02,1.648932064935517555e-02,-3.090018676822238811e-02,1.013426507926785047e-03,-3.558939869698648714e-03,1.610540110896171301e-03,-1.463503297286816197e-02,9.441295683652865811e-03,2.414442648036563277e-02,-1.839733404644711481e-02,-2.055165577986645120e-02,-1.599870648257146295e-03,-1.458584807072923172e-02,-3.492562318981460873e-03,-6.738894159858672787e-03,-2.305386473980172365e-02,-2.497434760719956931e-02,-3.978616414950737756e-03,-1.272410581293731109e-04,1.041446551638192455e-02,2.906730995196174332e-03,2.057426983107400048e-02,1.044123159299320189e-02,-5.388471194611673711e-03,2.414628038781994369e-03,-3.548535517114804767e-03,9.251985745366228270e-04,-2.680834787018918780e-03,1.154715905600539085e-02,1.198172646236642623e-02,3.659739948174479951e-02,7.347848903545398146e-04,-2.672565200847181258e-02,-1.091718790583085484e-02,1.386796076681629181e-03,-3.817749173914379568e-02,1.488838256440452000e-02,-6.668634118388340470e-04,-6.582424880656183308e-03,-7.785760722175119261e-03,1.721879661035652376e-02,3.254617460059753414e-02,6.314110443027055094e-04,3.850776683532960900e-03,2.898819507134407347e-03,-2.946446281121472763e-02,2.110647907130367221e-02,1.625718618645819250e-02,1.671057203295414672e-03,-3.401400720517126081e-02,2.645717487531197218e-02,1.953543636306490430e-02,1.559401517037867051e-02,-2.760509066602446354e-02,8.315929525210929985e-03,1.749834903177896819e-02,1.644579091165112314e-03,-1.352111151455186525e-02,1.236915038769848506e-02,1.094881740797775185e-02,2.808512646783119585e-02,-2.865196252895894566e-02,-1.540009300107630973e-03,-1.146094880233410745e-02,-1.379048540463464860e-02,-2.930682092174559730e-02,4.441532746326482678e-02,-8.940235917524359810e-03,-2.554223628172615224e-02,1.546137510024638007e-02,2.351119137375240822e-02,2.991245555981476845e-02,2.961679043951258652e-02,-1.717236763835167795e-02,-4.517582045526635781e-02,3.018415214465727716e-03,3.521588389286050419e-03,1.663664637996086111e-03,-4.227985108436667708e-03,-9.325490639547301050e-03,8.775858018849102063e-03,4.127224767342690774e-03,2.130703853306043297e-02,2.968941790977878969e-02,-3.708595107229179649e-02,3.856304046510608541e-02,-2.108868047742243346e-02,-5.290556077988351098e-03,6.481678581057830589e-03,1.602706779240225393e-02,-1.307081631429520170e-02,-1.295445502327984347e-02,-2.017029377945048566e-03,-5.562950830305106887e-04,7.073923779076800224e-04,-2.053850317562236349e-03,-4.434123099478594517e-03,1.197971554376226107e-02,-4.100483876123193344e-03,8.661284362422451422e-02,5.057168120065764529e-03,3.064950070242992639e-02,3.782334254198800594e-02,1.992031544638554318e-03,9.933706191390516763e-03,8.831451339474594847e-03,3.301497951146466735e-03,7.395434815562803264e-03,1.097849311844210224e-02,-1.754930466059452521e-02,2.077199819571982214e-02,-3.348298885412202310e-03,7.266020741912875740e-04,-3.439077709939468430e-02,1.206876237664654405e-02,1.027913382873736452e-02,-1.112424362162028196e-02,3.279454093084530064e-02,-2.714229138212048698e-02,-3.444861692168173922e-02,-1.206996551573736882e-03,1.790453456795437076e-02,-1.158050595032108013e-02,9.908572132569310603e-03,3.251774829490248001e-03,4.436002185319582250e-03,-1.440872340912685914e-02,-1.511582739301472501e-02,-1.969402296172430983e-02,3.167562814673509738e-05,9.224269350335531636e-03,-1.349486082824279641e-02,-1.928662744480147753e-02,-1.201815320019671745e-03,2.784412286442940893e-02,1.599929827714715799e-02,-1.185618773275871202e-02,-1.219000632842782289e-02,2.197641438782861351e-03,2.305407270118914678e-02,-1.581409134543058578e-02,6.640032410654189612e-04,1.133169268817084754e-02,-5.688615587744781828e-03,3.627707386354792063e-02,2.939128895061525817e-02,3.250517264286426067e-02,-9.518261158220768167e-03,-2.038139590052348571e-03,7.922586541458849236e-04,-4.175655854879715967e-02,2.001110598043150460e-02,2.254691844674912640e-02,-3.872107906006829522e-03,-3.594880167493835071e-02,2.080960560532191944e-02,9.593953054454143134e-03,-1.910652760001748524e-02,9.755896894528430507e-03,3.412698663088819390e-02,1.759705812386258561e-02,-2.080017266285639002e-02,1.290654989334557266e-02,-4.050986925892581698e-03,-1.148733570449090094e-02,4.743718218349895523e-03,-4.263282497502416529e-02,3.550376257349978359e-02,3.119837317981413727e-02,-1.029094814730953725e-02,1.727510674775262559e-02,-2.415805264323504092e-03,1.161555514491932270e-02,-1.917304362353405150e-02,1.287769155897871241e-02,-8.194450436740734547e-03,1.066385477220523070e-02,1.695286383298999500e-02,1.101154657388896813e-02,-1.046289948936482937e-02,2.698058988651696240e-03,-2.848751783844531704e-02,1.650178158502589934e-02,-7.352526143036735629e-05,3.488233925092447830e-03,1.370664431783719626e-02,-6.908994847948169045e-03,-6.304347573049799529e-03,-2.850859226633245883e-02,-2.289686933245688172e-02,3.500037811240781782e-02,1.274613773631511592e-02,2.238527555404655825e-02,2.292705235433338540e-02,3.540219228116883027e-02,-1.476102629036030872e-02,2.679807257125959435e-02,-2.225814650696025451e-02,-5.831158955401012124e-03,5.933589095389660110e-03,-2.265824208344945426e-02,1.550883537193601877e-02,1.349698784061705405e-03,-1.025980770852730206e-02,-8.920670399052724143e-04,-1.405066316980809176e-03,-1.888234440779688536e-02,-3.724382059214295399e-03,1.132684518039669269e-02,1.264811183583317619e-03,2.681132591650643368e-02,3.240613905873690123e-03,-1.919593872983999666e-02,-1.623017469505205063e-02,-1.347846820288246643e-02,1.259081444884844504e-02,-3.529253789997353896e-02,-1.367854756481935719e-02,-1.416561838219259836e-02,-9.252674396463803422e-03,1.870746333474430229e-02,-3.247997520561827882e-03,-2.911334394757836459e-03,3.900557505879984847e-03,-3.034347544749528558e-02,3.647557002100990445e-03,2.094067158926288946e-02,-3.720836023588808272e-02,2.170534914973510504e-02,1.387583275631255842e-03,-1.584740430431059652e-02,-1.306192911444370138e-03,-2.520782778073563102e-03,9.088075011315931845e-03,-5.705299390876079381e-03,-4.061505458771932919e-02,-1.272423342092735520e-02,1.800145969938123786e-02,5.389391903670764407e-03,7.158461329780574887e-03,2.051518829341420977e-02,-2.815002615627728785e-02,-2.197732007046020435e-03,-1.331446682019005179e-02,2.520622667933164474e-02,-1.653696155540531135e-02,2.800136678145096272e-02,1.992399434695068389e-02,-9.735699114464700307e-03,-1.938537628369587165e-02,-2.038533896639799572e-02,5.827016533235722037e-03,-1.579314575987297159e-02,1.602335171495194652e-02,-9.040883972676395583e-03,-1.271060036265812300e-02,4.439099421901384658e-03,9.682103285040929291e-03,1.145614805662498008e-02,-1.944941959632555655e-03,-3.218810598901471285e-03,5.151089330757947782e-02,-2.039751469155216476e-02,-1.284643672712764556e-02,8.731711505876734239e-03,-3.555098389200250786e-02,-2.514900334758876643e-02,-1.311117947231641226e-02,1.328716254209848019e-03,-1.377310489640766814e-02,1.405417865666789938e-02,-1.040615325126075311e-02,-1.144024531294083290e-02,2.631729382672529788e-02,1.534563850524827723e-02,-5.298999425949433260e-03,-2.394834893850844235e-02,-3.567329638932548869e-02,6.471781486679313404e-03,3.234131236298858764e-02,1.026103132270119594e-02,-1.214885281745944727e-02,-3.276470281448037262e-03,-1.784274548961858192e-02,-1.132220604116035076e-02,1.692014018455643976e-02,-3.164985034915107631e-03,4.350071979417384493e-03,-2.415897876508436154e-02,7.815935493257321690e-03,-8.963540900954506188e-03,-2.593073298094154822e-03,4.136043115552283725e-03,-9.064782321346542219e-04,-3.746099984559605415e-03,2.054339054329497663e-02,8.115635396089636300e-03,3.435632639137693733e-02,-1.627713833307295813e-02,-6.976664585061720034e-03,-3.774269234858110625e-03,-2.153311213449846453e-02,9.088992476432971798e-03,-2.409545740453795590e-02,8.145239462017965851e-03,-2.134840932715293196e-02,2.469171077821437355e-02,1.454162187814968081e-02,-3.892658172576753117e-02,-2.186348681146025805e-02,1.830184575977742171e-03,3.410583768235640745e-02,-3.383720186321109019e-02,-2.246184324234337323e-03,4.325674185798664834e-02,4.636945528899013950e-03,5.614420880814746185e-04,-1.224050653777704681e-02,1.019972389874066257e-04,-8.501660830748955164e-03,-1.488203179867270479e-02,8.471013313322802926e-03,-1.323081256904499667e-03,1.771024291076680676e-02,-1.519989981479106904e-02,-1.248402974706120869e-02,-2.966340545667763701e-02,-1.600087361629939225e-02,2.715917828184439848e-03,3.665068157034415044e-03,2.282359282626110139e-02,1.351861706231726953e-02,-8.892326017695382362e-03,8.693229635571326922e-04,-3.469939991981819266e-02,-1.775481959151579622e-02,-4.391749036929377265e-02,3.558147017038725685e-02,4.783304666234283395e-03,3.698323163524945209e-03,2.146314516607959397e-02,-5.632648353040663886e-02,5.167188840911107056e-02,-3.394607159748254388e-02,3.624231662051762698e-02,1.417375812304931017e-02,-3.912651311847623048e-02,2.952264397600120813e-02,-6.549459402714120394e-04,-2.219519540029819132e-02,8.217412745437543617e-03,-1.475661901513184750e-02,9.164801569961992730e-03,2.137074550070350298e-02,-3.375138295168263192e-02,1.350755565393112721e-02,8.374175354032412089e-03,2.256620452994094819e-02,1.051143586294727220e-02,9.514678866394741044e-03,4.323330322572873502e-02,1.284169138821508044e-02,-2.028220301920461918e-02,4.994254802246419524e-03,-6.359599399514529600e-03,-1.738315750903672227e-02,-1.716339233862894734e-02,-7.749363446758191637e-03,-5.504585370574212148e-03,-8.176543735557088854e-03,-1.657106994274610071e-02,2.332853770002192226e-02,2.671830329317764763e-02,-1.485868650458360132e-03,4.309040538334678007e-05,1.334025389337855673e-02,-2.008460639835791400e-02,4.209645566535080013e-02,-5.357676255555244432e-02,1.614034279496274690e-02,1.479614964792199229e-03,-1.460430049639408617e-02,-1.105162043965567543e-03,-2.117349922869072448e-02,-1.083641964164091739e-02,-5.775858529700084176e-03,-2.854788838266802357e-03,8.146172110923316674e-04,2.700390055255570340e-02,-3.584065191817205343e-02,1.537311382323999949e-02,2.391994150923233697e-02,7.129121549073100771e-03,-2.487006652355049433e-02,-3.278005495843746989e-04,-1.546321302093750516e-02,1.475368346798014256e-02,-3.540626595667327372e-03,1.533593668930336926e-02,-1.293933748276403749e-02,2.486734485299135419e-02,-1.637874695638048828e-02,-2.014910916670240373e-02,1.189982287142825855e-02,2.287604230884834888e-02,-9.173838548658112130e-03,-2.755417326936675237e-02,-6.077880909497271333e-02,-1.637174513106252893e-02,-1.526639252689266681e-02,3.835437888722982060e-03,-2.406186269742892347e-02,-2.763268843691778481e-03,-1.041927448693768556e-02,-2.536198168140034112e-02,-1.499947727002331772e-03,1.309772523118804717e-02,-2.456652371756471928e-02,1.962746302620009889e-02,2.961341768927901533e-03,-4.217258800802830068e-03,5.602584606576922061e-02,2.368305728867522650e-02,1.228384357015244524e-02,1.590706153277560153e-02,3.520398106518235481e-02,1.625691115067256706e-02,-1.293198964284155046e-02,-2.319538567446042740e-02,-4.515163174212975632e-03,6.343559077523890435e-03,2.077925094940164669e-02,-1.727869921251550325e-02,2.142924259468765441e-02,2.317104191628962737e-02,-9.800033451928700720e-03,4.837260773329594282e-03,-2.852283587340760304e-02,2.594743805099886461e-02,9.712049187782423668e-03,-1.589105608246748833e-02,-3.977361705974382516e-02,6.336725047012051887e-03,-1.710898853482765644e-02,-7.884419857486106575e-03,3.269389212278298040e-02,1.540449171941002914e-02,-3.040116873234232492e-02,1.434161491257980765e-02,-9.574758041843482725e-03,2.692016261321373075e-02,3.164559442604225614e-02,-2.406733614340414093e-02,-2.052023544466446622e-02,2.066443695140617650e-03,1.623705141151443598e-02,-1.046098045132701042e-02,-1.896323525624988432e-02,1.842441828138236329e-02,1.743274588281625015e-02,-9.303420822223490427e-03,-6.337605334226272154e-03,-9.370295730190752320e-03,-5.584252544077275907e-03,-1.193759010240677022e-02,-6.045311575391777714e-02,1.008207135991633953e-02,-3.221330629899885750e-02,2.358503388548937457e-03,-3.022359420412866135e-02,1.514225737822476499e-02,2.323985334789256847e-03,-1.172531027294123826e-02,-2.022339354842914508e-02,-1.794178982356200514e-03,1.840914619629183818e-02,-4.465696170662880604e-02,-4.813389268589050862e-02,-1.586932916174639552e-02,-1.355195728939450651e-02,1.502722353544616585e-02,2.456215433742644366e-02,-3.332046802010233538e-02,1.628910898522090839e-03,-2.397402808433382951e-02,8.398439143741297241e-03,-2.081811371287708404e-04,5.130239875732539416e-03,-2.689655305082977975e-03,-1.136448682427366845e-02,3.827194521867815797e-03,4.858925993430666945e-02,2.120642831977409201e-02,7.750858180802742796e-03,1.034342788263587810e-03,-6.623484612924538176e-03,-1.024583939882124997e-02,1.563974444859050905e-02,-2.070045358261636027e-03,2.642719536867134400e-02,-4.188089830072148044e-03,-2.767641907892689351e-02,4.107970186622388400e-03,1.201341224861902403e-02,-1.049375222382765982e-02,3.784544381042605904e-02,-1.512592417764680591e-02,-1.397335706257831281e-02,-7.178199537644629029e-03,-8.222017968682779690e-03,1.105818751307265785e-02,-3.269415675113764713e-02,1.781642115062578857e-02,3.493310034513181367e-02,-4.147449085828171060e-03,3.889565482759983067e-02,-2.567883175751341923e-02,3.125797500717157618e-02,7.407163486712214397e-03,-9.116479286871767909e-03,-4.406525101457373431e-03,2.938778421387878634e-02,4.970831761142913835e-02,-1.399438549417227930e-02,-2.184096694734459845e-02,9.120457476368583685e-03,-2.787624994501662276e-02,1.430087335224369295e-02,-2.618614567253144121e-02,2.156854385168677224e-02,7.141887970109993614e-03,-1.402186660883321737e-02,-1.748732894433089680e-03,-1.384895751686726802e-02,8.818404590989255970e-04,-3.131496972857487904e-02,2.390956520867518892e-02,-9.887043581762795796e-03,-1.167344991251852149e-02,8.194377880166048636e-03,-2.770201828347885423e-03,1.070889895239190114e-02,1.598687047126192903e-02,-3.585049130141353731e-03,-2.361030603586293519e-02,-2.355533716488418874e-02,-1.778597717865068942e-02,-6.757646007473298421e-04,1.138177817591152705e-02,2.182601220576561862e-02,1.067904352812102699e-02,3.342707848544630711e-02,8.677314546175230250e-03,1.002869696856851546e-02,1.386884260170087591e-02,6.435162393656430717e-03,-1.469518331751473034e-02,2.887047126178714923e-02,2.343962063848099159e-02,-2.329830274269573467e-02,-3.160671825241028604e-02,2.048484900736136788e-02,-4.005745456171473651e-02,6.030945269215690768e-03,1.188602649888697736e-03,-3.995576825499186358e-02,-2.178474452453703011e-02,3.118430944426511808e-02,-1.341084679507591020e-02,2.618105399210248971e-02,2.864258766738705247e-03,8.324594199989727300e-03,1.943070859835817343e-02,1.134985698376578169e-03,-2.711235319697666551e-03,-2.597133235246056309e-03,7.635426431480355630e-04,-1.979809920923937885e-02,-9.215668484439387687e-03,1.166084123203190749e-02,7.991867006247210803e-03,-3.577774621108590486e-02,-3.992936093309085860e-02,-8.293960144883885666e-03,4.757715653973562837e-03,3.924131543906622666e-02,-4.777457825415352272e-02,-1.856201327087438763e-02,-3.188322737501856491e-02,8.961081523834065615e-03,1.507684948747549901e-02,-1.090146561709660553e-02,-1.805265622167755157e-03,-6.775408795011498599e-03,