2.327439976684285428e-02,-8.487787883168239388e-04,1.421461313921697570e-02,1.826129102246989294e-02,5.371280188751839657e-03,1.239450477728190137e-03,-5.991222237239317641e-03,4.057337886561367124e-03,-1.383108742840057082e-02,-5.284471712078597783e-02,3.035159277367143957e-02,-8.654447121724818601e-03,1.442759498118626046e-03,-2.889315860335845559e-02,-2.443665871522195804e-02,9.464853349136650648e-03,-7.455371631343193917e-02,2.319704387683797948e-03,-7.424397152232380462e-03,1.486436533790126691e-02,3.889320766776594579e-02,-2.909821025896996982e-02,2.587392461127680648e-02,-1.894707896586519599e-02,1.459415515100424485e-03,1.501566161178223904e-02,2.167890060363003926e-02,-1.947757392226121334e-02,2.198489860031154885e-03,-5.829500237640488497e-03,-2.708683625009543697e-02,-2.662829286036575739e-03,1.017193418705454773e-02,-2.355312135076686325e-02,-2.442698414788959348e-03,-7.429664071505638970e-03,-3.260046635038159335e-02,-2.021699889704600336e-02,-6.303679747642318247e-03,2.529156247040563812e-02,-1.114603214130738609e-02,1.637153994483047173e-02,1.539407674495887023e-02,1.916819282946769648e-02,2.583055084120093928e-04,-2.950176471512911194e-02,6.880478241466909603e-03,-3.723406222547401279e-02,-2.134279889306146295e-03,-2.328833893885577742e-03,4.525059837443621939e-03,5.284043660764967468e-03,1.365352518129023425e-02,-1.349426895714263622e-02,-2.270275567175563530e-02,9.527566250527388664e-04,-3.194520168475497440e-02,-1.920385614198439825e-02,1.497160042212078955e-02,4.695587996186145925e-03,-1.464846142507565500e-02,9.421537175714740295e-03,-6.662600692051092940e-03,6.596504135205548576e-03,-1.277982627730320057e-02,-3.721009295371495440e-02,3.050907456466590492e-02,-3.568921024488221766e-02,9.924400834342060607e-03,-4.652191700394856660e-03,1.300113433083470004e-03,-5.150926851553806751e-03,-2.370717735293472947e-02,1.004471493094755618e-03,2.809983964907627162e-03,5.576241531705143466e-03,2.981595034474385925e-02,-2.735545833559666420e-02,-4.583938098077713560e-03,2.731762263395182827e-02,-3.419843210590858135e-02,9.508337951151000361e-03,-5.036975855970136744e-03,-2.885777876131581307e-02,-7.300777239648753364e-04,1.573793988214952644e-02,-1.691269529711875858e-02,-1.442871609265338612e-02,-4.522986793879866358e-04,-3.328553405159024974e-03,3.111298269110505943e-02,-3.962061637249610080e-03,2.052310039005723202e-02,3.563769858379959611e-03,4.178471794188870492e-03,-1.401954488014731624e-02,-4.448725566254038179e-03,-1.639130226637234428e-02,-1.715893840671496237e-02,1.789515412332704988e-02,-7.972445077490791440e-03,1.896620790739537293e-02,-8.180129740764851762e-03,4.291848354220829768e-03,-4.366947001914299811e-03,-9.551760909177257203e-03,8.715626008549430884e-03,-7.305818400794162996e-03,-2.866392811700678792e-02,-2.034936652513408967e-02,1.010701413544177162e-02,-4.276723236024954772e-02,-2.185307444972988539e-02,8.532918303588059653e-03,-2.197879694681174542e-02,3.383799451382917683e-02,-5.278063120283786776e-03,1.651055680952586216e-02,3.359904001607760121e-02,1.668931791011528647e-03,1.799780883726933081e-02,2.249666625421452293e-02,4.176412656272274703e-04,9.977014779350392576e-03,-9.215891825274991067e-03,-8.276398591325834567e-03,2.160518360337678259e-02,1.925722336890864014e-02,1.136189757241817117e-02,1.211677962926234302e-02,-2.019874332928405306e-02,9.378406826099175767e-03,-2.471132974495687720e-03,1.223228835555655557e-02,-1.702789362553246838e-02,-2.528475760613125428e-02,2.587526315705022603e-02,1.197087348976044914e-02,2.075441672417266056e-02,3.724791680420109358e-02,-1.545127553503639062e-02,-1.088767807367806758e-03,-3.053858185453155877e-02,-9.722498975564167201e-03,2.973582000800028061e-02,2.066108603329689514e-02,-1.521201612099820502e-03,-9.593932394469420130e-03,1.388482876021219538e-02,-4.594270975246544236e-02,2.296173072563879869e-02,1.098813812044548144e-02,3.650407840493795700e-03,-2.890197440665894998e-02,1.315407178378764572e-02,-2.106111245381138419e-02,-8.908905266141034507e-03,-7.851138681468632086e-03,3.173256751175886764e-02,3.300159224751526843e-02,-3.078260645109627373e-03,-1.686505649718392837e-03,-6.464722273701884944e-03,6.984594978659325673e-03,-5.114250995153522827e-02,-9.960430612483540599e-03,1.052811638468080339e-02,-3.841519965082485118e-03,2.038184267649393797e-02,-6.419670554233664755e-03,2.228984303194092922e-02,-3.359408721460281633e-02,-3.954766437993773726e-02,7.235671954243752535e-03,6.619791823012189519e-03,2.743569136122922872e-02,6.902500297426045379e-03,3.586101468210195833e-03,1.189846127503817880e-02,1.446711034820776128e-02,8.794837670320788253e-03,-2.132941493945030367e-02,-2.574109530422680203e-02,8.231048683059096621e-04,-1.806105819508566079e-02,-1.418157373331310235e-02,1.103302534525409627e-03,-4.119490961209015985e-03,-3.006434130377054134e-02,1.344643185429231051e-02,1.291830812805979875e-02,-4.197973964323883922e-02,2.046983495226946045e-02,2.001826348053756949e-02,5.227686517375865725e-03,-3.095351131785602228e-02,-5.940408191469884538e-03,-2.040856344623959498e-02,-2.341789959728418288e-02,1.931765162279329429e-02,-2.463221673073824960e-02,6.541256266960314598e-03,1.731403736517394404e-02,2.139454194975946855e-02,2.404899640644757655e-02,4.060845720119882207e-02,-1.251340663050642954e-02,-1.191747268688476448e-02,1.878741834229320437e-02,2.469282620652889226e-02,3.127157685702894319e-02,-4.995006211509086906e-03,6.829004529380885979e-03,-1.496057007345214136e-02,8.147862037428897294e-03,3.529911400470404220e-02,-1.241825046388392306e-02,4.094751422673265952e-03,-6.310315388603542075e-03,3.159072063685938042e-02,2.249677897520474187e-02,-9.407489752947095080e-03,2.911838743130964677e-02,5.031528837496575257e-02,3.554833625976214738e-03,-1.529018775608584346e-02,-6.107604921030631434e-02,-1.176478736924846911e-02,2.399082080498516137e-02,-2.364039240815509618e-02,-1.679651630872051535e-02,1.260492854225258620e-02,1.183783290719315172e-02,6.175500204135892651e-03,1.740071443585552297e-02,8.423780081513334780e-03,-6.239324394607274893e-03,1.534034353390599861e-02,-8.905722904163186626e-03,-4.829360359340493548e-04,1.130761361410238808e-02,-7.021177755645523558e-03,1.479571079604764805e-02,-1.233836523263567679e-02,-8.932054778268805340e-03,8.864178392843657245e-03,1.532340908774206152e-03,-1.331331845782587680e-03,2.173785653324212738e-02,-5.388116158420490354e-03,1.690856716006783333e-02,4.384255504035673538e-03,2.678794768990034117e-02,-1.147085365283109087e-02,1.511494753892723454e-02,9.011184324218830810e-03,1.607110917811118561e-02,-1.500955683086591629e-02,-2.194180582137810961e-02,-1.073491997798917130e-02,-3.600436365929296501e-02,-2.044441202578872047e-02,-1.847190379019484491e-02,2.753760891577311173e-02,-3.590622678198980566e-02,1.337244179912024621e-02,2.641346457573411424e-02,-2.026593221933796832e-02,2.434395137819570995e-02,1.294506795667360773e-02,6.471308776246713010e-03,-2.622123730712258571e-03,3.053039554183866258e-02,-2.162182853790189929e-02,-3.016526278877124101e-02,2.706861566004401323e-02,1.144863874467119506e-02,-3.571092679545614934e-02,2.971941429945016214e-02,8.337793636980733378e-03,-2.972419937383243352e-02,-1.594386594711302840e-02,-2.725475169184517731e-03,2.104251956330995335e-02,-7.875320068716981647e-03,-1.141596404437804357e-03,-3.397353989928330459e-02,2.402200449587990703e-03,-5.260622196840106235e-03,2.396362973179786554e-02,-7.420627107470489058e-03,5.819537438165393178e-02,1.936048835535778348e-02,1.497679978755564988e-02,4.934752302237396283e-03,-2.564659859268933473e-02,-1.461528596216253801e-03,7.519007245961235614e-04,-6.144546496865120958e-03,2.998982089955037553e-02,2.088880442723090730e-02,-1.410919695240584262e-02,2.073896438545403190e-02,-2.203417438573990542e-02,-1.431141739315398842e-02,4.000872647325764107e-03,1.029286158923901386e-02,5.015002490048765804e-02,-3.364555173854339581e-02,-3.669304290135459029e-02,-1.974723493710549282e-02,-3.173117742627041930e-03,-1.235360477721990195e-02,-4.704386915864492390e-03,-3.057199252658432745e-02,-1.077992934522219171e-02,6.498349878639267732e-03,1.049243400256148371e-03,1.558688661965588855e-02,1.124616242110443136e-02,2.928371745947150676e-02,-1.950857415120049385e-02,-2.917686364129731466e-02,-1.802915798003359993e-03,1.321450753368889723e-02,2.262926287834471015e-02,-2.030171425273202823e-02,-7.445082483164642412e-04,-1.390630200309236203e-02,-3.242598179550987281e-02,9.428864634744021575e-03,7.491445145994102446e-03,3.698339463415696582e-02,-3.061390634709345790e-02,-2.309209604074550018e-02,-3.903405769053628488e-02,1.487544345896952766e-02,4.556705311735791998e-03,-1.606904567171065640e-02,2.917035632630243444e-02,-1.574249657354284942e-03,-1.413717628596643239e-02,-4.775541270518221526e-02,-1.888128468856261830e-02,-1.615536445234507304e-02,1.439678131118183463e-02,-1.656953605189966788e-02,5.432558150657086291e-03,-2.632700697548882515e-02,-1.449715768016153830e-02,-2.178710419907969528e-02,-2.782438789752306532e-02,3.276423394647672710e-02,-6.989778034609999205e-03,2.673370236967839708e-02,-1.488187204538017269e-02,1.836622107448541985e-02,3.024573564966251751e-02,-3.502932606333486465e-02,-6.886135557714697167e-03,-1.506423611706219842e-02,1.961013388804181204e-02,9.455046316450183702e-03,4.209019873417831070e-02,9.216001628288983264e-04,1.187422287932693096e-02,-2.074932114580787385e-02,-1.224342234001024599e-02,2.092059263352600770e-02,-2.597492642531735313e-02,3.225416659345304964e-03,2.326938599478032416e-02,-7.299858842189795548e-03,-3.949467328512933778e-03,-3.422713365192191909e-02,-3.044868850663202259e-02,4.295883954260354236e-03,2.834621286634316645e-02,1.037145113735494714e-02,1.214776816556766871e-02,1.970846675846481960e-02,6.831323625995823143e-03,-2.011854369685178376e-02,-3.282869166759611046e-02,-8.252680001950729594e-03,2.490558128649970546e-02,1.506490654715635959e-02,-2.853005517446752584e-02,2.725629755951252189e-02,-8.070602960637194428e-03,-9.928318404352157872e-03,-2.317953928408508085e-02,-1.853341144845132432e-02,6.993255702696639028e-03,2.884443691450468833e-02,2.668131141628493630e-02,5.168004724113980236e-02,4.647272410732034703e-02,-3.532962462894100042e-02,-6.657976074886717832e-03,8.276412683241170590e-03,-3.945329943998622524e-02,1.915016987649037841e-02,4.851422998526411928e-02,-3.392859317830843047e-03,2.937263589842924183e-02,-3.304983025480464492e-02,-2.984046697885049670e-02,-2.946114729583432582e-02,3.110466204146445507e-02,-2.790168852822281706e-02,-7.052356166935540120e-03,-1.667678996250821985e-02,1.950325476108095285e-02,-2.888643363654810198e-02,2.090708453722008725e-02,9.768586615934939446e-03,-1.285453501994561834e-02,-8.217898807474954478e-03,2.033888724098073877e-02,-1.039622274196010630e-02,-6.090128794743837615e-02,9.181392500622664876e-03,-1.437961307169169367e-02,-1.756437541711251826e-02,-2.106147602860234443e-03,4.607847921579089068e-03,3.223624939070111189e-02,4.363345399983553467e-03,-8.047300674493901990e-03,-2.839136193867417002e-02,4.642467374989859424e-03,3.844354545632941520e-03,-2.256499402564352691e-02,-9.542362642958534050e-03,2.421580001050697289e-02,-1.719419263772560677e-03,-1.260197263565671424e-02,6.028894444329777752e-03,2.590499360374324753e-02,1.537120779288011184e-02,-1.658740985837837967e-02,-3.180694057371176789e-03,3.424147196628003764e-02,-2.184385591909209293e-02,-8.242017553719964765e-03,-9.037039379735357925e-03,6.892186694746772063e-03,7.974157457590211329e-03,2.446848716270191154e-02,-1.130171021655406761e-02,-1.361612511071032955e-02,6.906982757210672515e-03,-2.753701882196328554e-02,6.051520911670714084e-03,-2.997907204762182906e-02,-2.369868794883908929e-03,2.764296534592708410e-02,-3.357762260529981169e-02,2.901982518461336362e-03,3.058229065256009779e-02,2.495428835721172703e-02,4.633312830874807865e-03,-5.298545518102212816e-04,-9.009774141105686071e-03,-3.302358831890343793e-02,6.147865776163751947e-03,-2.533761473271272519e-02,-3.498304427736241562e-02,3.304639786749993813e-02,2.162468559060187409e-02,-1.062090556813779889e-02,-2.567433409780240511e-02,1.539274411173733280e-03,-1.279013995239800146e-02,5.181168020918531548e-03,-3.124272385469261098e-03,-2.617934250999329540e-02,3.585824000209174994e-02,-2.808372479548375614e-02,-1.651579125750930743e-03,-6.451326574518197188e-03,1.434196519390931734e-02,-2.953307437370152749e-02,-6.644312092958583847e-03,-1.747303053542604429e-02,-2.078453687719628278e-03,-1.136751486199428542e-02,-1.622115110379007078e-03,2.239133195364812270e-02,-2.339263912702936512e-03,4.657985278567483567e-02,-7.714108521483127416e-03,1.610515802106569916e-02,-6.077362718151720598e-03,-4.070921115308971596e-04,6.324239089159310739e-03,-5.852262942339010211e-03,-1.607205104070650106e-02,-1.125504957394346355e-02,1.762542136907636892e-02,-9.287196028057179142e-03,-4.538570520268896125e-03,-8.016496877916827468e-03,-6.250769292851218739e-03,-5.100068522715812611e-03,3.080260741057050042e-02,-2.032087682861779404e-02,-3.983512887678945791e-03,6.105398011735397104e-03,-2.358898560011770534e-02,1.352743768470163806e-03,-1.494344506182072006e-02,4.873253205757440733e-03,-1.532378578233454559e-02,1.454736504223032474e-02,2.574057828554679114e-02,-9.589138235913310243e-03,-6.925086566805242067e-03,-1.074259224836634054e-03,-3.871428467086333869e-02,8.152898675174804523e-04,4.580584612161392455e-02,2.360680896229116338e-02,1.386528676972014406e-03,-1.496338014067749057e-02,-1.440184307003921499e-02,-4.611182113305105010e-03,-4.577689404398067180e-02,2.532003775900349210e-02,2.103708991428396985e-02,-3.665970874046375200e-02,1.495866529996369397e-02,-1.117301387932027358e-02,-2.633055285840297036e-02,-9.434763807306187702e-03,7.160423266570930438e-05,-2.782175392441413667e-02,7.361194171549937174e-03,2.987409783379983176e-03,3.379855628600310358e-02,6.866737957498840993e-03,-9.383540450269282907e-03,3.048808358574955565e-02,-7.358378809117238975e-03,4.930248682419051311e-04,-6.561634755092938913e-03,-6.653562189721395730e-03,-4.832344810254008555e-03,5.346610191609504209e-03,2.918596333466531856e-02,-3.042428230016920674e-03,-3.114025909599261663e-02,9.146388802378176142e-03,-1.885862311160450833e-02,-1.200352037497271363e-03,-3.029143211897726909e-02,1.299837662720213644e-02,3.538919427250489247e-02,1.104807946573217563e-02,-9.341391437509508761e-03,-6.019018210252811800e-03,7.917574109220155629e-03,-1.427669679185461504e-02,-4.293604827563914442e-03,-5.245107010791195132e-05,-3.452736938124366384e-02,-5.408085113007131406e-03,-7.401165007946168377e-03,3.217019886178726969e-03,2.539605972275869872e-02,-2.146835801205982872e-02,4.199416330078951931e-02,-3.806322206057329710e-02,4.007238743945724241e-03,5.103327427818264705e-02,-3.084813823036798922e-02,-1.047838965038160042e-02,2.607552136076115440e-02,-3.896927896235898546e-03,-2.740978134828726126e-02,-3.419087124032929581e-02,2.235343781259701082e-02,-2.133873522478658968e-03,-2.689719426636878741e-02,1.691420515615005976e-02,8.234607684372076061e-03,1.525457743905987186e-03,2.147073483779122355e-02,6.181375501363568087e-03,-5.004916315074055266e-02,-3.196440972181940898e-02,-1.189019001031774332e-02,1.777619194731681548e-02,-6.478009015610104206e-03,1.350674031049478585e-02,-7.941169349092486174e-02,5.640052595117803561e-03,2.253730921400434479e-03,-2.469165616028644317e-02,4.239720734902082538e-03,-6.148571668239388548e-03,-9.044100381246497275e-03,-1.385410196180475277e-02,-5.268464046446274390e-02,-1.145719168224821824e-02,-2.164752168242899903e-03,-1.570664632225659760e-02,5.683181206132260216e-02,1.951239185440283019e-02,1.030339498849985533e-03,2.098124950472655612e-02,2.647731664559516140e-02,2.846658253720036127e-02,-2.446109897932333826e-02,-1.237804201755218075e-02,2.502343314530103974e-02,4.995505346677186001e-03,-1.593353168563334948e-02,2.758411696560913659e-02,-7.683801791900705253e-03,6.476441939482113948e-03,-3.638716670164746352e-03,-1.717574371840637978e-02,6.898042231483896350e-03,-1.070961592576883184e-02,-1.276364950682326582e-02,6.014638478265820496e-04,7.539424957318859033e-03,1.008215801515168278e-02,2.090428784038943916e-02,2.111844702188220985e-02,-2.602824709085362065e-02,-1.644515206533684291e-03,6.763019076191456244e-03,-4.101172403132819812e-03,-3.033187324645812699e-02,6.753571944579290533e-03,-1.229188339722278719e-03,-1.256033114501251859e-02,-1.493000312427449072e-02,1.928395005800240258e-02,-1.105667934898075383e-02,7.568091922727154981e-03,2.141642144242814766e-02,3.553125832239761861e-02,2.165992284024254727e-02,-3.774789512877500201e-03,-2.961156435268723353e-02,2.626291208308675212e-02,-2.735468033790960929e-02,-1.520559581424308672e-02,6.085357054046428363e-03,9.386008769601614579e-03,-6.518477720673775816e-03,2.248462348595561128e-02,8.118804903250891047e-03,-1.980154650352488124e-02,-1.043933390921253195e-02,-1.275944745865529792e-02,-7.061450751812802917e-04,4.186190034762062723e-02,1.408619530136618649e-02,1.449032427104426967e-03,-7.450456066456668559e-03,-3.600271709935521335e-03,-6.712302970483389683e-03,1.450788726807772377e-02,-2.160255754583732118e-02,-1.340660927856710677e-02,2.952275985889976292e-02,1.175649769517823733e-02,-6.065442403208238381e-03,-1.787751590459846912e-02,-5.135129797450628530e-02,-5.771656935798943552e-03,-6.982065306187328936e-03,-2.455857197140514508e-02,-3.167899557516387632e-02,4.367831217473941430e-02,-5.603403383290793058e-03,-2.266902516137231371e-02,-3.072827415291186012e-02,-3.380516707265780740e-03,3.656268962479302265e-03,-2.959031626208009913e-03,2.865308261893297070e-02,-5.506443463331785887e-03,-4.209143326128271523e-02,1.285615436044531580e-02,-2.935918972829663909e-02,-3.368113273623359917e-03,-3.673309072057000246e-02,-1.780269897212444913e-02,-4.567139102657186145e-03,1.364343886808899037e-02,5.138645956981800940e-03,-2.376035988695529566e-02,2.062036132188195883e-03,1.066917265922526573e-02,1.023329529428849277e-02,-2.518982142616625272e-02,1.974805376842422508e-02,-2.568235254338286505e-02,1.269645083907815220e-02,5.640940909926060384e-03,1.164531655233026243e-02,-7.529934563339784823e-03,-8.550048843475925586e-03,2.718892277600594085e-03,1.236160831815606188e-02,-2.428344080447602735e-02,1.131793147446425243e-02,1.765354255768027819e-02,1.359210157187056879e-02,2.506639243321217084e-03,-9.504822676186826594e-03,5.120373421863721151e-03,7.993548833791712382e-03,1.140511186031949349e-02,-1.799369419217725780e-02,-1.244981548783551280e-02,-1.582685398100324228e-02,6.540379942637923258e-03,-9.299409914569567448e-03,-2.143078960360257981e-02,-2.037427364148629641e-02,-1.054527259702370615e-02,-1.451335519742578788e-02,2.281623293950291610e-03,2.078577078469033904e-02,6.256033520004061765e-03,2.297929964374946510e-02,-2.520216313646586603e-02,5.593150717256197002e-03,8.490795854178135108e-03,-1.806361810390719885e-02,2.432539952828784505e-02,1.454782219834827722e-02,1.596168170551883272e-02,-3.426503670578944644e-02,1.970242266181277194e-02,2.923273604121567198e-02,5.033151382169587934e-02,1.138017689449109283e-02,3.798575271814981502e-02,-2.720477521727204806e-02,-3.542553438062762648e-03,2.682547670589582184e-02,2.220608786216326375e-02,3.930249351721711026e-04,1.993807905396917032e-02,-1.515986745358588461e-02,-1.683178714514629512e-02,3.028497933356246244e-02,-1.355560364768453735e-02,1.690911689697966597e-02,-4.834442870217837453e-03,-3.529692960451909917e-02,1.786110720323609569e-02,-2.174206294086870883e-02,1.728481463703296708e-02,7.818319584236370877e-04,2.193662649821962948e-02,2.031389691316368932e-03,1.809968115588242443e-03,-4.706546390195916196e-03,-3.460814436294156610e-02,-8.054725004087884971e-03,3.400865110293316979e-02,2.130453215389970303e-02,1.005573501895108690e-02,1.658444889783838860e-02,6.421114912042443640e-03,6.173903012868445358e-04,-4.171454218834467695e-03,-5.987502962637075536e-03,-7.825883353021156202e-03,-5.103353536371539774e-03,-8.182698797189498843e-03,9.138271579220967958e-03,1.977963779723501334e-02,-1.769569100735611175e-02,2.563109987026240821e-02,-1.846732027163707629e-02,1.694149038348203564e-03,-1.453054861756783445e-02,-8.472093229404978288e-04,-8.984962809971209011e-03,-3.609818598402293049e-02,-9.585701308632912920e-03,1.307119451477471370e-02,4.287124605724145637e-02,-4.451677328162682856e-02,-4.697924750978978679e-03,-1.012013597704216391e-03,2.218417952127503447e-03,1.354461515569741273e-02,-2.049193249005628811e-02,-6.191683374737626255e-03,1.003927053715555039e-02,7.435091346143972435e-03,-4.120438073331952195e-03,-2.038621628738065961e-02,1.206439845988049268e-03,-6.567565230870425243e-03,-9.323620407844150290e-03,5.182872300969734725e-02,-4.122297861852062401e-02,1.289699689558422395e-02,4.049353772747338320e-02,-2.886894079866633473e-04,-1.670385367737634366e-02,2.980183124477493381e-02,-3.602871411842070107e-03,-2.341125566207238190e-02,-2.663981762781750598e-02,2.242767385657472214e-03,2.780150308809034923e-02,8.076251676076602257e-03,2.274276492133942701e-02,1.052316883625168883e-03,8.186183509965652694e-03,1.088405048568969347e-03,1.126756569493071562e-02,2.044891507032994826e-02,-7.366049796348073803e-03,-6.038892773693986180e-03,3.855001562920538569e-03,2.712835275764864749e-03,-5.207059019677044709e-03,1.957979384600194370e-02,-1.277291775359847177e-02,-2.453586871921867654e-02,4.072245153928932826e-02,-1.672306669581217001e-02,1.936007309518995856e-02,-3.504934960869463684e-02,9.207503798695240715e-03,-2.279930366399420677e-03,-4.475612408161884839e-03,-1.538351404700745093e-02,-6.503677086116480509e-03,-7.923133775610012586e-03,-7.673450177040472189e-04,2.702242414000059073e-02,-2.058154697557961973e-02,-3.005394982791770482e-03,6.924440225237947673e-03,2.125725356613684253e-02,2.893462249933570485e-02,5.627693701306469946e-03,-2.631236871006702865e-02,6.056708157021511302e-03,4.210753104069878822e-02,-3.285936679538760397e-02,2.321645667205630981e-02,4.568440284201506947e-03,-1.304080289848919688e-02,3.083518180655656603e-03,-2.685739651025541644e-02,-6.005154212528318255e-03,1.482123867579165401e-02,1.427651471714265659e-02,4.109282938259273786e-03,-3.936668000376941472e-03,2.457647970470382137e-02,-1.444110707772364123e-03,-2.297341802832480323e-02,6.868111364149658872e-03,2.525637599059133917e-02,-2.195286355175236903e-02,3.024353020235039449e-02,4.047422007615823075e-02,-9.917393325179435504e-03,-2.594008910370804513e-02,3.719960118547149808e-02,1.653872497690867709e-03,3.373983287286097792e-03,1.380367542302921718e-02,-1.400413867062406427e-02,1.628311606616680189e-03,-2.422885554883063078e-02,-3.162551991351870984e-02,3.227967261137514032e-02,-2.537057544116927757e-02,-2.507522297908689260e-02,2.503547382345968492e-02,-1.357111071426124384e-03,2.310230926138287164e-02,1.415084827329787624e-02,-2.194622677490726953e-02,-4.109087672619069257e-04,-2.169665391187581074e-02,4.277589038788505438e-03,-7.221397627978036818e-03,-1.022261424170309817e-02,-1.117718915871823704e-02,-2.446814475182062729e-02,8.374909069681664778e-03,-7.881091675614280024e-04,-2.175486790353375107e-03,4.144353309733762002e-03,1.666985130478301292e-03,6.621819249868090770e-03,1.619435714848075844e-02,7.163073030557071466e-03,-1.851529891983594994e-02,5.642900917926847032e-02,5.646659852600430414e-04,-2.385823932039618858e-02,-2.617873008188926695e-02,-3.793007666701676134e-02,2.400722671065394845e-02,2.754508442487365455e-02,-1.808013571129520047e-02,-1.500477930496275925e-02,-2.815697612397608310e-02,-1.754966625712801875e-02,1.260696779814522196e-02,6.666898361512792019e-03,2.807246669424345170e-02,4.364485378233831821e-03,-1.130545558092558786e-02,2.553093971079454464e-03,-1.780861277970595229e-03,1.861634280508263350e-02,3.710755559874690055e-03,3.423331221823747855e-02,-2.939012785162383248e-02,2.690592031134664275e-02,-1.695160650905765121e-02,-3.863843413548426024e-03,-3.194387005460017082e-02,3.694215560467051501e-03,-1.598641681361116437e-02,-4.652855666845464450e-02,3.229846424109310363e-03,-2.592451870295121516e-02,1.201785363718434717e-02,5.416441328701323242e-03,2.173446632282497598e-02,9.376349953784217373e-03,2.069371135827218627e-02,-3.113511268581255209e-02,2.150088058620409394e-03,-1.296181106949005450e-02,-1.052197003070724952e-02,-1.108359468818902009e-02,4.170109062701030968e-03,5.163960951047573585e-03,1.395366501460594197e-02,-2.881392143294473143e-02,-2.543163745779567289e-02,3.582054445379118102e-02,3.847472638375132054e-03,4.383760526244193621e-03,1.002311910075848189e-02,-1.646440285327095687e-02,7.657623499144680136e-03,1.948619503439805514e-02,9.438215679120225132e-03,-1.310064356458452012e-02,-3.863918841311046737e-02,-1.469382968908965713e-02,-2.430587164854542889e-03,2.844512400641328875e-02,-1.644492609856734039e-02,-3.255821683616224455e-02,-1.381490700913581664e-02,-2.064752859118981765e-02,1.334043198613974607e-02,-1.231750693662604645e-02,9.926301004863637492e-03,7.703750609363123857e-03,-1.298328956824715448e-02,-4.431369039793399585e-03,1.542110259504217255e-02,2.621415706610748589e-02,5.002157608051486029e-03,-4.765689159236291723e-03,1.023639674021286500e-02,2.342627953038131997e-02,5.670408854950053507e-03,1.482726819205454696e-02,-7.286186073020220998e-03,-4.665967952409814240e-03,-3.559880513717900326e-03,-2.424054854272852250e-02,2.344327132870640401e-02,-3.600626542795836577e-02,3.653954385114397026e-03,-5.096175982091688886e-03,-5.090111634070617654e-03,3.020386899587374982e-03,-9.182071694413349722e-03,-2.602954148493148018e-02,-2.257961785409312583e-02,1.638466831052746249e-03,-4.624022137908736715e-03,-1.018784221628787207e-02,1.383583855644693675e-02,4.368499750790251490e-02,1.608698682534053653e-02,-1.944078708456791274e-02,5.149609555296390945e-02,8.594897238848606472e-03,1.132158217290791732e-02,-3.291262390368129842e-03,1.365426080218959046e-02,-3.093153111788357178e-03,2.549388387746232346e-02,-2.746433163886080608e-02,3.636597053851771399e-02,-1.034708787290089180e-02,2.905112784734012812e-02,-1.517023677713908239e-02,9.373823057026142366e-03,1.082566061039510683e-02,-1.026704917706118894e-02,1.222516953933672733e-02,3.304354786597804572e-02,-1.363451587942664418e-02,-1.167848318286542585e-02,2.703411437986001989e-02,-3.515317627397793881e-02,-1.129664258182701796e-02,3.015237496382297544e-02,-1.820756240008005941e-02,-2.289742758151436589e-03,-9.453159540766007535e-03,-4.425856238786927271e-02,8.497326300324094944e-03,-1.903343425650142612e-02,-1.681722534008019826e-02,-3.108108638030315438e-02,-1.755955934072567226e-02,-3.040812846354280785e-02,-1.890722766420461359e-02,2.228548653533218848e-02,5.682737241042099680e-03,-7.314796021384047456e-03,3.793819081281997116e-03,4.696984382163016912e-03,-2.605437362186223405e-02,3.066438124395431605e-02,2.154451504184478824e-02,8.848898704370155091e-03,5.975661925910613972e-03,1.138244940315460323e-03,8.827723558187559535e-03,9.661680953931363336e-03,1.477585260552279631e-03,6.187941506998625128e-03,-2.931731406365520581e-03,-6.782794038933451924e-03,-3.136659570607861630e-02,-3.033130495111189748e-02,3.837192036521324713e-03,1.820474092889154752e-02,6.885060277334145371e-03,-1.806989798601020894e-02,-1.514153231444780555e-02,-3.941148171112487247e-02,8.991086859749039886e-03,-1.355658482594417763e-02,-4.494646029495158457e-02,1.739891778316915829e-04,-5.910903539754607666e-02,6.687215541317111621e-03,3.070868292912454743e-03,5.126727579552897013e-02,4.679086026174867491e-02,-2.639628810753983507e-02,-1.119224538519700274e-02,-2.091524179710971265e-02,-2.208314281331776735e-03,7.058251445297329153e-03,-1.472447746867642029e-02,1.564028805847635442e-02,-2.821228183248012875e-02,7.986813142565891976e-03,-2.066984073678739681e-02,1.107534608617654313e-02,-9.823948207119015397e-03,-4.090676628185149419e-03,-2.642471866740864553e-02,3.672585813229856111e-02,-9.717857308339107603e-03,-2.284486192565874513e-02,5.249354413568472350e-03,2.579739793423606320e-02,-8.216925828962568217e-05,-2.356427869969809560e-02,-5.282896990137341507e-03,2.779641761451948773e-02,2.207092209128117682e-02,-8.847136896252839541e-03,-3.306811867248755227e-02,1.718325552342666110e-02,-1.639612228723459977e-02,3.543734967317144560e-03,-1.037611646170369557e-02,-1.629124280037267183e-02,3.075468565176744246e-02,7.999517871407927846e-03,-2.745198057339998804e-02,-5.525035861963080094e-03,-1.797499922447588425e-02,-2.522900343301113027e-02,1.240419838914025297e-02,-9.835389560148172575e-03,1.516533851855337775e-02,1.183333775642629246e-02,-4.911760845427931045e-03,-7.370345757126146868e-03,1.487626384405857892e-02,-1.772278974140958918e-02,2.779223209361037297e-02,-2.570361577996019969e-02,8.025746379785618154e-03,1.094838835871592662e-02,1.813107354607930086e-02,1.178071008807971866e-02,2.303626152697485149e-02,-5.559237277353373200e-04,4.818318527653513150e-03,-2.514992274010888554e-02,-4.482919715711072145e-03,9.243114189185696813e-03,1.432797586400992584e-02,-3.289640486206243247e-02,9.371331878336540758e-03,4.357847721132640517e-02,-1.699210497341231696e-02,4.932592929516073886e-03,2.103930970913199180e-04,3.631206049666912614e-03,-3.826484008871304521e-02,-3.063132019041040280e-02,-2.404985711501086282e-02,1.515496070223600576e-02,6.542575172994790494e-03,3.371586995582429632e-03,-1.183077066000255521e-02,-2.529608757487032678e-02,-1.176055634589013438e-02,-2.562878648319957819e-02,-1.758316843242715977e-02,-1.903061330959858119e-02,-1.740836178870086223e-02,3.408143402796905835e-02,5.510656703394210994e-03,-5.068690287174429029e-03,2.126105490751879767e-02,4.134227335962043642e-03,1.301519293455463515e-02,8.395118880009048296e-03,5.621263764586397274e-03,-3.385021634248841504e-02,-3.562657745544733912e-02,1.642661577047742349e-02,-6.051596302364754126e-03,5.138874282014943388e-03,4.084162361347477843e-02,1.293754706795454019e-04,1.294676000244171163e-02,3.465458559118239634e-02,2.305059640157637244e-02,2.034477629902467499e-02,-2.334582666605185090e-03,-4.444759180234338254e-03,5.744527284013754842e-02,3.892418341513408618e-03,3.750226682928590582e-03,4.162098675947067256e-02,2.726632213469619426e-02,-1.839966128031880060e-02,-6.127102749571898543e-02,3.086985623951040130e-03,-2.661273918219301746e-02,-1.174513231708367196e-03,8.931632162231126215e-03,1.578116556810656504e-02,-2.410426632947887046e-02,-7.745436081715153381e-03,1.449818130665826016e-02,2.635287013097889833e-02,7.501641435332397599e-03,-4.956515947303783039e-03,2.146698356779253372e-02,1.199829829337646994e-02,2.125705274692868060e-02,3.399497495245108747e-02,-2.801054542247038287e-02,-5.540811080961688395e-02,-2.321916542964137017e-03,4.134424544193745880e-03,-7.895445480569769593e-04,-2.283374998340678003e-02,1.689695863340921408e-02,-1.304481825014321486e-02,-1.225730781233420798e-03,5.417482430617856851e-03,2.891815591496466747e-02,-9.564513128092424002e-03,7.068080208315636465e-03,2.631308781899609553e-02,1.512189518099469297e-03,1.323320996845050827e-02,6.169986911951939879e-03,-2.079653025016459100e-02,-8.314959338550685988e-03,1.108975323800716686e-02,-2.680267470326709936e-03,-2.127692139900861854e-02,1.996538605594035121e-02,-5.694122518247480766e-03,-1.624469499719538579e-02,-8.127356759619938642e-03,-7.481646884889441886e-03,-4.463636104945650773e-02,-6.801829953838484100e-02,-1.064511679700144188e-02,-5.808538590106609653e-03,1.904600934457443759e-02,2.152133753728040569e-02,3.353016326432299576e-02,-1.561523016372172445e-02,4.353678181535976938e-02,1.671326987967440905e-02,-1.349085273845020659e-02,5.350391006313506490e-03,-3.488063038570397845e-02,-2.890496641125847935e-02,-2.551008256281105807e-02,1.305139631106111940e-02,-1.390362677931878191e-03,-3.366856276540638321e-02,1.096000438439129806e-03,3.577424608581158266e-02,4.531952697237082162e-02,-5.713418548119696821e-02,-9.237592154395948482e-03,2.331021618646235416e-02,-4.773264569836579985e-03,1.008094886381609564e-04,5.966382823443398820e-02,-2.336330588413083192e-03,1.186771545768939250e-02,-4.338657866155015003e-02,-1.439124705577915497e-02,-2.942290297824546024e-03,3.134917806008678115e-02,-1.367011052474594208e-02,-3.477814999260445301e-03,1.799344402554083067e-02,-9.574154496978922943e-03,3.743503243987822589e-03,-2.101624393732019411e-02,1.580932972892892807e-02,-2.424760321649034253e-02,-2.044295463962986226e-02,1.277843213592148820e-03,-4.256395479418404772e-03,-7.228574280979145963e-03,-1.600585708378090416e-02,2.577211713794066213e-03,1.876470199511756989e-02,-2.120710434709027412e-02,-3.058736241050721144e-02,-3.882607338107155279e-03,-9.262334294263284201e-04,1.145435367486470103e-02,2.627558852111604691e-03,1.284050029951249242e-02,-2.125153726877199861e-02,-2.589727657883801257e-02,-4.581630444256047478e-03,8.755352600117174370e-04,-3.150075049327498433e-02,1.392289320688164939e-02,-1.677091436894723522e-02,-2.862451510859152434e-02,2.367496427091496901e-03,-3.732212654140261866e-03,1.567813245302283540e-02,-1.787122391495557516e-02,8.889786444274919153e-03,-2.030394498629133244e-03,-1.196472039737722518e-03,6.249003968663788440e-03,-2.556570089459760109e-03,1.705820932201070408e-02,9.150194848488035423e-03,2.041103055662077739e-02,3.802406025865170177e-03,-6.996457434355785477e-04,1.349820305958644370e-02,4.594143418625154691e-03,2.422905365248308185e-02,-1.139353111765750368e-02,4.642466141242491268e-02,1.771411415241312681e-02,3.542258833076799337e-03,-3.241726499044876586e-02,-1.015505265771626288e-02,-1.725440989336820760e-02,1.835340742336467532e-02,-2.804974545468075231e-02,1.151891894114251110e-03,-1.046412973742713408e-02,-6.336424706608587186e-04,2.663546519434031520e-02,-1.258628702188831043e-02,-1.643301666981646786e-02,-3.380730930957623337e-02,1.606237142284187847e-02,9.119186686789838153e-03,-1.410592557854430280e-02,-4.146858068323706209e-02,1.858445532360195225e-03,1.670282993401072530e-02,9.662925195105816212e-03,-4.238469706105022026e-04,5.592913713470822751e-02,3.355487377996676374e-02,3.159022029693339673e-02,2.657926288688930092e-02,1.350189554779725101e-03,-6.843619102898369734e-04,-1.634288452490223822e-02,-2.595568159460915486e-02,2.936668648123258105e-02,-1.547669078094779903e-02,6.558784044110203132e-03,1.644163172601631126e-02,-3.037217355145688247e-02,-2.079097707951036919e-02,2.224123549305424136e-02,-4.747468726314804655e-02,-7.830556941065399887e-03,-5.910961768061834785e-03,-1.699621500744002284e-02,5.157239826225656562e-03,2.480873556487650858e-02,-7.558127100589401813e-03,-2.784015066890609732e-03,-1.064497136697201314e-02,1.630804926717441955e-02,-1.192210840149322479e-02,2.006930977143091960e-02,2.572676775230570145e-02,3.721461094382635514e-03,7.225464488304271168e-03,1.783974621382835787e-02,-1.989966323216378272e-03,-2.911223025824580951e-02,3.198929281941743918e-03,2.137711428669812966e-02,1.690443156965668785e-03,4.965649982577357083e-03,-4.078507805159953259e-02,1.215358425079539166e-02,1.906457796531807469e-02,-1.043794843286659701e-04,4.028303728668401230e-03,7.026971509848921327e-02,3.658192167758312664e-03,1.187183405961554639e-02,-1.178212965834134034e-02,-1.259903310098742929e-02,-1.314144240780025334e-02,4.614557073154005457e-02,-8.388627621080406785e-03,4.403826305804338023e-03,1.541390013134772558e-02,-8.517447566143228690e-03,4.787506569636568350e-03,-2.710520038120711392e-02,4.060315537567164151e-02,-2.036020301992391007e-02,4.293810293765513986e-03,5.020291251843065142e-03,1.202415534543372147e-02,-2.538571155778936161e-02,-2.768610294255112458e-02,-2.737006452140888692e-03,6.315274533427514027e-03,2.397054434135798516e-03,-2.239035792491346488e-02,-2.678505228251112230e-02,3.139188473362146403e-02,1.764306606344416550e-02,-1.786473972343078850e-02,-1.911821893347528251e-02,1.225207322353008554e-02,-1.335340259718466663e-02,-3.274605984134266318e-02,-9.229206884977123049e-03,-7.962344153400878477e-03,3.321527622470574984e-03,1.105601562191830742e-02,2.748631382559780720e-02,-1.302275360577557183e-02,1.352264162849027215e-02,1.628986903221715798e-02,4.353761626807881036e-03,2.297013268699673282e-03,-1.597866530948319685e-03,-1.550279071081529271e-02,1.846657597180038218e-02,2.212211965544808728e-02,-1.536528209756074861e-02,-1.830908155465831369e-02,1.503354805674711123e-02,3.280505203952141600e-03,-2.660934933738886080e-02,-4.844171515464536226e-02,-4.547242428413827801e-03,-1.583873797369874867e-02,-9.757482129848205586e-04,3.515975765915903793e-03,1.002373235536949299e-03,1.465417955878284099e-02,-1.431497006133156807e-02,2.000831870078834465e-02,-4.720722677023947433e-03,-3.929442762536323325e-02,-9.549002454624012926e-03,-3.814355684477811759e-02,7.609447964436071889e-04,-1.090226875893971284e-02,1.133905620516714036e-02,2.521920843056650249e-02,-3.428991519665596649e-02,1.896098203007836117e-02,-1.468920053041208353e-02,-1.916327507202435871e-03,7.146112168143478778e-03,-2.033110402875861877e-03,3.660609517736237301e-02,1.031216795415016742e-02,-1.372751439682442891e-02,-1.026402838088067218e-02,-5.528353692827497889e-02,3.322794959227333422e-02,-2.759345721719588460e-02,-9.095386455678229967e-03,-5.560135899893853782e-03,-3.470989590528297808e-02,-5.097243520929157883e-03,-4.490239538925123314e-02,5.980291582593582310e-03,-2.898734227776294733e-02,3.174856693947444158e-02,1.692262576206949101e-02,1.921944981449369427e-02,-2.850301464011822938e-02,-2.689779108411644026e-02,9.972103890782164567e-03,1.109171668891842898e-02,1.579802254946060386e-02,2.447263345042092857e-04,-2.570554417197651320e-02,1.256058100087828304e-02,-1.541905327539807788e-02,-1.910537489077703270e-04,-2.303844579840619300e-02,-1.540401636450338015e-03,2.484752609162960840e-02,-7.880297511936805097e-03,-1.730247000447611427e-02,1.212842771400121991e-02,7.994716462274648050e-03,-8.960695760765606185e-03,-2.305485843608215055e-02,3.719911567601769803e-02,1.415784332527786696e-02,1.797273519935316949e-02,-1.499826178189319140e-02,-7.660355473725446659e-03,-2.014344161047053675e-02,-7.716503256913046817e-03,9.062077292631396525e-03,7.241473326975124934e-03,-3.810751799319903738e-02,-5.066370853728610971e-03,-2.896409317178219242e-02,-1.732855629018951668e-02,-1.504120925640544532e-02,-2.233278763844607703e-02,1.650021510715680984e-02,3.996238274422336118e-02,-1.977320231270747117e-02,1.776124248314728607e-02,-1.822665435445579990e-02,-3.188040607062517066e-03,2.045709376859375372e-02,3.183994433887537417e-02,2.027891809262508983e-03,3.406637425368453514e-02,-3.616750538788986169e-02,-4.839123766532500703e-02,5.017065538045215045e-02,-1.117768637061672919e-02,8.268354844194487213e-03,-1.543246906183187370e-02,4.232156935948423737e-02,1.237180632989172066e-02,3.295223274783134516e-03,-5.747387488588820079e-03,-9.859966228798823160e-03,-2.691206463897981641e-02,-1.828278346947512234e-02,2.886187006993324103e-02,-3.073065867033555193e-02,-1.485337752556084058e-03,8.098267350313007040e-03,1.831782419855629632e-02,3.359796733099312815e-02,-2.323463895316305473e-03,1.445940884318068845e-02,-4.528925569113327262e-03,1.298236502439716489e-03,-1.618156381934823806e-02,-2.618812162971717594e-03,-7.167755004239684605e-03,6.801208350054255974e-03,1.581312249280531282e-02,-2.541119835329127413e-02,5.301432976500409632e-04,4.102518901290800116e-03,-3.922197157813597096e-02,2.791631738130110458e-04,8.338224532028037927e-03,-1.158734415644271931e-02,7.411638107670378596e-03,2.344136063674827006e-02,-2.471195445761634538e-02,1.137474716586359992e-02,2.640394322761901742e-03,-5.116719455467065580e-03,3.644806418868072606e-02,4.443768672063370950e-03,-2.870935486276389101e-02,3.374273518977177061e-02,1.361958075703756897e-02,-2.347223166665273267e-02,3.958807253048902963e-02,-4.171264568833504653e-03,5.333929193322735698e-03,1.009537303026067194e-02,-3.740232340043202902e-02,-5.532475649756323638e-02,-3.144724165746926037e-02,7.717612194094229834e-03,-2.625496321886077247e-02,4.940247060301447904e-03,-2.124598350627839374e-03,3.648415632520922696e-03,1.267171686158024072e-02,6.958152394204213109e-03,2.117068256238038501e-02,-1.161592174754972999e-02,2.053683816250593402e-02,7.791148054052753069e-03,6.867007311289074871e-03,-1.786378329988096841e-02,-1.422136854634000434e-02,-1.356037328338148377e-02,-5.569149807910242847e-03,2.203338177124733802e-02,-1.104174662112537668e-02,-6.852951527579620970e-03,1.172019564760171627e-02,3.684406084519271929e-02,4.260959211451773726e-02,-2.985874086196767252e-02,1.997177760914434913e-02,1.770317750190902525e-02,-3.627955634879462569e-05,-2.368368806734463469e-02,3.237472346958208957e-02,5.781729057524748194e-03,-2.834050915823609507e-03,6.496168920948863258e-03,1.116727669620444507e-02,3.396816785805469724e-02,1.865984827944192764e-02,-3.589143163422686342e-03,-4.751291561936819494e-03,3.675529200419714454e-02,8.460483511444755883e-03,-2.363171779683790469e-02,-1.855340410092936113e-02,1.053326058371040728e-02,-5.106915321699518435e-04,3.174181410157466549e-02,5.635606201225237030e-04,-6.303890812529433854e-03,2.783246912580848026e-02,-3.109305430963297395e-02,-5.207364916408579580e-04,1.737150142253366183e-02,-6.143875734227586746e-03,-1.794096953625489571e-02,1.202182390524731900e-02,5.577507833240092153e-03,-2.993131393983273093e-03,-1.964550009629716099e-03,-2.304941565482178031e-02,-1.501554995892226928e-02,-1.774139127117812381e-02,1.265148020429654983e-02,3.185411664984014180e-02,5.121223855958120623e-03,1.634561726202614362e-02,4.748128385920492509e-03,-7.008618750362289110e-03,2.139494861582180718e-02,1.915794278945974830e-02,-2.254064214856776535e-02,1.078660349306056684e-02,-1.403598285265130093e-02,7.054041214612648443e-03,2.221380395404376831e-02,3.239799697951784019e-02,-1.177301582838406052e-02,-8.834928823581410240e-03,-5.928157203282970189e-03,8.911180670969801737e-03,2.412582293464276238e-03,1.301296327827337201e-02,-2.961509797187218337e-02,-1.333414488333693575e-02,1.001955439408914149e-02,3.600962967241662718e-03,9.884223132637162679e-03,8.667962573110821363e-04,-1.228119761750250116e-02,-4.782847557870347627e-02,-1.545728060613654233e-02,-2.781725675258816741e-02,2.128560030486786967e-04,-1.159091291370999664e-02,2.302437266717042783e-02,-7.527151750667903859e-03,2.597016595879069606e-02,1.648440942876851223e-02,-2.312618865123588704e-02,2.016238575244212392e-02,-2.772346127629419046e-04,-5.189278860739108407e-02,7.504737439768932030e-04,2.923707387668996599e-02,-6.437509458855502319e-03,-3.039498348050742593e-02,-5.285492931463367516e-03,-2.206835737349784748e-02,1.646349884172795125e-02,1.467363460159233461e-02,-9.822325640199915456e-03,-3.803745999981719000e-02,1.734968204627455879e-02,-1.298358187729508825e-02,5.018882335617787585e-03,2.317396846052008699e-02,1.433829295856143063e-02,-1.296565085138224119e-02,1.629120508416206925e-02,-4.485560346086119726e-02,-3.194224530109816829e-02,-1.023481977783759905e-03,-3.770983857992376252e-03,-1.888429337999697954e-03,2.714765627750596877e-02,-1.157657505027336747e-02,5.534161949895574639e-02,1.215114013710293442e-02,-1.260601868848572511e-02,2.822472984057174811e-02,2.920074636231653406e-02,-6.008549118443529471e-03,3.241275907637111795e-03,-5.216215976969691519e-03,3.236455276901323286e-02,-1.200022540562405669e-02,4.716364431343131151e-03,1.563437834990777679e-03,1.280763494826490760e-02,8.090254687328050226e-03,-1.238995090538979986e-02,-4.736120485751735623e-03,6.008663280068934909e-02,3.051330657986588493e-03,1.559628826465077854e-02,-1.072613121459237671e-02,-1.085975948217119541e-02,2.326569715232087304e-02,-9.462439590716267140e-03,2.390581606050956598e-02,2.169970402855219554e-02,9.697331639665912259e-03,1.855166424547002521e-02,2.805439499249307023e-02,-4.311032875247838847e-03,2.265027073804234611e-02,2.091442884740943916e-03,-2.745258159934639910e-02,2.743558074993849086e-02,-3.183699463243931660e-02,-1.066902426162080059e-02,3.921123262124802757e-04,-1.235745748551099130e-02,1.662334459878487408e-02,7.864141338881329088e-03,-8.940094603664898443e-03,-2.351129053919484742e-03,3.660798850990317106e-03,5.106629514583966266e-03,2.304438157098834608e-02,1.194942197062138882e-02,-7.079772701043925837e-03,1.091591549729060452e-02,-3.858901102418777103e-03,-2.518081168653668947e-02,-1.665073545483758063e-02,-3.155660470693600478e-02,-2.257110706266528960e-02,-1.991996464347245074e-02,1.837975431019898617e-02,-1.415218447510290314e-02,3.622717694636608775e-03,1.860698514438702614e-03,2.897432574585534840e-02,1.523587829296533733e-02,-1.200770786258347281e-02,-2.453477300900738095e-02,-1.915949705205792497e-02,-1.036403186780127453e-02,4.482304377390016262e-03,9.712360770646593158e-03,1.687376908760217578e-02,-3.010979429352940787e-02,-3.810586184365304108e-02,1.556300458116958996e-02,3.023895932176258895e-03,-4.905820751480483716e-02,7.549926742492342122e-03,-3.172657870841434635e-02,2.116299093559443137e-02,-2.359881358731990078e-02,2.858457687719824156e-02,-1.851599795059261436e-02,2.268068835577290512e-02,-1.725887138198768309e-02,4.589613582339964644e-03,2.336028118794012363e-03,-2.723437728237400324e-02,2.295998226329828626e-02,-5.489783845508237892e-02,-1.337875097048238718e-02,8.815872689256430347e-03,-9.101265518068644284e-03,-3.143731834581888623e-02,-2.507363437786519142e-03,3.105109071582843466e-02,2.299979327104999943e-03,-2.852571520282612058e-02,6.522833539255507018e-03,-1.778301749156321887e-02,-1.628543084904338425e-03,-2.915913029387810773e-02,-1.669121884896457839e-04,-2.547914691705772602e-02,-5.859569558272661842e-03,6.043399068763194437e-03,9.387484746904539712e-03,4.766070475345997662e-03,1.083752842932100661e-02,9.113529757866522564e-04,8.379133043619089657e-03,6.966214826734611412e-03,1.627718371579770298e-02,-2.041205720415186636e-02,3.711722984889961191e-02,-8.750536262252174569e-03,-1.632129794083849589e-02,2.171698600248721939e-03,2.007360002725003256e-02,1.056491247986942640e-02,1.764905972796545694e-02,-2.075105795683754827e-03,-3.315104370644050835e-02,-1.404310595770621659e-02,1.386044593302543197e-02,3.733568441622504234e-03,1.301818443631968907e-02,-3.518347039646032431e-02,-1.919813308902737145e-02,5.212875764680095086e-02,3.153280634716527659e-03,9.710579441233293391e-03,-3.957067883619330359e-03,5.832050095349000478e-03,3.693641857111190641e-02,3.099290132747146986e-02,2.875605628757180697e-03,-8.801357555253856236e-04,3.096912547786964936e-03,1.751879170201711342e-02,-4.004435424416875888e-02,4.070101459702256397e-02,-8.980633933987750006e-03,-2.188436602419539367e-03,3.332226302141656077e-02,-2.997485555533496368e-02,5.526016409320339690e-03,-1.761275180288528544e-02,-1.059800649191957114e-02,1.397659396083440449e-03,1.606152710885232204e-02,-9.552363240177731349e-03,-3.146048471506913968e-02,2.100078834449523729e-02,-4.547132070367247703e-02,3.202014799132270328e-02,-3.225635027414590350e-02,1.459510304000851723e-02,4.510126591313714725e-03,-1.324855159263433127e-02,-5.266380262335980389e-04,4.455197692345773397e-02,-2.418808117007317099e-02,-3.569350948923745350e-03,-2.415400241409498827e-02,1.798739036717891815e-02,-2.559420462686297013e-02,-1.453160233179119284e-02,2.847749870282491325e-02,-1.791421112798576021e-02,3.234297477093183576e-02,1.026613378841094958e-02,4.797901283185554248e-03,-2.795799143726802882e-02,3.130631069654144470e-03,3.187109142357679586e-02,-1.618598363433209827e-02,-1.125056988257172423e-02,5.388770852770831572e-03,1.047741318852472674e-02,-5.904812831996727324e-03,8.942813679643488167e-03,-1.062473043092600862e-03,8.938147658471123349e-05,3.081838224586960426e-02,-2.733127381388407787e-02,-5.825314702878539933e-03,-1.305057805817343847e-02,1.177131325695776436e-02,4.022166524107382429e-02,2.846290020119279437e-02,-1.568587975579954080e-02,3.752508475093232435e-03,-6.101309069313184171e-04,-3.008639787200181881e-02,-1.941196600627569102e-02,-1.676868212813574163e-02,-7.325562507659845457e-03,3.418784834544249390e-02,1.721223661632161755e-02,-1.603386328298496508e-03,3.160507545310491974e-03,-1.090989163646729695e-02,3.296418822061105564e-02,2.551115092689102554e-03,-1.556028723402900008e-02,-9.008900410428009528e-03,9.592597520177610637e-03,1.433064768836775707e-02,2.526414247654882456e-02,3.051956770511755901e-02,4.711629100825500890e-03,7.139104981775761666e-03,4.812886497983665315e-03,7.193365136514857754e-03,-1.036681883284734824e-02,1.633008103204290282e-02,9.069878392915179527e-03,3.064756108607700688e-02,1.069154791422277477e-02,-1.578782382553403987e-02,-1.835400100272592885e-02,-2.102276255573598887e-02,1.379263242779008372e-02,-9.240595317946602091e-03,9.479779968887728321e-04,1.703516442630921210e-02,-2.875674996150123786e-02,-2.287951771135557713e-02,1.151388830575806850e-03,-1.003511650794910483e-02,-2.725700720407758793e-02,6.130126594760827892e-03,-4.963166034306313625e-03,5.281986246313870141e-03,1.012126403225661192e-02,-9.243893238586469580e-03,-2.116785561065999757e-02,-9.086346231954813349e-03,-2.056444954743413822e-02,-1.330292071020223489e-02,2.631924529130554025e-02,-4.213027515909756153e-03,8.553820089241969890e-03,-7.473917879537927793e-03,-2.355310737313066199e-02,-1.547629314428292276e-02,3.782056187393700170e-03,-1.584292001408805009e-02,-1.436975012610056113e-02,1.792519304375918970e-02,1.138599119172838472e-02,1.403963712623616279e-02,8.453975101934617722e-03,1.273414156315211439e-02,-3.147030251180164828e-02,-1.669249117116706690e-02,7.957243518640341740e-03,3.820568967293290485e-03,1.548015373646418301e-02,1.533587279695829836e-02,3.834226490885503380e-02,-9.705907826102483024e-03,2.734625640199512403e-03,-2.017982032771441572e-02,9.775092147443088103e-03,-1.042652360573825994e-02,2.100015309894465512e-02,2.588833878785117004e-02,1.164109548223949721e-03,2.705530983073160464e-04,2.441082486383945593e-02,1.410482673390403216e-02,-2.435853299985788270e-02,6.516981751291587785e-03,2.829699343948107945e-02,-4.587099588072206940e-02,2.666710019807167625e-02,-1.400925011813374151e-02,8.048308001484536997e-03,-1.303496749040108753e-02,-1.889423972610300081e-02,-1.602686511732503288e-02,-3.498628185051561035e-02,-2.763274501086427498e-02,-4.005008254284484620e-02,1.899861696375573436e-02,-2.317799828382437199e-02,4.132080651859498105e-02,1.452163320534058041e-02,2.279242464137542709e-02,-1.175755602345543958e-02,-4.816762102838672080e-03,-2.202279743941638543e-02,-2.007841654207526833e-02,1.128110167169008374e-02,4.224946980505596243e-03,-2.258837009916502599e-03,2.565843370241149314e-03,-2.460243358673134054e-02,1.924507576795646182e-03,1.721680711668921102e-02,-1.575898829132543755e-02,-1.817567583608028017e-02,9.793360694862345700e-03,-3.211671351379341566e-02,-5.819751431517332027e-03,1.053701555505886026e-02,5.653279548700890222e-02,-1.920778639978950458e-02,4.175852563994558037e-02,-2.808904252366880086e-03,-3.029820024283011708e-03,-3.081107464472130925e-03,1.918885793783467464e-02,-7.789994078831206925e-03,4.645854021522400658e-03,1.041706740563454192e-02,4.823190573758495345e-03,-4.486287051786723608e-03,-7.420598997892505211e-03,3.438863141853648608e-02,5.206392523258399074e-02,9.859372541905086704e-03,-4.434080835945236609e-03,-2.720973110589828409e-02,2.644713264213315387e-02,1.455152010478808714e-03,2.329604591684440035e-02,1.894876965393675616e-02,4.247511961922010616e-03,-3.880633155337070983e-03,8.533815848401123810e-03,-1.060122912672207054e-02,-2.865508489095900529e-02,4.614384901238100661e-03,9.021476926155390721e-03,-6.606758714810085156e-03,2.803451637497495104e-03,-5.261781427660833926e-03,1.930739895139848075e-02,-2.554136906642793647e-03,1.021395306697570407e-02,8.082617384632711371e-03,1.081337034218250726e-02,1.321387054238189022e-02,-2.546593508808663725e-02,-4.404994848558238529e-02,8.823177576430966951e-03,1.264269613228834535e-02,-5.712142025605482058e-04,6.330414391903804033e-03,6.364831449579048950e-03,-2.000989821252986689e-02,1.890815850271239038e-02,-2.337949004850040438e-02,1.334456388192035298e-04,3.261447742667692752e-03,2.201134338933020268e-02,-1.185644916793899238e-02,-3.187525662479202826e-02,6.101208761922158504e-03,-1.010770662794562708e-02,1.113370234930906658e-02,3.146912410977406593e-03,1.308949576947598644e-03,-1.116135698629991575e-02,1.150994240217927470e-02,-1.548097280308148409e-02,5.970058933234049375e-02,1.024228025767515366e-03,2.688375307601991934e-02,-2.981603818960550448e-02,8.038812689578704249e-03,7.697279669578087000e-03,-9.443150270048081968e-03,-1.812738358919550527e-02,3.135271462583728158e-02,4.091601441700798425e-02,6.135162592930214036e-03,-1.174884496013529379e-02,1.736624558114537031e-02,-1.697842853147909364e-02,-3.266761437843067328e-02,-5.639314859096472218e-03,-4.189245740821844269e-03,2.055250553168824768e-02,1.662999832066570927e-02,3.814060670470522177e-03,-2.756064558716569881e-03,3.701558854420093636e-02,-8.536196653423677380e-03,-3.343214166554704658e-02,3.056129053102206797e-02,7.406263292498719425e-03,-3.994152621474981665e-03,-2.797561625151936612e-02,1.285927083829005446e-02,1.009030195874460398e-02,2.280490035533819931e-02,3.008957730476354009e-02,1.693782652891485593e-02,3.141039566747055173e-02,-5.091080661700965286e-03,1.943542689776662363e-02,-4.443240609991294665e-03,1.759048272198415752e-02,-7.042837998471328763e-03,-3.262483908798520515e-02,-1.290838722117159873e-02,-9.596904135829567931e-03,3.345380571045350991e-03,-3.155570258659898264e-02,-7.127951827091397533e-03,2.065443298919013987e-02,-3.405540815970727747e-02,9.111016633089783281e-03,-3.559470321886347454e-04,-3.215039168617989107e-02,-1.071365240795449716e-02,-5.848617618362227273e-03,1.507672637877625552e-02,9.586223142580645694e-04,-9.180717847909110677e-03,8.195605860503361179e-03,-4.227634420606526250e-03,-1.203523708085322327e-03,1.185333093181802078e-02,-2.325444366391878764e-02,4.698462337686277850e-03,-2.701478321114503690e-05,-2.551438639069233613e-02,-1.595787058003725681e-02,-1.566131431347024885e-02,1.792095340070638809e-02,-1.486340420510537733e-02,-1.430626071218625908e-02,1.209770518968613685e-02,-1.759959758526355791e-02,1.715085469760996642e-02,-7.024529929993474434e-03,-2.321225235790096500e-02,9.713841211983414298e-03,2.608773935309037506e-02,3.879071423286709064e-02,1.767866773892047549e-02,1.676256322663666198e-02,-1.958211183846558096e-02,8.738429214439215331e-03,-2.402061739752173880e-02,2.671258927056943070e-03,-2.148894322575682983e-02,1.065289971364680351e-02,-9.317787035674927540e-04,-6.841168615565265329e-03,2.535949884907865316e-03,-8.930737033791495000e-03,-3.596188937998905100e-02,-1.655286506829930712e-02,-1.727922475798132282e-02,2.745344493099196800e-02,-5.544870882978406024e-03,2.731000198201612855e-02,-6.426811639772185038e-03,2.243647921954916233e-02,1.870748784164283363e-02,-4.283040791031002964e-03,2.131698631702106522e-02,-9.294599871187232340e-03,2.718795195836903184e-02,3.652538274503817559e-03,-2.073900693105806825e-02,-3.434876945274539968e-03,1.354068498071271448e-03,8.321794014376503873e-03,-3.061140899161687856e-02,1.390388687488507136e-02,-9.842588906853909012e-03,-6.605946803867868665e-04,-1.801538605950584598e-02,2.889500702297349843e-02,7.532469970829184375e-03,-1.283966733611201227e-02,-1.411068093961616310e-02,4.432152532424166180e-02,3.676815545969556835e-03,-1.487035086024423268e-02,-2.137844335127735834e-02,2.309398882336644379e-02,-4.597859786289230054e-03,-8.118988801691056148e-03,1.146640833525000916e-02,4.281844699833495770e-03,1.470202143296029176e-02,2.483684733859606308e-02,-1.635891683504553731e-02,-1.515804227515143467e-02,5.591107591127510330e-03,-8.278193896578233194e-03,-6.043353047441309134e-03,1.903195381109020617e-02,1.696239799288040695e-02,-1.180968188333589297e-02,9.913253896350272126e-03,-1.544166365745421390e-02,-4.938790851941057825e-02,-9.835087399044184150e-03,-8.330749237378373608e-04,2.372711564553394228e-02,-3.385807894100680698e-02,5.161743186051327703e-02,3.575907515116682946e-03,-3.868891072958505206e-02,-3.692691856106204273e-03,2.127358720038533685e-02,-1.965435631112358653e-02,-1.608350530030752679e-02,-5.370924348936080561e-03,-1.061719735221025064e-02,-2.480547699520195895e-02,3.697998091512132157e-02,-1.117550626331348688e-03,-4.181311048865787167e-02,-7.206689220166716953e-03,-1.596398859785322019e-02,-1.446944299096128601e-02,-4.965124549532276034e-03,-6.019282902724356135e-03,-7.724530522014797125e-03,5.194727900619631501e-03,-5.110002620619378405e-02,-1.898754961940704502e-03,-3.009004916734884377e-02,-2.113607538174682582e-02,-5.364935883851727413e-03,3.560340560531879538e-03,1.537169669639480707e-02,-1.205972614488981694e-02,1.330015350253959186e-02,5.721653370447952330e-02,2.880368958043606417e-02,-1.929018689995272082e-02,-2.686973242494564151e-02,2.289720037330503569e-02,-2.521863181346085947e-02,-1.329935056488086055e-02,8.655355540715163609e-03,2.055185456182446156e-04,-1.293723239635186789e-02,-4.434338082104932743e-02,-2.122462375333838969e-02,-3.709880873254042810e-02,2.159282352262553977e-03,1.418357238213536348e-02,9.378268866393577041e-03,-1.371721806009639638e-02,-1.978092599204067312e-02,-2.564297234561879052e-02,2.641597146163674349e-03,3.192244508436571648e-02,-4.920027731180437805e-03,-4.035678041948485492e-03,-1.058809794811868890e-02,-1.320192111074082420e-03,-7.872899925117872108e-03,-1.584852562777760467e-03,8.583570860255962387e-03,-5.426630252158198137e-02,-2.786122822114648831e-02,1.597061665348107652e-03,-2.216295334049744534e-02,-9.147590513508373558e-03,-1.401784773260264516e-02,1.156606092187832668e-02,-2.216663139406343727e-02,8.443064724724060402e-03,1.243466842201635877e-02,-3.528116249369609575e-02,2.343153660655481266e-02,3.756790901478920808e-02,4.282438476354371443e-02,-4.816021100463363513e-03,3.301607929845081380e-03,1.285878269654569701e-02,1.716461564194607728e-02,1.302759560067054921e-02,-4.047749303727471437e-02,2.163612313218006306e-03,-1.952706055073814492e-02,4.722429643247377448e-03,-3.967148366371513885e-02,-1.055136749649376350e-02,1.951830968828357701e-02,1.564373623841821062e-02,-4.355333421983645370e-03,-1.122544421401582178e-02,3.441623888225884415e-02,2.572599738210082712e-02,-5.386284184565187649e-03,5.050692740794108203e-03,-1.842778767310463209e-02,-4.370254273653722578e-03,1.402748399249723228e-02,3.023482348338815684e-02,-1.703400589398016210e-02,6.170359260645039666e-03,4.378410474951078407e-02,4.273183264882991772e-02,2.518410934477910770e-02,5.770693313513646817e-04,2.221097836689942678e-02,-2.094992907518394148e-02,4.891376455199105550e-02,1.843196848254809520e-02,2.748810721373599539e-02,-1.389713799218950455e-02,-9.890287615444663324e-03,2.341015356095179929e-03,3.292993024120119405e-02,-1.240798110822902839e-02,-2.105278887040097635e-02,1.568031565602473476e-02,-2.294537879656308871e-02,6.422907114679675747e-03,6.300181259300438076e-03,-3.380267844721956960e-02,1.794006105932615530e-02,-8.178862693868487257e-03,-8.887120917536149578e-03,-1.792991646477538892e-03,-4.374994211069633664e-04,1.994332835820631158e-02,-2.063499948761099434e-02,5.453462078748677784e-03,1.446846179876891056e-03,-4.667035892948377500e-03,-3.126076481648307204e-02,1.386252819465805600e-02,6.855219735529339761e-03,6.945802654612320132e-03,-4.356699900622830446e-04,1.890872514181280231e-02,3.152917730097266891e-02,2.450228393363064819e-02,6.011552741709721287e-03,2.231017809953844688e-02,4.381310354544055985e-02,1.100690199056642568e-03,-8.601751023103136953e-03,-1.727134745272190797e-02,8.119777251129604856e-03,1.307018794608517769e-02,-2.340383445979356616e-02,-1.459151328570239443e-02,-2.647165735310755968e-02,3.162465226398911144e-02,1.696805589723948335e-02,-2.833079060035662358e-02,1.087901078851528577e-02,2.484418282630567604e-02,-1.279581567358243493e-02,-2.513341568287569619e-02,-3.741042014649685610e-02,3.546149281819922609e-04,-4.228883200678996979e-03,-3.264682330815641548e-02,-3.522855386778824677e-02,-1.504564012959812291e-02,-3.451809057090453325e-02,-2.298193502825621876e-02,-1.159763248949751899e-02,2.378318406269773499e-04,-1.519498273852220097e-02,1.759461088842655119e-02,-9.421322352916046416e-03,1.688793681321673970e-02,3.250917909560764683e-03,-3.226821038769474336e-04,-3.890551990889812989e-02,-3.692531450341129950e-02,3.501902980308208013e-02,-2.035723688658778660e-02,-9.709340863195185800e-03,7.345037957047728834e-03,3.784858309753616739e-03,2.270365764870910241e-02,-3.264980267697184524e-02,2.053048082408481757e-04,1.194991366154927147e-02,2.674879074357165015e-02,1.084129488503903296e-02,-3.261399461433833746e-02,1.464186822929950185e-02,-9.011919616590774278e-04,8.468647624175139679e-03,9.522658070573061101e-03,4.811521937520043396e-02,-8.638977644739004313e-03,9.176362486041419325e-03,-1.791718524561548842e-02,3.066750268826612738e-02,-4.568751296415575480e-02,-3.228879486722881914e-02,1.431940421150887030e-02,-2.452892620017440434e-02,4.424243986605617962e-02,-1.891438583916519797e-02,1.133592619024615701e-02,-6.484454785559191220e-03,-5.459466625757046498e-03,-5.376339460851939020e-03,4.637230496895588909e-03,-1.876250320436080934e-02,1.557599476915422568e-02,-2.014129589496263181e-02,3.213443198518559779e-02,2.459138279738532634e-02,3.473953879531058338e-03,4.060233462834297695e-03,1.646622673714355500e-02,-4.396629670709468335e-02,6.717761855574088184e-03,-1.607761430550918788e-02,1.288260259234428814e-02,-3.431649258844637201e-02,-2.701617023237305390e-02,-1.916219486080917786e-02,-1.408278013245353733e-02,6.889916482964813377e-03,-1.756436943081914753e-02,-1.434036018340525270e-02,-3.344020859158963223e-03,2.000546694380709364e-03,-2.404814500529605867e-02,-2.713964499980031295e-02,5.516094103904709521e-03,-1.975872390492162262e-02,-6.238435148147893766e-03,-4.459746974701980088e-02,-2.679258676298628544e-03,1.660599403137250421e-02,3.265116257993977422e-02,-6.110017892533224117e-03,3.006867116816745039e-02,1.206807560980696810e-02,3.407107136866439207e-02,-1.799596755728407119e-02,-2.120796470149106244e-02,1.109149837541526656e-02,-1.741108853350037660e-03,5.487984646951786852e-03,-1.027971128626033182e-02,-4.104378032276386097e-03,1.499289093155098222e-02,-9.660829322127827135e-03,-5.538579478517091474e-03,-6.527938967844223658e-03,-3.029409542096121385e-02,1.428136891191649632e-02,-2.944326324656413099e-02,4.615260825055704681e-03,-1.590306827213552529e-02,-5.302560018420787898e-03,-1.101095505466054801e-02,7.811550103350222915e-03,-1.760814720812766895e-02,-1.536683456582797758e-02,2.771511387597849763e-02,-8.440487963475056671e-03,6.618680798771648700e-03,8.279285334526376161e-03,2.794996397627473941e-02,2.768708963272890552e-02,1.135432171065564426e-02,-9.780051182388406136e-03,3.342969373071404821e-02,1.627063249818421278e-02,2.209044786200773866e-02,-2.524919419413813870e-02,-3.271523212951968698e-03,4.297469123351913695e-03,-4.476469497423648386e-02,2.747637663828534499e-02,-2.481115566527083288e-02,4.591017035897091911e-03,-2.617400239852336191e-02,3.145134760675389490e-04,2.530342090910961579e-03,4.257655830937653874e-02,4.128754725256603142e-02,-3.113203505318494838e-02,7.851579559383396398e-03,-4.651788095599068695e-02,-1.113033087180840923e-02,3.693234006194554692e-02,-8.929838997426286368e-03,-4.300045870079745314e-02,-1.412430260990864229e-03,-2.632136460289852958e-02,-7.823202944414154106e-03,-3.214905071204960524e-02,1.524120770632529306e-02,2.576390171222422976e-02,-5.327331981272662165e-02,3.544481576567252989e-02,-2.251774276614918607e-02,-1.047827679904542696e-03,1.229826509023843918e-02,1.660724592545617315e-02,1.093708465834753417e-02,-3.064649368890539835e-02,-1.303329106721763143e-02,-4.823677277286928834e-03,-3.670620840752823050e-02,-8.700857413809860719e-03,8.855927603098400630e-03,-4.440600512407753137e-02,4.785176995344360418e-02,-3.802374571209695721e-03,-2.249968367143732537e-02,-3.046553120725621275e-02,2.390916456139203020e-02,-1.689607653563322126e-02,-1.834051577796423638e-02,2.673586979303350583e-02,-1.913048657707392547e-02,-1.079985395680148688e-03,2.324741802280986744e-02,-2.712652489810972109e-02,2.888769754990338709e-02,-8.270929790879092899e-03,1.992498975175976614e-02,1.315272694625594860e-02,-2.734716405932870881e-02,1.986111777922047045e-02,-2.229580902529548075e-02,2.020535785755894070e-02,-2.543346031672684068e-02,1.129495883420204502e-03,-2.229032614421393513e-02,4.828089306274057496e-02,2.511693033816673332e-02,-1.804428267921551199e-02,8.996224620659309685e-04,3.275547920917474404e-02,-1.286778875637554359e-02,1.176801413704572224e-02,1.793933611870239878e-02,-3.043617961221288179e-02,2.819469496413358998e-03,-3.878765611476039238e-03,2.190657750716961533e-02,-2.134622134713024325e-02,-4.027497987572598026e-02,8.269851222050629558e-03,3.540181272285935869e-03,1.663711253854079260e-03,-2.964398349736220052e-03,-4.531941156498910106e-02,2.403064300240499024e-03,-9.696085923244227717e-03,1.413102676469117809e-02,-9.678684321578051846e-04,-2.434324762740387380e-02,-2.528830719329402954e-02,-4.226578896418135833e-03,-1.461666840536616184e-02,2.501821653841014917e-02,-4.704857539232612518e-02,9.545652891818063798e-03,2.665330870120093815e-02,-4.887747736657479386e-02,-4.443763338818085273e-02,1.709119971681747827e-02,-1.222753122294084442e-02,1.449173097025088612e-02,-1.869671323335733021e-02,-1.165159106960635821e-02,-1.456039182239899071e-03,4.024357122654480950e-02,-2.772319082851157010e-02,-1.789245576805053445e-02,2.534169722473998687e-02,4.048864918638674093e-02,3.509443942181244593e-03,4.353387051120958390e-03,3.398106968446149793e-03,-1.360408091729212350e-02,-2.363887405088356888e-02,3.551065099022842481e-02,1.127221647811299694e-02,-3.177563736265324752e-03,2.601340286341354002e-02,1.437912861591661429e-02,3.558018360620467330e-04,-5.183859351697802688e-03,1.159144430795842548e-02,-1.130704891321121855e-02,-6.905303551120469362e-03,-5.568912614370538465e-03,3.282501614051980873e-03,1.050627277003525831e-02,6.683794597639050941e-03,6.419830749904029132e-03,-3.112761488383169323e-02,3.514566314382819474e-03,3.260443693527766140e-02,-3.478555067683245655e-02,8.841913252349032151e-03,-2.158945539676777187e-02,6.090112137122008149e-03,1.500242488730256507e-03,1.955276617611814358e-02,-2.087683235345809754e-02,2.608287560767525663e-03,6.226365889890214667e-03,6.455261663369192809e-04,-1.367008389674558358e-02,-2.380272258368147653e-02,1.443981771843244437e-02,-7.359719491735734406e-03,-3.611665071772846361e-03,-4.576146381997305869e-03,-1.667853544069126948e-02,-2.298927079878103352e-03,1.521370403166176499e-02,-3.268948340663683279e-03,-8.389554155309016104e-03,-1.360458619628030982e-02,-1.847960113781364072e-02,-1.506368710222130876e-02,-6.121001410792473868e-02,2.398766743290414727e-02,5.724381307332268749e-03,-8.537200707574932670e-03,3.897832604058259955e-03,1.168993963532607289e-02,-1.116946003912245439e-02,1.272705985487914727e-02,-1.506845755007535370e-02,4.206397216041563719e-03,5.947206378249132990e-04,1.896513185115048655e-02,2.945360231886805930e-02,9.971360214473729867e-04,7.959790227223097550e-03,-3.066965746855527739e-02,-3.207403672710324588e-02,2.019052436702114747e-02,-2.434712514170753184e-02,-2.239963903618233040e-02,-3.315479471221883384e-02,-2.123252294019185166e-02,1.314565306448272318e-03,1.517506901507918726e-02,-1.262678102689505227e-02,7.779523141908492763e-03,3.317901961730569151e-03,3.961942015680393336e-02,-2.096695068401369794e-02,1.370650571898859816e-04,-2.383137039760994599e-02,-6.891223303436222469e-03,-4.909363678099046280e-02,4.449491925483415461e-02,-1.505597119625370038e-02,1.880624715500183938e-02,1.200671803625414161e-02,7.232533662341240205e-03,-2.276069584065854717e-02,8.786492085353233075e-03,1.362462616867593859e-02,6.232592504066845895e-03,1.830505853697154614e-02,-3.530379877348327478e-02,-1.509007655563221299e-02,-2.137319321703431627e-03,5.911613460436768164e-03,1.742200685866398743e-02,-6.272669626247968228e-03,9.026516425014862333e-04,5.443879210809234211e-03,-2.546377200927476409e-02,-1.217100420194578564e-02,-9.988334346518797785e-03,1.925300271361640421e-03,1.920006019052325832e-02,-1.445377435146046399e-02,-3.062102684172731543e-02,1.568553747784333374e-02,6.075111614283035255e-03,4.296372502979806107e-02,-1.709728034519781767e-02,-6.478454494492786805e-03,-1.536132529683882642e-03,1.505000709427864285e-02,3.856826318771271189e-02,1.182165694236670360e-02,-3.220992014856264435e-03,-4.130621363213891201e-02,-6.144990800240231199e-04,-7.710264804143131083e-04,1.926954771768540171e-04,1.583402442454780179e-02,-9.919495335140714187e-03,7.934979537449647277e-03,-2.848812057109645010e-02,4.467125460097513649e-03,-2.479307649294629212e-02,-7.647063660222867647e-03,-4.781582361245306778e-02,-1.308936369918518340e-02,2.124443878075560690e-02,-2.277943180811518864e-02,1.691307257539437225e-02,1.023912830816659306e-02,-2.759562683637670905e-02,-3.481265055098283130e-04,-1.809710949895649429e-02,1.123841608647604441e-02,-2.796525427875101028e-02,2.428630825700753520e-04,-8.231119487299523932e-03,-1.751327144088521068e-02,7.081224829635125034e-03,-1.324616960474627424e-02,-3.068931526594719655e-03,1.525683910367022292e-02,-2.230559425387407171e-03,-1.092724026684789140e-03,4.958306653138276968e-03,3.222251329660150284e-05,8.699637577537947669e-03,-3.485367689530453200e-02,-4.239182856131770705e-02,5.898864316568265716e-03,4.366103711890717033e-03,3.441244038078903299e-03,-3.718451351872108061e-03,1.279069576531369733e-02,1.151269304257509932e-04,-3.178708147461033195e-02,2.380578154265751162e-03,8.340349820896666988e-03,-1.083409798237647617e-02,-5.173847880944592963e-03,3.024076610422079744e-02,-1.371766509748272890e-02,-1.107757020559653645e-02,-1.831452245808901352e-03,9.621972460404699945e-03,-2.180613181378019891e-02,3.465362536305016672e-02,-5.261093006646954361e-03,9.319465131820678372e-03,8.373411330896920633e-04,-3.286099366602923590e-03,-6.251690239341402451e-03,1.065748409586693597e-02,-1.773754344824879717e-02,-1.221949648754122771e-02,-2.865191841023358860e-02,-4.870477269318850867e-03,-3.278196245593424651e-02,-1.951476247091869093e-02,-2.442571138020259089e-02,1.303344682337440226e-02,-1.771343225999344332e-03,-1.668007935307798742e-02,1.475525425177028060e-02,-2.936684986530080019e-03,9.016431193189684834e-03,2.124483961233305379e-02,-1.044268380487291432e-02,-1.985640805612479826e-02,2.138666900210608665e-02,6.992626407260429423e-03,1.041140261398483535e-02,-6.519478351444567450e-03,-5.790275415000108172e-03,-2.653153120479104926e-02,-1.954062622645189040e-02,-2.494670321951072186e-03,1.448898009374951709e-02,4.679881266482222892e-03,1.421197788389605247e-02,-1.700865445056473288e-02,4.203834922351256526e-02,-4.887749015940092562e-02,3.985750085010890398e-03,-1.206865693672991638e-02,1.702527890035140587e-02,-6.501419822010485322e-03,-4.684894489172538451e-02,4.612675370290642875e-03,-2.870092851606749484e-02,1.283741570860471963e-02,1.060043002805307819e-02,1.166608851711056077e-02,2.181511776738804045e-03,2.023715753623504116e-02,1.719439220966319931e-02,-1.377245487823095665e-02,1.228045379796904001e-02,9.840408628952988790e-03,1.397171521242472278e-02,-1.898350172407218053e-02,2.380280422474631910e-02,3.426519362428262147e-03,1.015618149375729744e-02,-1.099259353338088302e-02,-1.430872144648936105e-02,-2.287101083704753263e-02,1.529847079212626020e-02,2.077925830811333183e-02,2.649650303717428299e-03,2.536363411944853735e-02,-1.794595864339013427e-02,2.120714656625422023e-02,4.934828647484981040e-03,-8.202139982086560296e-03,8.129011472003913608e-03,-1.541744196608507006e-02,9.921137879855999268e-05,1.753088857688798324e-02,1.381494184535816787e-02,-7.356197233116880917e-03,-4.986354966563863456e-02,1.539669609346852944e-02,-1.953595904307178777e-02,3.701887489155567673e-03,1.706975099299709933e-02,1.538795346101082435e-02,-2.144859114200891106e-02,2.851424682599830451e-02,-1.892851831132488089e-02,-2.671463805493970098e-02,-2.610781428723479153e-02,-7.853315125145329464e-03,-3.442950108571287554e-03,-1.584955448996762037e-02,-1.998265285036638847e-02,1.818848685665135079e-02,-1.827141807072156510e-02,-5.148748945827828077e-02,1.075663302709342281e-02,1.204834146988922449e-03,-3.093321935952223628e-02,-2.656589577603717112e-02,1.473376162198154239e-02,-3.610831290528449065e-03,3.300124835349977498e-02,2.748335129499560395e-02,-4.126106748384418543e-02,-4.862094809512241059e-03,9.366537395304019853e-03,1.145902135648062085e-02,7.492858979917682398e-03,1.553365054913078552e-02,1.175415036009703216e-03,2.414847856280895821e-04,-1.653332677389497555e-03,1.553391041480776426e-02,1.613814655793739325e-02,-1.018079556731064060e-02,-2.289634243647190384e-02,9.291334698844862022e-04,4.760486377383461691e-03,-1.045268682258306946e-03,-3.907032673416026974e-02,-3.004073591104038793e-02,2.868951987389220526e-02,3.697884189050733642e-03,-3.304402332482810501e-03,2.771435996812145544e-02,-4.050360890634431901e-03,3.670313882341509886e-03,-1.302701655375476837e-03,7.494041519003322854e-03,1.169713271877553980e-02,-1.953841349788175419e-02,2.079316533115694449e-02,-3.917383183786690704e-02,2.314013586512551901e-02,-1.812530582497006923e-02,1.179950805513305633e-02,-2.432239577704262135e-02,-1.220312663454082604e-02,8.810965181863418885e-03,-1.276571500673008390e-02,-5.006344885144186491e-03,-3.676671258015006688e-02,-1.538237802196563628e-02,1.781481093613394504e-02,1.873743428047645529e-02,-1.446958787235721154e-02,5.751077638017127250e-03,-3.142019996199364035e-02,1.133857514131431446e-02,1.316246407924062146e-02,1.531190544453307420e-02,3.937038243260822246e-02,-5.572833126486663284e-03,1.996656660532908009e-02,2.054714148965737508e-02,4.569770070696142425e-03,2.979619995976282021e-02,-6.956556700314853008e-03,-2.227026497644258706e-03,-1.140194538520711287e-02,2.007303793600413375e-02,1.720395679365864169e-02,7.286030514484673377e-03,-8.243968226710448113e-03,-2.049399312338418336e-02,-1.718326641139614197e-02,-6.657959174930242786e-03,1.584137462065901211e-02,4.886960857277495608e-03,9.544393624575261276e-03,3.407153400156413131e-02,1.642195107681522492e-03,-1.111522691788605424e-02,-1.276592137264003467e-02,-2.015567406909584552e-02,-2.578455926470967288e-02,-2.991801214603800191e-02,2.521505336626579316e-03,-2.555554785164323994e-02,8.667838141476832611e-03,-1.071084681206178196e-02,-1.342833626675614574e-02,4.514793412430294361e-02,-2.868790800618896061e-02,-2.379030031846630575e-02,3.341367598798593644e-03,-2.160097052422916414e-02,3.721385940584948093e-02,-1.649929830138641834e-02,-1.412760040485164757e-02,1.731064478658551897e-02,-1.634817380782027305e-02,9.925260693248429134e-03,-7.263960070990871029e-03,-4.093545999784096306e-03,4.805044949556662448e-02,-1.835539792520292715e-02,1.746677462123770105e-03,5.877274612496317593e-03,4.186407641497150861e-02,1.638836359199520240e-02,4.756558657777383917e-03,9.293655325110302887e-03,1.551728946025563056e-02,2.742492793957034686e-02,-1.397333079411185869e-02,-3.236000137841699154e-02,-1.513825797497579326e-02,-7.573843947930324755e-03,3.757503739647852919e-02,9.720497080095362452e-03,-1.333481062260523375e-02,-3.658903924245012623e-02,-3.667465391748610942e-02,3.306299244989698016e-02,2.217312633946880510e-02,-1.839301943716498480e-02,-3.108231737784527063e-02,-4.998422775459758667e-03,4.568344102117795347e-03,1.109227939919120963e-02,5.189730183442645660e-03,-1.562040705233789031e-02,-1.659852317539716599e-02,9.086711075375094107e-03,1.889189328456427827e-02,-1.900557772039149218e-02,2.548989400459409152e-02,-8.327683450393174799e-03,-2.298862279741577253e-02,3.388993578731602004e-03,3.666615335661022740e-02,-1.841672631102969637e-02,-1.406334149098841142e-02,-1.337985275907354298e-02,4.019598479783147160e-02,4.054180268249658881e-02,-7.333046843204469104e-03,-4.090395399209094396e-02,2.691843376973578755e-02,1.504725507650936725e-02,3.055565840401425898e-02,-1.640516695227994121e-02,3.895857862726403997e-02,6.744357366975153693e-03,-2.235791481035523040e-02,8.762373650891427945e-03,1.722479843770016728e-02,-1.620043748875829581e-02,6.962779840666021708e-03,2.496029146642640695e-02,1.415714250882176874e-02,1.771090158966226111e-02,-2.155088007678112108e-02,-1.376489022589508400e-02,3.037565092977782127e-02,4.890631568947608095e-03,-3.530937394373115379e-03,6.068068057907785584e-03,2.747453559978268317e-02,-1.458301276294314032e-02,3.473264720999702515e-02,-2.955068727091420683e-02,-1.299524944097735051e-02,2.423388769190456052e-02,1.550008465704653948e-03,-1.000570900074671150e-02,-4.472806868172865546e-02,1.797384880682935046e-02,-6.874032478268756602e-03,-1.493968616563326295e-02,2.304426866668124116e-02,2.227755314589858170e-03,2.061732577006374079e-02,8.849786420367421538e-03,-2.910865097153624882e-03,-1.584495338531290848e-02,-3.822409150627979844e-03,-1.134337977531952105e-03,3.427175612143242706e-02,1.741304602362335127e-02,1.357542106028985542e-02,-1.576579326121730490e-02,1.738195828719480210e-02,-1.564223322609347225e-02,2.075544415639288959e-02,-3.913751824655996997e-02,-3.104048051036467030e-03,-4.288645107203208767e-02,-6.902917118439141908e-03,2.585428832686908433e-03,1.770802709359186114e-02,-5.165882315186518491e-03,-9.614330025829285684e-03,-2.661645717112179690e-02,-1.580764485226633306e-02,-7.616978158684229762e-03,-1.055946769744259099e-03,1.396971317919835746e-02,-3.378081795809030879e-03,-4.199842009962241607e-02,-1.367497263031996427e-03,-1.679079719698188620e-03,4.249589980134835070e-03,-2.037355323185776560e-03,-1.969708109044394917e-02,9.133069361333366609e-03,2.201059743603783411e-02,1.405192690028908564e-02,1.167210415551574003e-02,-8.434109103361658172e-03,-1.208454029314698364e-02,-2.087408646123899494e-02,-4.130389275354895418e-02,-9.624308855702774085e-03,-3.034963857434853918e-02,-1.355343872844905206e-02,4.301877866518720450e-02,-1.993909404546887268e-02,1.549847295528617927e-02,7.690022985042904366e-03,-1.483580445458124869e-02,-2.782452325306849529e-03,-7.134731812708431861e-03,-1.634695730682173692e-02,-2.081073966951234311e-02,-2.213591988747603753e-02,-6.131984575285675046e-03,7.355064693651556032e-03,1.237360563291796389e-02,-1.833140516818537865e-03,-1.827532594133676053e-02,-1.824416642508245798e-02,-3.584926299556269111e-03,3.382720938948426473e-03,8.786052454646500059e-03,1.932621804908306665e-02,1.668901778316117177e-02,-2.848025916381233605e-03,6.873966924121673039e-02,2.162097879300816858e-02,3.565180182830426231e-02,-2.306201517498250586e-02,2.038544019893768697e-03,-1.902213276156027380e-02,2.133068168069196177e-02,-8.025701242313948089e-03,-1.001882711746466051e-02,-1.153056321685518026e-02,1.731214707553397399e-03,-5.390810175173742919e-03,-4.838295580407438179e-02,-9.067987918106033482e-03,-2.278507978227664382e-04,8.517801107257527704e-03,1.987676678419132009e-02,-3.055520890447124393e-03,1.124807120857564124e-02,4.138962775131072025e-02,1.157671218273417790e-02,1.997429925065500808e-02,-2.207309746797878058e-02,-2.446674319395635011e-02,-9.074887078081311396e-04,1.839956053863736835e-04,1.443633933860122634e-02,-5.037223301983936169e-02,-1.027019999910658114e-02,2.836946072404577732e-02,-9.523475310350330500e-03,1.643856165526639407e-02,3.609517687864102937e-03,2.048277051468457011e-02,-4.170512882162756563e-02,8.260240776115684164e-03,-4.026249781385203910e-03,5.389016424856627255e-03,-4.959074096499547883e-03,2.519374156377216650e-02,6.925721560730559341e-03,-3.083113442024286097e-02,-1.518693716428014436e-02,-9.865101559418743352e-03,3.136394118747985738e-02,1.891812429028820464e-02,-3.088413380078076226e-02,-5.081128819050344941e-02,4.182599912461094221e-02,7.819679469861376755e-03,2.877308250898670192e-02,4.220808450323485471e-03,-1.129800514786725128e-02,-4.325831368019755763e-03,-4.549361071509846685e-03,1.455016486711002699e-02,1.667436483271997685e-02,-3.542940883207478658e-02,-3.318558192897022585e-02,2.231151062326650579e-03,-3.108170441742316367e-02,4.240977476577638405e-03,-1.286392531501687544e-02,-2.883694707159016948e-02,1.220956700027692014e-02,2.962425057019187069e-02,-4.528059502859331509e-02,6.975387897916389239e-03,-9.239056677193033251e-03,1.093189862554881306e-03,-4.765889767103011904e-02,-1.288706124619075355e-02,1.483265720867170531e-03,3.217411490680820163e-02,1.458810812435826568e-02,1.818187998511475514e-02,2.236384981211932826e-02,-4.547376483792745991e-03,-1.037744713246041908e-02,-3.002005322082355182e-02,4.703088838537451515e-03,4.355545407730369856e-02,-3.318374776329745517e-03,8.980497325650258975e-03,-1.189762437062005622e-02,8.776957137476542464e-03,-2.022066554349912296e-02,6.382408231780682326e-03,3.811326019374819407e-02,1.628608677641355668e-02,8.051740737613014010e-03,6.721068251727213907e-03,-4.605057320496112189e-02,3.550560278921609247e-03,2.972141193998628639e-02,-4.288926847312334034e-02,-1.856962552369649348e-03,-2.322672750705175732e-02,2.334628955697146038e-03,9.357170240452639077e-04,-4.568511081520534173e-02,1.749155071741553477e-02,-2.746209797164796303e-03,1.829341745999895491e-02,-8.676583437275654787e-03,-1.806943312420770248e-02,-9.621099390883141103e-03,-1.133247388362327961e-02,-2.918763088687756357e-03,2.033938149114993682e-02,4.779596598693264947e-02,-2.842974342641627593e-03,-9.889900316879238207e-03,-2.321429692551714441e-02,2.902948610283056369e-02,2.884638664178438075e-03,8.082082687196220916e-03,-1.844641279027937550e-02,8.236589921576817352e-03,-1.905624521594061205e-02,2.083923213450420905e-02,2.797587240577328188e-02,2.088908631016198406e-02,-2.087894627006574647e-02,-5.984828791464666788e-04,1.244915441585980019e-02,-1.201481741813093147e-02,4.020776913744818215e-02,5.745504633706490297e-03,1.294334467840922015e-02,-4.095343556704617721e-03,-1.668195833959117396e-03,3.835088725960231226e-04,-7.451098642401584801e-04,-2.199216654404234986e-02,4.277823540990550143e-03,3.210075624290755630e-02,-1.309575991507544793e-02,8.288988997990508548e-03,1.157723454106332137e-02,7.396380143494533238e-03,-1.838117789047869280e-02,1.890440363736682616e-02,-2.143458705919423779e-02,1.245596404324058985e-02,-1.922804670461661196e-03,-2.516380103161133114e-02,-1.885879342735085826e-02,-1.618072352836243122e-02,-2.245988550948932808e-02,-8.072291823555656498e-03,-2.853060381748866517e-02,2.982064713709853265e-02,-6.586056841627321509e-03,1.727370803840392677e-03,-1.776177065681657646e-02,-1.005952457264285699e-02,-1.027478125547701820e-02,-1.151278054046181963e-03,6.311246887470425837e-02,-4.144829869418798635e-02,4.827294295110554773e-02,6.387354994851046630e-02,-3.046907885195203770e-03,-3.857348180576271324e-02,1.411010618194400920e-02,8.554350401294022813e-03,-2.004280939616963700e-02,7.010033868760381058e-04,1.746714599056138628e-02,-2.809364826479646832e-03,-2.832862075580923344e-02,-1.961171004048759686e-02,1.792816289777413681e-03,-3.020562446583336183e-02,5.063062655778992859e-04,-2.222593504836721523e-02,2.938980907571452778e-03,-4.192642655080336400e-02,-1.197045876178083265e-02,7.351876752589143159e-03,9.681801630985411786e-03,-2.901250055021568908e-02,-2.987506765135740372e-03,-1.621082879422020354e-02,-2.881727738044314192e-03,2.144880656504678448e-02,-5.117913319978145519e-03,7.433543194471900310e-03,2.396165975283975208e-02,-2.641168109630821076e-02,-1.779665796695609897e-02,1.024218661704102799e-02,3.589175376343588242e-02,7.047540064071125716e-03,-5.095713552955035905e-03,2.890529408900111442e-03,4.629310269549785466e-03,-4.033774998694714120e-02,1.875116458423663202e-02,2.214432011485774690e-02,-3.581061433130122706e-02,-1.770506023495215311e-02,1.535447693971654474e-02,-2.622819447544398868e-05,8.376681442147754578e-03,-2.937267331509769205e-03,-1.974305344213928178e-03,-6.019983051296844828e-03,2.233425496040141942e-02,-8.423105458159432443e-03,2.798710404256330928e-02,-1.017421127904205060e-02,6.854595004999147756e-02,-2.069547425590197512e-02,1.084671909946583086e-02,8.727619527804853687e-04,2.463343966258968801e-02,3.975126047115417303e-03,-8.076995310886132817e-03,-6.368961346805919292e-03,-2.839048970709399586e-02,1.155454061923941872e-02,-1.684046661965376765e-02,-2.466895583282492817e-03,-3.835640241247508919e-03,3.356857523641405827e-02,1.936446123786015119e-02,2.991820051634957317e-02,8.170390710226946296e-03,-3.004364747948815029e-02,2.307409192339807125e-02,1.663941782828012167e-02,1.986683999248754079e-02,8.438471338440811306e-03,2.272978030939481683e-02,-1.285682197848737190e-02,-3.036156373125186922e-02,-3.817349007168976960e-02,1.082359703614341716e-02,3.462565311231195243e-03,-2.237762581360571573e-03,8.467261050449436527e-03,-1.038352285600017098e-02,-3.452089736612060783e-02,-1.770896213892212551e-02,-4.628556165933728900e-02,4.320895988865910975e-02,-6.863999986556835325e-03,3.194840769855317869e-02,2.720905621513345155e-02,3.182284238463917083e-03,1.606143937674593767e-03,-7.856280778207174256e-03,3.531648350406980247e-02,2.950913404242769267e-02,-2.742397760941327894e-02,-3.727437587405263431e-02,2.036976375317854637e-02,-2.456132620060933608e-02,-1.058704473003477427e-02,1.372330708535366046e-02,-5.021236271250284489e-03,2.628562358690682277e-03,4.315355984849852250e-02,-3.402489837416921431e-02,-1.420104742880851957e-02,2.223411760665526451e-03,5.551543549765554190e-03,-6.383400897491489992e-03,-3.774680352971553771e-02,6.823220539129431703e-03,-2.345145983960146736e-03,6.136175021205293387e-03,5.259460305143405859e-03,2.040944835617475653e-02,1.107070564197755631e-02,3.264775042082171397e-02,2.148432326283952060e-02,-3.011513092444868811e-02,5.844951867876421736e-02,-4.652149515405821709e-03,2.642778624468018062e-02,2.224980750128785142e-02,-6.506018563030204621e-03,2.453031662759461076e-03,-1.835534509358078062e-02,2.424642798347895548e-02,-6.376890409637149364e-04,2.539708895835112584e-02,1.085288097077030320e-02,-1.223340146223254356e-02,-3.468060259773819883e-03,2.720882520236021437e-02,-1.281210385929931750e-02,-3.793776164452138111e-02,2.220622487630779379e-02,2.391379404877132936e-02,-8.232195494324599794e-03,1.047429954476523407e-02,-1.940481420386877195e-02,-2.311406641625539035e-02,3.517060599012852579e-03,-1.460086328445778583e-02,-2.513593849746601286e-02,-5.518626007576818947e-03,1.408596615481637858e-02,2.718353962972028248e-02,6.932368520524681901e-03,2.483951850266429007e-02,2.609658176220187517e-02,-2.837779629058191644e-02,-2.361974187347547910e-02,-1.130963966924197067e-02,-4.013639049696644638e-03,-1.347352046928402235e-02,1.266243823710854616e-02,-6.012472723580184961e-03,4.258614882607222873e-02,7.967907509433451788e-03,1.735730165761936380e-02,1.570028608036775838e-02,6.968010250643220764e-03,4.180343945790615523e-02,-1.784373785739281487e-02,-1.129848126288124886e-02,-9.675322581094127766e-03,-8.669667094011599545e-03,1.574478132139012915e-02,-1.410616459635458293e-02,2.038821049292203688e-02,-1.727290170696775540e-02,3.086544345870587125e-02,-1.410938613280331329e-02,-5.199161633805780315e-03,9.440891009664350783e-03,2.388355899275973124e-03,1.428121393061483439e-02,2.390035544447361923e-02,-5.912746488936682782e-03,2.975793285436382357e-02,-2.770022161704036381e-02,-2.450454723440391794e-02,8.679034922386518261e-03,-3.503297163218216555e-03,2.384503929475148901e-02,7.113806906307343705e-03,2.678813414309069371e-02,1.295758412727746230e-02,-1.640325542266631020e-02,-1.340530297955656869e-02,-5.163839713330200393e-03,-2.288647786807425019e-02,1.364671274191762811e-02,-2.056722371785189504e-02,8.854778707903835158e-03,-1.280206482704478003e-02,-2.204994662429276414e-02,-7.795664798688387888e-03,-9.242770594084404046e-03,5.000274833911359795e-02,2.657011617977406842e-02,-2.816200439253564378e-02,-1.421513201219331462e-03,5.538751091233970643e-03,-1.027674141373194523e-03,1.554788538539183564e-02,1.067820123709163106e-02,3.991922131841969812e-02,1.202086449561943007e-03,-2.569483808157640298e-02,2.080045509561845654e-02,-1.942725593483187949e-02,1.399141845643079099e-02,-3.285976039671527349e-02,1.580764337659932434e-02,3.494648789709168223e-03,5.696214592379568800e-03,4.090582975044351408e-03,-5.430418046397391361e-03,1.948915332473179262e-05,1.770439215656710585e-02,-2.157217098872981492e-02,-2.401587641753840166e-02,1.797565576883984953e-02,-4.571754445701632641e-03,1.025355525578162084e-03,1.069672314945387982e-02,7.592864039127835904e-03,-2.203382362567486014e-02,-1.522715232930391648e-02,-1.289021977144298552e-02,8.995884925954239497e-03,-2.386396850709399456e-02,2.096175360257905920e-02,3.961340834561324215e-02,-4.784915855675528525e-03,3.850412911276455269e-02,-6.190986575000168891e-03,-4.059150964202564230e-03,-2.033145380869732718e-02,-1.717784493470121340e-02,-3.977428227039360442e-02,-3.356009977174273518e-02,1.961749601760859503e-03,6.715653270548254186e-03,-7.060797766744304933e-03,2.083315003984775177e-02,-3.911260995949013969e-03,-1.384712050332217483e-02,-1.195030199675574910e-02,9.643184268749958876e-03,-2.585670142301687777e-03,1.103706993686308542e-02,-2.398125999406616748e-02,2.473451777549427397e-03,-1.119969418292930848e-02,-2.713838434268563138e-02,1.239182170022381027e-02,-1.044341825608324954e-02,-4.975730307571685392e-03,-2.131819026624514127e-02,-1.304306244917430128e-02,1.885045780502168922e-02,-1.636611421061452340e-02,1.153895861300786863e-02,-7.416422856514777277e-03,1.370294408969153013e-02,4.043852816586487875e-02,-1.386205286022212371e-04,-3.424577866861866493e-02,7.500394399745843703e-03,-7.459679323387698874e-03,-2.472726355574186505e-02,-9.616879292180291515e-05,1.150828631079490148e-02,6.386952015758080164e-03,-1.462915097021634005e-02,-1.206990574852499602e-02,-2.968583273921199597e-02,-1.833012166067846463e-02,-3.119667870695122785e-03,1.037268429115339660e-02,-1.719937685579122711e-03,1.517173922397322891e-02,-2.656527983500976686e-02,-2.124091382870187464e-02,-4.033339785612356093e-02,2.906039453858983920e-02,3.161463192439747244e-02,-1.864188804085831902e-02,2.780719089644186071e-02,-1.483957339350487625e-02,-8.785931037084096507e-03,-1.944796220281085064e-02,-1.099468734324402300e-02,5.387122288955764095e-03,1.909882962340708409e-02,5.398946949276698434e-04,-2.506223512791189850e-02,3.531517813400825850e-02,-4.390443567188361679e-02,3.142136574391652531e-03,-4.158628878305407721e-03,6.707218266492555488e-03,4.410080902902891592e-02,-1.643979842729870883e-02,1.605847969848916978e-02,1.164000911195823239e-02,-2.739296496407326795e-02,1.654762108717351687e-02,8.541342801539614574e-03,-4.720138366950087962e-03,1.421736242229558293e-03,1.147374093768568568e-02,-1.637865222874754917e-02,-2.029980534238415985e-02,1.720277594480097358e-02,9.097106098570674829e-03,2.511283817662109813e-02,-2.174729513651995835e-02,-8.294907103390007294e-03,1.090005494860273386e-02,2.368987130736062777e-02,-1.332380259929239613e-02,6.044105526013467296e-03,5.782665015630678376e-03,1.080112418330747732e-02,3.040302685331051566e-02,1.188080651983849587e-02,-3.584869234678089104e-03,1.109481631012725240e-02,-3.915713105550291950e-03,-2.411593072275354521e-02,-2.875635329151581682e-02,2.076524953880572177e-02,-3.433214444357572670e-02,-5.451508635710158000e-04,9.382393378134651352e-03,-6.791239456311937150e-03,-2.132357973010008678e-02,-6.461320276361589860e-04,-7.829430073475782820e-03,2.325070582275379563e-02,2.644135111950033376e-04,3.171633527536436153e-02,7.029676783931349850e-03,8.561436778038939224e-03,-3.061496420844011385e-02,-9.514907296990716273e-03,9.809545908640514636e-03,4.616444664520630292e-02,-9.572951380594101056e-03,1.171051863594001902e-02,-3.878498369522852263e-02,7.766118638293182004e-03,4.769838418704392541e-03,-1.753418179310331851e-02,-1.590562143149152697e-03,1.532970798606937170e-02,2.147825985343083943e-02,8.747240702644797907e-05,1.099893393377005153e-02,4.209373487195761901e-04,-1.004524852059268322e-02,2.030572417267456978e-02,-1.329170362656526688e-02,1.068021734780983528e-02,3.092972473584205614e-02,2.395275811485356871e-03,-1.354498305817042857e-02,-1.067980646685705651e-02,5.310948733485660678e-04,5.616658138100695009e-03,2.712117933854515245e-02,-2.214188594454710377e-02,1.046440833938625014e-03,-6.951490231358084006e-03,2.178693216494100721e-02,-2.586492677949265087e-02,-1.431705535751353134e-02,-2.151852943952890784e-02,-2.886317931916595331e-03,8.415025621101945505e-03,-1.414641919934855538e-02,-7.633576387901089277e-03,-2.114560868345813707e-02,7.633501533009519335e-03,-2.810394734108664916e-02,-9.378527729861921985e-03,-1.889591424365821837e-02,-3.334768054368565313e-03,3.224004430651632169e-02,-5.293894394651484092e-02,-1.289657454970024285e-02,1.482606813125275994e-02,-1.843284824511005546e-02,1.901097708521292881e-03,7.663092015141283013e-03,7.691536024732385964e-03,4.903841533403674458e-02,-1.654575684593626375e-02,-2.472850641982878364e-02,1.740866449916508851e-02,-1.605728862690292136e-02,2.219158188517659364e-02,-1.986273699962268213e-02,3.912151513639550854e-02,3.090559349983141961e-03,-1.506639168452469750e-02,3.191847561737448657e-02,-6.815208416017263723e-03,1.504668717549833418e-02,-8.381674007375902388e-03,-3.742375045590808080e-02,-4.795156267039548531e-03,-2.805807539571154516e-02,1.227058822854957230e-02,1.487903462714310239e-02,5.832406010471660046e-03,1.147274817691750458e-02,4.392684132325974655e-02,-1.214290346637936745e-02,2.206624939261870016e-03,-2.038093011931326956e-02,2.256107427148855774e-02,-5.608021631954863799e-03,-2.686983500416274470e-02,-1.011504599666634800e-03,-1.226886797481490342e-02,-2.828637762041636902e-02,5.159543004704865779e-03,-5.239186582485264726e-03,-2.663147297763703708e-02,1.607227784329579717e-02,-3.191915040945686455e-02,4.440324297455413433e-03,9.329507575070181483e-03,2.910363832919918986e-02,4.630267935760804324e-03,1.096179337186490264e-02,5.106775655280117523e-03,-4.213235224552319517e-03,-5.988495506007191806e-03,1.604477958189815673e-02,-7.459181885081060150e-03,-2.809733349728593330e-02,1.892968772581405876e-02,1.730365724666785981e-02,1.956602475122823717e-02,7.693930530437962517e-03,1.274602183466548230e-02,-2.183835282083504761e-02,2.274907855527711839e-02,-1.708331185578699715e-02,1.991485522167711283e-02,-1.834783731925479847e-02,1.511178639439252763e-02,2.333372457772046188e-02,-3.797918445007434501e-03,-4.813920365245438066e-02,-7.266988088362213213e-04,2.249640065887714008e-02,7.802535273617680362e-04,4.791181011670526957e-02,6.515556460727375127e-03,-1.193154398334518584e-02,-6.588893771216622862e-03,-4.274529855173464510e-02,1.038101653942801079e-02,1.885497308401051092e-02,1.899710751672870068e-02,8.273966259568844503e-03,2.659176516274533095e-02,2.746442904269509946e-02,1.228826941674365271e-02,3.580539600980624845e-03,1.275610130669405898e-04,-3.932408671682281753e-02,3.316451533054138364e-03,-4.303719012067077493e-03,2.869898965321055970e-02,-2.883396696851334845e-02,-1.520909754598795535e-04,2.652007759731416989e-02,4.670560990900946181e-03,-2.071748208897480903e-02,1.519416466858996943e-02,1.427580521565584987e-02,-3.021821457524762056e-02,-1.980957021017421688e-02,-1.347167915354882152e-02,-2.618529519088220667e-02,5.160753112223355477e-02,1.709615659578618552e-02,-3.138212479370361407e-02,-1.245861105916757153e-02,-3.637799876090233066e-03,-9.802403921932198450e-03,5.003263917437150536e-03,-1.217004655670833255e-02,-2.680071918711883841e-02,4.126536447973487565e-02,7.540911408400469661e-03,2.146171512428425923e-02,-5.342059634015536816e-03,8.564678990050603614e-04,1.572440985325340712e-02,1.630446145386946558e-02,2.364633548696800334e-03,7.511108378061940975e-03,2.567258335659946059e-02,1.502803626402818542e-03,2.707282928372455738e-02,-1.337836953286527034e-02,2.086409870350843312e-02,-1.428474134020873282e-02,-2.080243208771670807e-02,-3.136692451888087232e-03,1.538524460805221206e-02,2.833013086131884808e-02,-2.214631800759110994e-02,-2.540797976664831148e-02,-6.236936925967172946e-02,-3.478781024789489164e-04,-6.526671957448165404e-03,4.394995301638330155e-04,4.208465360213943518e-02,8.978769710521510711e-03,2.983035599886545500e-02,-1.553325007267196065e-02,2.574388102092429933e-03,6.559601425377314943e-03,-8.684402809936951628e-04,2.079982591122067279e-02,2.770112011732569351e-02,-1.474678093325831191e-02,-1.122712866118362809e-02,-1.169304442651094731e-03,8.969079987546261373e-03,2.071440670503888002e-03,1.933468497822155019e-02,1.832803851015927035e-02,-6.769332092605270107e-03,-2.076782067941428805e-02,4.244956093030684101e-03,2.937232343668311554e-02,-2.088423621231771249e-02,2.886946850667076320e-02,-1.500768642752419758e-02,3.231688897450787912e-02,-3.648276203633054639e-03,2.541651634249991742e-03,1.799752979756511981e-02,4.746476079527313895e-03,-7.360708495584098593e-03,-1.733797524280461869e-02,-7.832817518851098101e-03,1.059023929127205638e-02,-9.092343346993103648e-03,1.637143232135532256e-02,-1.479446835093882993e-02,-1.270611456956668647e-02,3.137290365411595644e-02,-2.545990024669453344e-02,1.095737362193039289e-03,-1.807688755475981082e-02,2.898100298526364894e-03,-3.205226951414615055e-02,-2.492433796906049284e-02,-1.100322065808685516e-02,1.754164554876930238e-02,-3.087692084941745518e-02,-8.739572534389571795e-03,4.189749739941067697e-02,1.221693955779546044e-03,9.053626915105188189e-03,-2.869733988816806393e-03,2.690275501247718290e-02,-2.089956208804274670e-02,3.685356254425359128e-03,-1.080303765294406311e-02,-1.112315796034189959e-02,7.152867890963141191e-03,-9.595685223328726671e-03,-4.691374453204420064e-02,-6.937465762931415390e-04,1.720201237934110630e-02,9.563063581267332997e-03,-3.128258774959391531e-02,6.621527122095919628e-03,-1.292498116321704783e-02,-3.830682274606442804e-03,4.334744337099626608e-03,1.171938384070865362e-02,-9.176789114196667180e-03,-3.766824263676598478e-02,-6.996883050736676761e-03,-3.455114145308720019e-02,5.738559576009534188e-03,-4.047663475254687122e-03,2.335050953101022383e-02,-1.613375474874548243e-02,-1.178667036975746332e-02,1.078608546596225050e-02,9.189823853585129404e-03,5.035293547999993187e-03,3.185616920300515104e-03,-6.727975779357389143e-03,2.997118770517533028e-03,-4.499315682599791186e-03,-1.880232181862724269e-02,3.249936091908638136e-02,5.853489036050094248e-03,1.421699905641946428e-03,-1.295651773572952838e-02,-5.264984629320638987e-02,-8.151134911079077616e-03,1.179989079738421806e-02,-5.242948222386650814e-02,1.958597001000788804e-02,-1.700937468161849500e-02,9.068769763539782577e-03,1.204003847389562183e-02,1.164173915035607992e-02,9.038760856054012249e-03,9.907027023176997321e-03,3.230669751445318372e-02,9.429928824377271923e-03,2.223037596236530564e-02,-1.722775225935002305e-02,-1.476156035163139237e-02,-2.218065578639557764e-02,-2.223665838337412701e-02,-2.811148547141015946e-02,4.192053414168383889e-03,2.749921494916275633e-02,1.877721039509706218e-03,-1.705508014906294972e-02,8.847751911069640790e-03,1.404032791679105108e-02,2.989521705069873858e-02,-7.789181818710323550e-03,-2.732718711961703434e-02,9.338993005688599192e-03,-9.240943377483424453e-03,4.945758524467226344e-03,-4.994652606818300068e-03,-8.429130764461537431e-03,4.806165818709048215e-02,-8.127473893331673901e-03,-1.387801722108789352e-03,-1.002080164532572447e-02,-8.383414245594298861e-03,-5.000119961807397012e-02,3.381315604421578080e-02,1.669669560732852179e-02,5.857368112098543939e-04,7.466407873338874734e-03,3.474075362979463927e-02,-2.077630047902478960e-02,3.655333518815381127e-02,5.760742326315276829e-02,-1.300333426537124935e-02,1.190660889122365472e-02,5.640470437120585247e-03,1.680371136269246052e-04,-2.337846096391032330e-02,-3.042509630821943131e-02,8.968032374062356524e-03,4.875294883898833448e-02,1.462348790265862938e-02,-2.468558866146153621e-02,-3.728107987164622911e-02,-1.166423836644945970e-02,-3.499318777497519711e-02,-2.118068040326956739e-02,3.832951189265307312e-02,-1.697797943167727750e-03,-2.059671378398833519e-02,-1.523009926068348563e-02,1.053879971716788905e-02,2.420504636194214035e-03,1.723041298639607644e-02,1.478442360377641915e-02,-3.766640032813255504e-03,3.033033040016142740e-02,1.241339369378991440e-02,-3.009919673804848077e-03,9.376021217420498280e-03,1.356279306267654458e-02,-1.123785324266833238e-02,2.061292535237328055e-02,1.218116357633659830e-02,6.238885278596661803e-03,-1.350878597060834949e-02,-7.716108982534280666e-03,-8.171532703823503399e-03,-1.443366561937220243e-03,1.977106877648646122e-02,