-1.072958692633137548e-02,-5.033359116850937703e-02,-4.135825839760201572e-02,-5.470346348570233330e-02,-4.859922578489689338e-02,-5.892531527787115558e-02,-1.877908548827172258e-02,-2.413889940064081752e-02,-5.831475917551362520e-02,-2.009616000904718494e-02,-4.717579468263925421e-03,1.493877205568854179e-02,-3.290347691682699721e-03,-1.976861595160633173e-02,-2.501901123738104610e-02,-3.314432651847947983e-03,2.614614895767673058e-03,-5.299129720731772519e-03,-1.528971733785996351e-02,-7.822973384134773028e-03,-4.486205466058613284e-02,-6.866118210777133642e-03,9.733755556441188450e-03,-2.003283477018009268e-02,-1.235964811183266551e-02,5.501468639241237010e-03,-1.756699879739826581e-02,1.823137360016136022e-02,8.369388131347125191e-04,7.561602067365705629e-03,-1.961004633605231348e-02,4.409231865343522967e-03,2.142501492303878000e-02,-3.596898801869009843e-02,1.617091464050688515e-02,-5.679910159302731243e-02,-1.265759644596052211e-02,-2.931827373644230704e-03,-1.958071567344051717e-02,-3.228334446089490238e-03,1.623933124579566428e-02,-8.819672990633639978e-03,-4.989190340728227174e-02,3.744776242427000357e-03,1.240747104298880847e-02,-8.065422510733003675e-03,-1.227749558828810685e-02,-7.926685904285787898e-03,-4.146938980676986158e-02,-1.552133935883713567e-02,2.587835081596197642e-02,1.215367757728940193e-02,4.370238482833609280e-03,-1.591276543446287078e-02,-1.475070399917234078e-02,5.193626705281182213e-03,-6.114627165675897563e-03,-8.770292178432861213e-03,-1.788464772415075330e-02,4.048278366914791725e-03,-1.816276053008851823e-02,-1.299605322800610578e-02,1.304215455083249618e-02,-4.298031087092543667e-02,6.447270619808990327e-03,-2.854312991904758845e-02,-5.757966615914868885e-02,-2.738944528922488894e-02,-2.421444984914520107e-02,1.106408219356004238e-02,1.516046765229954810e-02,3.998828634753226474e-02,-1.440004935321527110e-02,-1.402890406352781498e-02,-7.420538808211267837e-03,2.696812240410994058e-02,9.922394606273223644e-03,-3.523637573321166186e-03,-2.084045830806860455e-02,3.545922146171939793e-02,-3.565507144003113305e-02,-7.730532855450856881e-03,-8.116328299183281358e-03,1.004080173914827408e-02,-3.003107984119250326e-02,2.269886862469747829e-02,-7.120161573203821065e-03,-2.235351185340565816e-02,-1.375580116953610543e-02,-4.361164322404392519e-04,-1.365111926983132891e-02,1.491413920912365229e-02,-2.173376981488350096e-02,7.279771671080672787e-03,3.779702960030132536e-02,3.759806666600669714e-03,1.740981282970487098e-02,1.454228372468297815e-02,-3.984172556303826329e-02,2.332583255380924619e-02,-6.171960025085224469e-03,1.323246441482734889e-02,1.848901659181848706e-02,6.249680781218731711e-03,9.356485344268054057e-04,-2.828431988916652734e-02,1.325141031447359639e-02,1.780226603422592913e-05,7.534030690102581571e-03,1.757994151669954250e-02,-2.293600637334103354e-02,1.809251400640119606e-02,2.556422067420982200e-02,-7.792840168212936298e-03,-3.690745452843548907e-02,4.034560682976569279e-02,1.160049218456547446e-02,8.037751924482246929e-03,-1.635800528853865402e-03,-1.414939022398873335e-02,-1.566751265407055269e-02,4.918616667626955243e-04,-6.828720588795672954e-04,-9.029875305781901243e-03,-1.995313313130146760e-02,1.207292068916828841e-03,-2.412186414613636323e-02,-3.378130615108680679e-02,-3.043340596123520619e-02,-3.450577368246855736e-02,9.244780640565964172e-03,-1.779489405569310845e-02,1.263963438936115645e-02,5.414576688034446195e-03,3.260684223288652650e-02,1.246122499273825610e-02,1.251964269801837670e-02,-1.333529967223883936e-02,-3.870526313562639570e-02,9.703777480128811944e-03,2.137472101313798653e-02,-1.012798269061183747e-02,-1.198883387118947035e-02,-1.009819614282059415e-02,-1.668588546446771875e-02,2.093721765149198638e-02,-5.458081015215833845e-03,1.271653126477842108e-02,4.852702102468469010e-03,-1.944761623509848672e-02,3.615916531158683278e-02,-6.160810337294209127e-03,-1.780472201720302225e-02,2.650209261956217033e-02,1.142006600746057338e-02,-9.166862058647199524e-03,-2.176665474122779428e-02,-3.115925465937246716e-02,-2.127310198270380634e-02,6.805373467576672671e-03,-1.914038652722223691e-02,1.851706479134372640e-02,-1.056767897191173214e-02,1.492627980688238098e-02,-1.901026950000523838e-02,1.736932875600608354e-03,1.507435386873913008e-04,-4.404957251627943451e-03,-1.841830074377794101e-03,-1.115076218421055462e-02,-4.482932478315564476e-03,3.646485466002073739e-02,3.048115366179470105e-03,2.659148211903590228e-02,2.689009797226107196e-02,9.585300771668598535e-03,2.321870772154056503e-02,8.057814170060325146e-03,-7.255849661521842275e-05,-5.712299556506872378e-03,-1.402557047383875058e-02,-1.833135366046674541e-02,3.742319742307322755e-02,-5.032984716800305422e-04,8.991722422125366515e-05,1.791212772888763072e-02,-5.875002082552006899e-02,5.742025370724167938e-03,3.995560340890688504e-03,1.427233600821104648e-03,-1.281624242523731264e-02,-9.355903185285984955e-03,2.070395688938298298e-02,2.747842450801470798e-02,1.255613461897155461e-02,2.863803249177365642e-03,1.308416722253586545e-03,-5.812904370321988166e-03,-2.377460107399109734e-02,5.079381975727534360e-03,-1.713399892178445530e-02,-3.654943350825723414e-02,-3.937041397700516247e-03,-1.055391680154848383e-02,-7.563518808401114256e-03,-7.234378167297887859e-03,-2.657758706044304961e-02,-1.269095576513457058e-02,-1.408584265049393595e-02,-3.455442098696261816e-02,5.654036451936747878e-03,1.484743858600381938e-02,-5.730837562759046738e-03,-6.020021832258610518e-03,-3.884212329595636108e-03,2.614724531743700849e-03,-2.522585010100358155e-02,-3.418266645173560509e-03,-1.171114362279131009e-02,-2.338429495153290447e-02,-6.049850416501197960e-03,-2.075130287223541856e-02,-1.012880666181324198e-02,1.365209504896920147e-02,3.192904560032416156e-02,-1.217477573167139587e-02,-2.704921896170650250e-02,2.140139702689401041e-02,-2.296377406839994473e-02,4.597462241922373703e-03,-6.949387509523393541e-04,2.058265002109600349e-03,-7.361647595791995409e-03,-2.804435951106357128e-02,1.240894537967365818e-02,-6.253926024342685783e-03,-2.085302797497715771e-02,1.435236583588129101e-03,-1.704164847282502518e-02,4.315954113672908210e-02,9.161878496075508832e-03,-1.996993299699561727e-02,-4.774999183111147162e-03,-1.503191901948889089e-02,-1.984084970568155901e-02,-1.957019399269107826e-02,-7.738467007006208723e-03,4.171066905139696884e-03,-2.658287722061916832e-03,-8.605722816376570189e-03,5.361232022335638177e-03,1.888757261694781059e-02,-1.181012282563898355e-02,2.574965735114047999e-02,2.806252405977004497e-02,-2.084790914850214935e-02,8.109497402682462695e-04,-5.489921265103705518e-03,8.981928007919441279e-03,3.041429698205650248e-02,1.774721315548996245e-02,-1.627377746911787965e-02,1.047221317126719592e-02,2.043594401530102276e-03,3.678248025622785772e-02,1.404672622125098871e-03,-7.121249707599500330e-03,2.719165071215354744e-03,-1.478749530854418272e-03,-2.364732977793393767e-02,-1.197084085237985589e-02,-1.623154205081324061e-02,-2.169031405710198507e-02,-2.367298423250336833e-02,2.754991645964533636e-03,1.293682423882340678e-03,2.644279397608920862e-02,-1.916284492243891871e-02,-1.228579315581093678e-02,-1.077076356197374622e-02,3.190119510950914505e-02,-5.353090675698680620e-03,2.651709300718881751e-02,-5.701178603245870419e-02,-1.900811118326492175e-02,4.399433271896500963e-02,-1.240508221132452862e-02,1.796385817679875194e-02,-1.735091887426431709e-02,-2.830419271490009978e-02,8.727630883111616930e-03,3.668376686916055823e-03,1.858703840624078771e-03,4.309101182845001543e-02,-1.536082398871376972e-02,-2.788080234054247843e-03,2.373652016906400292e-02,2.582099178363813502e-02,-1.328084420495491760e-02,1.264852053668617457e-02,3.745843209207104334e-03,-2.398397429804125652e-02,1.694424471595039686e-02,-5.136780465413556297e-03,-6.733219351941126772e-03,-5.943068209855923573e-03,1.319281430474661398e-02,-3.758434391103115252e-02,3.026909055763512234e-03,-1.355125674023682433e-02,-2.806292140874464686e-02,-1.208361575597070685e-02,-5.016818861753648620e-03,-1.391096033561042920e-03,-2.240895057304179497e-02,3.003338537025283111e-03,-6.128791438060845163e-03,-2.891924111429318781e-02,-2.488924087924256848e-03,3.878293601873269211e-03,-2.266292317958427255e-02,2.531550290000544878e-02,3.268814063729178626e-02,-5.001917265006279589e-02,-3.372844257031242052e-03,-2.541365270605450491e-02,-3.067391035071986502e-02,1.611423063236087916e-02,-6.483339933124878871e-03,-9.045603879074172113e-03,8.578461479150929769e-03,-7.772023808542620309e-03,-3.122461041228400541e-02,-1.059012172858240890e-02,2.386765275172490763e-02,-1.580002841610335731e-03,1.265456629866357381e-02,-4.927150969503135691e-03,-3.404652916116918115e-02,-2.925273874233258117e-02,1.062432347055634191e-02,8.588312336244761924e-03,3.632270588869919437e-02,2.052140293564704704e-02,-2.943203021216397267e-03,2.293552566929153713e-02,-4.593634836757305717e-02,-1.683740991657139974e-02,-1.347943613529312482e-02,-4.734822519692919590e-02,-8.456560114527628602e-05,-2.390757174548208477e-02,-3.199317460586985785e-03,1.628313993684093672e-02,-2.088289042587019445e-02,-1.118884741453259404e-02,1.266195326986174069e-02,-2.616342512887717339e-02,2.463499175697200783e-02,-1.826706752743183096e-03,-3.434669507074081946e-02,-7.574203285596298185e-03,2.264419868334648089e-02,-2.108844056504103476e-02,1.629522538628646114e-02,-1.439521069522252221e-02,-2.115447968070445842e-02,7.191844267689863519e-04,2.170490645167064830e-02,-1.980443909463276350e-02,-3.494368148904938853e-02,8.121640000059684311e-03,1.290391951082106060e-02,5.892688408279586447e-03,1.394365764609206346e-02,-3.226953451768510041e-03,-1.436805837482507502e-02,-8.180033628311961236e-03,2.982335876685190956e-02,-5.948697108882800531e-03,2.942131733329539194e-03,1.031290009215285464e-02,1.969069622575266368e-02,-1.825946433448216374e-02,-8.086000306874296245e-03,-1.727333819595277750e-02,3.077247346521270674e-02,-2.852423004061343040e-03,-1.030754560700120580e-02,2.168745137804278106e-02,-6.690970125381593206e-03,6.995060086235317491e-03,3.193826971639292245e-02,2.487641362009391371e-02,3.381697115290302480e-02,-1.426695873938436249e-02,-1.118273650898922097e-02,3.552404234393864886e-03,7.737485676814089691e-03,-2.836470463124815891e-02,-2.923192336594324266e-03,3.024500743652400181e-02,1.810231087581762842e-03,-1.457039248728530904e-02,-8.422491728024282184e-03,-2.795815407775915223e-02,2.230453361367904300e-02,1.503432403702539832e-02,-3.579318477995151182e-02,1.410095098113191801e-02,1.642727851626411828e-02,2.303713736761628730e-02,-3.472618282891606900e-02,2.683881795247803140e-02,2.407050456719052323e-02,9.828081842391204331e-04,-6.111920225806853971e-03,-1.788229533058117299e-02,-3.961892747035822282e-02,1.753413959880861447e-02,-5.711404223728960144e-02,-2.967081107078322223e-03,1.325249308218446123e-02,9.100043824144561774e-05,1.478507068752582011e-02,-2.522857692638206216e-03,-1.730725290810979436e-02,-1.406469610976777626e-02,-2.456361153475380282e-02,-6.840081969695226485e-03,-1.902030477251694454e-02,1.991219705083106806e-02,-2.547988629266606866e-02,-3.913418733931246611e-03,6.858287140731319197e-03,4.397454927987374737e-03,1.958317420814970067e-02,-3.197251935162594844e-02,-2.433952778479356663e-02,-2.091553482452802870e-02,1.779798003069659948e-02,-2.464163758912493295e-03,-8.107551008191984585e-03,1.555074929475879289e-02,6.145855901451954297e-03,-3.298814437254336124e-02,-2.093594872158962075e-03,4.056699812935501449e-03,3.048594752835824193e-02,1.014595299794488793e-02,5.891688472347791049e-03,4.727647238406901611e-03,-2.178936638451264146e-02,-3.260154198790608110e-02,-2.101543689506361196e-02,2.694398527731242318e-02,-2.612692454989289960e-03,-3.933842868088055326e-03,-5.551885644382999196e-02,-7.948545452620511820e-03,-9.895902622340774224e-03,-2.562080013998074488e-02,-1.793157420028048538e-02,1.279954582591933190e-02,-6.643035542336745217e-03,-2.945719722731930321e-02,-1.040997043341056021e-02,-5.086604603331913721e-03,-1.377171027006324211e-02,9.999813735339178195e-04,2.136470751814814606e-02,8.244725075926998686e-03,-4.126480499424025478e-02,-2.553005204788034999e-02,-1.005621807755901348e-02,8.775283329469526356e-03,1.985607047310463183e-02,5.117298421878544411e-03,-9.118839859005127557e-03,1.974005800549035947e-02,3.424885592534149259e-02,-2.602924033920727895e-02,-1.005812619908138389e-02,2.210663007776064812e-03,2.758032650452093334e-04,5.250921919677348573e-03,1.997564259838798331e-02,-3.948167917748363781e-04,-1.860648507793190645e-02,2.022707274635399469e-02,4.263215984061790274e-03,1.430821341731541851e-02,-4.051739627162045942e-02,-1.457597239572287241e-02,4.771017354251547854e-02,-2.834685400121300658e-02,-3.666552697194030291e-02,-8.464742403866774151e-04,1.904092821410925326e-02,-2.718200825157414402e-02,-6.236853342262520944e-03,2.809639924827729215e-03,-4.762162773176608146e-04,1.390587721297325587e-02,3.882680568558920242e-02,5.919179386518732926e-03,-1.759957941806143851e-03,3.311502452864432955e-02,2.517381597468750301e-02,-9.568543708919179103e-03,1.633132745183257795e-03,8.955943553557657241e-03,2.796147174907567465e-02,1.745674448251505195e-02,-3.034481714355689082e-03,9.664353007993163949e-03,-1.899455178526290172e-02,-5.820441137613790138e-03,1.830954593122243942e-02,-4.024838201398749440e-03,8.441975583013499457e-03,2.111816847205555056e-02,-1.187235341356834839e-02,3.415325556898132081e-02,-4.033770569050022792e-02,-1.728201504015518947e-02,2.127146716724312783e-02,2.010782194779250562e-02,-1.483881595491391876e-02,-3.469799054598279170e-02,1.286709568847056381e-02,5.011069306834699949e-03,-1.795900393460254235e-02,3.607594459546115129e-03,1.603676355492925434e-02,-2.466058180607019756e-02,-3.018784354655610139e-02,6.023827416529072346e-03,1.322496082061787141e-02,5.075337149447461949e-02,-9.311905539200733203e-03,2.974591311680268094e-02,7.568234366560459142e-03,7.353384465990417396e-03,1.177335172159622335e-02,1.735285523382181991e-02,-8.830430932363960567e-03,2.441712766129313598e-03,1.898623492290219764e-03,-3.420582136546249791e-02,3.173672681278246616e-02,5.757662185995120543e-03,-2.457281857492141230e-02,9.300596786149206013e-03,-3.132683062052810802e-02,-1.571121489046118508e-02,-2.820412387904325854e-03,1.819983346416150644e-02,1.852727891718086370e-02,2.427831504712120274e-03,3.773886500659240362e-03,-5.198950286274933372e-03,2.239991831006826056e-02,7.270017751085689449e-03,5.934195532238834350e-03,-2.126881449528994928e-03,-5.970715310327451807e-03,1.777988864319995574e-02,6.670896646563367026e-03,-3.864113723223002502e-03,-2.853330262320907806e-02,7.456774626313626177e-03,1.763273734953028568e-02,-2.333866786876957408e-02,-4.604168765108780648e-02,5.890693676992073309e-03,-1.574840466599231568e-03,1.232339102638888538e-03,1.022412353566218464e-02,2.531931056131261557e-02,-2.001756640867962539e-02,-1.258301474732948823e-02,-2.960336548972281392e-02,7.114741581151302376e-03,-5.171146472317712448e-03,-1.216178072242890540e-02,9.914385956953180278e-04,-3.928511633409434434e-02,5.951051040583849386e-03,8.781949305951341350e-03,2.081182652442228886e-02,3.184889163041817323e-02,1.204807034364309588e-02,-1.496369881878448563e-02,-1.067909721956126524e-02,2.586887161324267700e-02,-4.136192927950912285e-02,1.078346035940730072e-02,2.182922345750247343e-03,-3.055644045888811569e-03,-3.270720957943166335e-02,-4.332597520711558431e-02,2.878122617000914568e-02,4.344122699363139189e-02,8.259876769466748328e-03,1.528676609241834579e-02,-2.122700926279917633e-02,-1.031244643588274945e-02,4.695728674285755519e-04,-9.902674050065625455e-04,-1.156391044991112241e-02,-2.126789841319068688e-02,-2.293197271570305423e-02,2.077239000260658330e-02,1.476857621749583238e-02,1.824888862361073033e-02,1.838316093186356109e-02,2.548474385373551351e-02,-1.341293754357736519e-02,2.030124275406544609e-02,-1.495643724091691960e-02,6.306236290699825976e-04,2.391357984583911134e-02,1.193144097673157905e-02,-4.217303661092651479e-03,2.136548987433943211e-02,1.519323457504171380e-02,-2.458774298700523372e-02,-3.809559943521981153e-03,-3.944708101781119192e-02,-2.847942982410994403e-02,-7.402087957270321941e-03,-1.889551924188683993e-02,1.981716678353694777e-02,2.085090741599921263e-02,-1.202882645512289538e-02,-1.336311206741878574e-03,2.973769700824751422e-02,2.849156812355476895e-02,-1.908793520713848984e-03,1.383775170517944839e-02,4.807685613725907678e-03,4.047952845428666457e-02,3.052152134885426776e-02,2.232562732412349954e-04,8.397325519956673825e-03,1.354479078019490620e-03,2.254508087245730725e-03,-1.547510891711074803e-02,-2.241934536174459980e-02,-7.971140629234338068e-03,1.024620889294578993e-02,-2.856167493030859622e-02,-1.902324892016578339e-02,-6.834776975997458072e-03,-2.783790980388019254e-02,2.213572336076133351e-02,1.226255397719595158e-02,1.425756005694333618e-02,-1.642451329302332605e-02,-2.211060084416211283e-02,-1.425472896277506056e-02,6.485873862213475602e-03,-1.673760613568874012e-02,1.479974565668971259e-02,3.825483614618136515e-03,1.599099784534691038e-02,-3.478609960717777595e-03,1.477348982786182846e-02,1.659374686031275456e-02,2.383607073283896399e-02,-2.140490169798892062e-02,-3.025979870620005077e-02,-1.663624992482621787e-02,2.466176665039853874e-02,-5.004793964398429607e-03,2.186354740715065054e-02,5.051902174652402391e-03,1.604481361242886261e-02,2.305127276461691258e-02,-1.401723259863874547e-02,-4.741286798923816798e-03,1.335478993109606716e-02,1.211305859406800259e-02,-2.469918644568966717e-02,1.880633506930736581e-02,-3.523005692472681860e-02,-2.330865652527065474e-03,-3.285300183815286889e-03,1.906217015147611965e-02,1.800022536045655860e-02,4.955672501051720455e-03,2.435387146530919658e-02,4.505922014084388048e-03,-2.559114289693190103e-02,-1.444936229645861145e-02,1.840019676973653207e-02,1.030585129095904114e-02,1.005575852924182716e-02,1.949757496814313179e-02,5.518689391169877972e-03,-2.697271715523757649e-02,2.087423403321215370e-02,4.209426240351418769e-02,2.390266929188843842e-02,-1.708748937154303676e-02,-1.530377578521321252e-02,-2.739503897078139627e-02,1.067116689994813961e-02,5.209443109042249422e-03,-1.773937090193372645e-02,1.044718836767415115e-02,-1.188177314363240457e-02,6.518514649411676770e-03,1.671427867044636070e-02,-2.752171116714904886e-02,5.120011732990227549e-02,-3.024716462537507811e-02,-6.844523063800715505e-03,1.824793231397680779e-02,-1.923908645580536467e-02,-1.529835033759733426e-02,1.926191904210464503e-02,6.401940932029390359e-03,-1.463623104177713338e-02,-1.300677880141605861e-02,2.465474072644593256e-02,3.876851941448851424e-02,3.037007757498008664e-02,-3.481765025628903026e-02,-9.748908410980137648e-03,-4.259749267287305657e-02,-1.887108274195371110e-02,-7.603209419419752063e-03,1.217090690344627482e-02,3.146232988456506424e-02,-2.195120127937697646e-02,-1.534276959890374173e-02,-3.288116186963317873e-03,2.874627046648915024e-02,-2.745067786786675734e-02,-1.865639256633971205e-02,4.820670089084658910e-03,4.240881566282184850e-02,-1.879393543176240133e-02,1.530727340976110497e-02,-1.639176654215031628e-02,1.931342178329505457e-02,-1.404005329891916051e-02,-1.621576151836633985e-03,-9.999904547527943555e-03,1.479012085479374829e-02,-3.344012050710492602e-03,2.862864522934585945e-02,8.133564697193420429e-03,-1.939412620830012826e-02,1.492948531155094405e-02,-3.070008520109318920e-02,-1.634754555121504041e-02,-3.288762772756772396e-03,-4.083685614366459882e-02,8.229892638662465731e-03,-1.953618781195196052e-02,-4.076938421858290057e-03,-2.563388736490354938e-02,2.577949567050023816e-02,-1.803568344131367338e-02,-2.403069174072639674e-02,1.824002121827875827e-02,-1.426888416871796746e-02,-3.092627285536526591e-02,-8.473797084094885496e-03,1.930683098345443993e-02,-5.505384853935002022e-03,-1.483281579620899550e-02,-7.909827754674712830e-03,-1.380239679085306509e-02,-2.811562249198676020e-02,2.887172553466618372e-02,-6.567531282618982620e-03,1.764299923373653656e-02,1.424600673426861842e-02,-2.180366176414220286e-02,-6.221023870189117382e-04,-6.527007503001989487e-03,-1.012098907970510574e-02,3.345081146821045955e-03,-1.959189206907169592e-02,-4.066192348195288991e-02,1.482265237390233484e-02,-6.979030648303861765e-03,-1.099430007174222179e-02,-2.517608836302623332e-02,-1.365860401043903459e-02,2.205891268785275042e-02,-2.362130028345551733e-02,1.822161211597790598e-02,1.305763443684346964e-02,4.719559700137103408e-02,-1.588576560009948317e-04,7.941175574949785668e-03,-3.944007348752816278e-02,6.093914102951342518e-03,1.720539961130017684e-02,2.314086619861813882e-02,2.669816384754241517e-02,1.523597592227506417e-03,1.100597345104697804e-02,-2.606079074933041750e-02,-2.335174372876912957e-02,1.063462694945425252e-02,1.927474820587970388e-03,8.296664151228740069e-03,1.146074843712544325e-02,-1.302889577199435947e-02,-4.436663091908600587e-02,1.748551382282148223e-02,-2.245514622226870219e-02,4.657700776661628968e-03,1.577619252755223245e-02,-1.984060011093860196e-02,-1.665193459085564237e-02,1.046791478602822779e-03,-6.225576175620525961e-03,4.355044746786387172e-02,2.916715077670837056e-02,-2.289646373618769992e-02,2.694134519679829490e-02,-1.972417352563923549e-03,1.102291564002153695e-02,-8.200458203871533250e-03,1.507857407562814521e-02,5.898178945745597562e-02,-6.995250500561841708e-03,-4.887305242809905637e-02,6.150220283834663751e-03,-1.314817877452582537e-02,1.030323605571533199e-02,7.533640227558638033e-03,-5.185317019090493126e-03,3.237458053218903158e-03,4.368077510839081523e-02,8.146208678631092345e-04,-2.675699285413660547e-02,9.447263064682869319e-03,-9.031613439388538542e-03,-2.536341850190984137e-03,-1.979954219727561235e-02,2.582433925268388247e-02,1.030693070802629618e-02,-2.254230621800311016e-02,-3.526166809264356244e-02,6.510037091415736728e-03,-9.100295995581483138e-03,-7.219308075382097718e-04,-5.781933273601323406e-03,-2.579498813278139485e-02,1.264693966435549537e-02,-5.680661744835318466e-03,-5.930104531455329675e-03,1.850518130125029456e-02,1.605786920645677421e-02,-2.440919606039170311e-02,2.151508840355140575e-02,4.311423371333848731e-02,-1.670516458350388214e-02,1.344930370585386246e-02,3.960312458736030272e-02,-3.921420108916536668e-02,-1.388123411042956057e-02,-3.829727699236781541e-03,2.474591856060039639e-03,-9.007573405579085563e-03,1.844132038354020023e-02,-1.008883198405975158e-02,2.187843472058657174e-02,-4.319153694558176132e-02,3.258756066775969108e-03,1.141781589556526994e-03,2.346042836209617441e-02,-1.098076518112786268e-02,2.136229114902813211e-02,1.335531044404765326e-02,1.440491402662304708e-02,-1.576910130022194864e-02,3.203407703618357111e-02,-2.050437786729426143e-02,7.972528396307183851e-02,-2.887114729214129705e-02,-2.883085444324306676e-02,9.005932610346009323e-03,2.181512082071556183e-02,1.973916465813321461e-02,6.081917877449835065e-03,-4.707297360484303909e-03,-1.888378875780706220e-02,2.169653694123285445e-02,2.379610047394587966e-02,-4.934114586160598653e-04,-2.672992763709031681e-03,-1.899150928436520213e-03,3.694531024915631220e-03,2.355808199325943805e-02,-9.338988415183654274e-03,-6.169033805023049072e-03,-1.886231704563638006e-02,2.114128458654859766e-02,-4.206403186421141596e-03,3.180541376415409963e-03,4.596417313611497746e-02,5.475323819730295617e-03,1.207320070036847250e-02,2.572294054271951139e-02,-2.265335802491381337e-03,1.858301874842926971e-02,2.890235141757064793e-02,-7.244825422905381597e-03,5.478348406702490334e-03,8.670148790228001875e-03,2.836405936975569878e-02,3.797297791025821059e-03,3.908142813014732486e-02,9.454450073832982790e-03,4.288466299978784674e-02,-1.540122637239196846e-02,7.317917639278534794e-03,-1.525765884250804630e-02,1.390457050294693735e-02,-2.265643958973026333e-03,3.835469513999550245e-02,2.821848638981226502e-03,1.463385714505319006e-02,-1.133023693787476444e-02,-1.559945200626223355e-02,-7.302123983805148232e-05,1.410849206508512158e-02,7.686777505990519989e-03,-9.877945190103468512e-03,2.421215913437758591e-03,-3.487803948131763115e-02,-1.346776722451720025e-02,7.724636454748121973e-03,7.661661235669589044e-03,1.800389323791521876e-02,-4.322469834588994059e-02,-2.003527622473671999e-02,-1.819299283072409179e-02,-1.192185104761042322e-02,-1.305559263291920617e-02,1.638489300767021969e-02,4.868087835108385439e-04,3.547727083874733524e-04,1.879750766233495227e-02,6.885323987433801876e-03,2.011517482748733515e-02,4.706887795670505054e-03,-2.012593511689132753e-02,1.428663633655975589e-02,-1.387696453459292927e-02,-2.550637534028008663e-02,1.331679208491090734e-02,2.502882099920169731e-02,-5.992472626583782852e-02,2.915147411284013668e-02,-3.315752447762704974e-02,-2.058122777366457740e-02,-2.987240025150381941e-04,1.671223063255615265e-03,-1.360510356959484905e-02,-1.163790788198148900e-02,-1.279707653496348248e-02,-5.717661486998606123e-03,-1.263739261019850534e-03,2.445904329135841979e-02,-1.523049935313647123e-02,-1.441367539424083782e-03,-5.813845125223342757e-03,-1.939568013638232752e-02,4.308648196855078779e-04,3.416421578954336596e-02,-2.028742344782467552e-02,1.272645512484603045e-02,-2.029769334216485494e-03,-1.033035871708519980e-02,-2.995207865145201043e-02,-1.151450383809644006e-02,-3.485719881749411997e-02,-9.016711740972020023e-03,4.581759439931201716e-02,-1.874056891015937060e-02,-9.196787130763247123e-03,2.443942464642279849e-02,1.221090686216951687e-02,-3.179279179355705420e-02,-5.440624804627709754e-02,-1.828131492837213254e-02,3.505348541074398971e-03,1.644027745898356957e-02,3.428178895414062122e-02,3.822773612114373221e-02,3.308542827476729752e-03,-1.695043877268991722e-02,3.391266034008988406e-02,-3.681433071298719981e-03,-1.185273545127080164e-02,7.903413063552376661e-03,-2.331870874907918806e-02,6.973589678882426493e-03,-4.801390800479790610e-02,-1.190686932237128466e-02,-4.595349546354000544e-03,-1.894929496206271963e-02,-9.218560135286163124e-03,-2.997633922438694073e-02,2.354564768313682603e-03,-4.897568993350710775e-02,-1.387162051120884726e-02,-1.195035472301344756e-02,1.473167239204280048e-02,-4.150049958864820976e-02,-2.379506057264883789e-02,-1.987128867919703279e-02,-2.101405382990701419e-03,-1.809626006808823587e-02,-5.115246624659737507e-03,1.026814943027577233e-02,-2.368489191755038595e-02,2.071155597397437292e-02,-1.224017733316824612e-02,2.836229201900678995e-02,-1.897599100471886527e-02,-5.246230846178743384e-02,-2.297187231213221326e-02,8.202248261000856869e-03,-1.183410504222778955e-04,2.245812846977294705e-02,9.292457444300421601e-03,1.724044397621274025e-02,-5.513602186968172107e-03,1.788837050043485047e-02,-4.446371462201848673e-02,1.002728878481685786e-02,-1.481463950294477708e-02,2.782331057881167261e-02,-3.416251043234782864e-03,3.887052242754066196e-03,-4.636754985205125690e-02,1.017491687667089993e-02,2.841202393500415115e-03,-1.675089749838551412e-02,-3.818727097312662327e-02,-2.490544790576804460e-02,1.501312463278630521e-02,-2.006649613660131323e-02,6.227130888185252768e-03,-6.256599423003896508e-03,-3.525703770930620901e-02,-1.618044661995101524e-02,-1.461031243876849601e-04,3.336636088672757794e-02,-1.162751534532506514e-02,-6.645844053124524455e-03,1.899156810243169541e-02,-6.414215860592431540e-03,5.804492886429352301e-03,5.396273367557060351e-03,4.014936950489817608e-02,1.141075312792597801e-02,-1.906795896507755550e-02,-8.858113740743245312e-03,-2.314554011708274024e-03,3.762629275891788555e-02,-2.328439466024235117e-03,4.893768744924992253e-02,-4.172911648087942321e-03,1.440480096528136932e-02,-8.890420380124811409e-03,-2.159628545545545439e-02,-1.379497360884804000e-02,2.967681677369860688e-02,1.152239400043199823e-02,-9.488901787770676055e-03,8.826492101903789245e-03,-1.773056863258424751e-02,-3.177940862801712646e-02,1.409951938910455373e-02,8.158365779361090309e-03,2.621746043682285712e-02,1.212281705944735083e-02,3.439262942378401577e-02,-2.625056692345445128e-02,-1.191461125299466024e-02,3.818371139047486290e-03,1.254854176618654810e-02,-3.825678286147062707e-02,2.987323623590859220e-02,1.843920264171590440e-02,-4.903608339808505391e-03,-2.006796741656499163e-03,-2.390751543451975769e-02,2.217708571064945511e-02,-1.978211180063112976e-03,-1.590365353981355867e-02,1.310575813096071657e-02,-3.266998601689401205e-02,4.705219736557305667e-03,3.072919383747436950e-03,1.769716489015315392e-02,2.131937325170603532e-03,-8.035603328332597758e-03,-2.681992160862437750e-03,2.482263159894870092e-02,-3.371650865859265270e-03,5.001022317310531949e-03,-5.792519245249921900e-02,2.238980730396723795e-03,1.018206611734144736e-02,-2.185946841523039516e-02,2.225540096334843558e-03,-8.784923972308362333e-03,-2.941024905245125109e-02,-1.659745164943783602e-02,4.852768297581095541e-02,-1.793975466310928149e-02,-2.636660036619237549e-02,-1.824235635408270927e-04,-2.822596550343133698e-02,1.214072297290867339e-02,1.153249438204883431e-02,-1.183006636822229660e-02,-1.560178344689622590e-02,1.051530676086062134e-02,6.487391631427568556e-03,-2.014769635830126419e-03,-1.043475057138431444e-02,-7.978924676516918960e-03,-3.786381944761656876e-02,1.697095736477999967e-02,3.730762092867552504e-02,-1.196989755135903846e-02,-1.405374145842309096e-02,-1.363267842486660594e-02,1.398498852384729048e-02,2.222437722612580907e-02,-6.054394929870469955e-03,-2.862346046435235158e-02,5.522863313301658306e-03,-5.887662997676049517e-03,-7.821855368065688124e-03,-1.989816573181494934e-04,2.467699755726010524e-02,2.646620402863913372e-03,-1.004984976347877285e-02,-1.901169922032000092e-03,-1.616381396542974740e-03,-1.073315686668232030e-02,-4.696408607387501412e-03,1.362567816718042099e-02,6.369090024243514309e-03,2.908368960918633617e-02,-1.783555168983801814e-02,-2.349158496839660881e-02,-7.942549348676454166e-03,-1.642915812255445543e-02,4.025653937222191392e-02,-1.971013712428996631e-02,-3.656573406318463365e-02,3.065790545008212006e-02,-1.895735658615969876e-02,2.705738654764630949e-02,1.881438658901207414e-02,-1.636618489842203705e-02,-3.191302290380382267e-02,4.544012604123045694e-04,-8.002761142436386199e-03,-5.820873883962109085e-03,-8.391318979544513251e-03,-1.714431199637276790e-02,-2.206942937723449863e-02,-1.780414156821483879e-03,2.818331280155790888e-02,2.289631170056420986e-02,1.907030929175702839e-03,1.234181566939967709e-02,1.299325275849983093e-02,2.166861588218588555e-02,-2.280415852313598044e-02,5.808428379716066778e-03,-1.647296531337485645e-02,7.279459180520335936e-03,-3.374890770272181290e-03,-8.446672650947898570e-03,-3.278808649486233961e-02,-2.103468343549294226e-02,-1.791809097640881601e-03,-3.151554196272963321e-02,-6.788560887471968217e-03,2.416341740652694012e-02,1.640549161885774404e-02,-6.970439171096038528e-03,-1.633412573624415040e-02,2.501099017229594171e-02,-8.959862652278413001e-04,1.554045723114569170e-02,-1.638320126645865377e-02,-8.298621759775259149e-03,-1.018304427873981729e-03,1.421990379010911257e-02,2.193459404842658389e-02,2.177649335628031174e-02,-3.792075476113478723e-03,-1.069503900218708378e-02,2.200513214697572689e-02,8.704182256715138274e-03,2.781603321448709344e-03,-5.238924047609692936e-04,1.259228075861459906e-02,-5.661454243555341485e-03,3.506402561775346337e-03,3.959917118880579984e-02,-1.585934621121968743e-02,1.326104548025325638e-02,7.101558146857289353e-03,1.363169353551171338e-02,-1.973521447846114663e-02,-2.534526265851571800e-02,2.473919842572704433e-02,-2.902811631840238396e-02,4.149833858180890407e-03,-2.321045912794292287e-03,-2.438864610157690871e-04,1.319842645742815186e-02,2.737103590483545845e-02,2.143982764743353545e-02,-9.922228345540540576e-03,-1.663687353677138075e-02,8.937342338449718801e-03,-3.631143410061937402e-03,-1.581636907025416386e-02,-6.726106113781296809e-03,-2.507988381892218427e-02,-6.635945816339576531e-03,-1.418812676085468710e-02,1.922348033523818209e-02,-2.492086893727678970e-02,2.013246982504406611e-03,3.408991435268103609e-02,-1.565105830400027875e-02,2.564024676161236194e-03,-1.082172928938122773e-02,-7.930145714077413074e-03,-1.534902513007578920e-02,-1.244670450904521511e-02,6.548555934516091422e-03,-3.143150228985780448e-02,-9.484898110285749570e-03,4.268002279676436431e-03,-2.749414515959365535e-02,2.637637637279861835e-02,2.409897592664946020e-02,-2.774552735771202566e-02,1.038222198705176721e-02,2.582896571222304330e-02,4.735188289878716067e-03,-6.539755987501547942e-03,-2.002118088981675106e-02,-1.254343545034699442e-02,-2.272991715013166283e-02,-1.278985001888123876e-02,-4.248395893166853274e-03,2.347953024479081108e-02,4.411764121277872604e-03,2.240773514680786255e-02,1.744738082483964642e-02,-1.684811659414658979e-03,2.176233959296938747e-02,2.691656478209236703e-02,-2.331407123031507909e-03,-4.273835245269971134e-02,9.170406336831746609e-04,-5.411418246466840297e-04,-6.243382551175909179e-03,-2.105859775629482719e-02,-1.914849239084857879e-02,-2.045507213029626285e-03,6.998007989242164845e-06,-5.047451113816849716e-03,-3.156614243017237531e-02,4.325601916644833487e-04,7.940702585712318060e-03,2.665590851195418984e-02,-1.082389594915286746e-02,-4.085438640975118732e-03,2.155917694406587690e-02,2.716661753819685221e-02,-1.541119042255494065e-02,1.469945123735275777e-02,-3.040346680964994483e-02,7.490097050313766422e-03,-1.942243154700260682e-02,9.196942180507536486e-04,6.079162883350681598e-03,-4.547843196835704704e-02,-6.299692560156534837e-03,-1.999188750496299054e-03,1.516991500770415759e-02,6.316100235446625577e-03,7.054596624983605017e-04,1.792587603996119092e-02,-8.484415873509804779e-03,6.176049275272398921e-03,-2.720060270149148723e-02,2.996855745901213716e-03,-1.149494075403847959e-02,2.210399007916019620e-02,-1.421094776820699609e-02,1.176357718201276499e-02,4.494172332196742607e-03,2.255707273019126602e-02,4.472950774649185612e-02,1.618276970437316359e-02,-2.902542882515602579e-02,4.168421261399313064e-03,-5.638523042855298623e-03,3.565935237230034166e-02,-9.676168758570123998e-03,-3.229625325036021566e-02,-1.763466509798849308e-02,8.212776844848347288e-04,5.561163488723663145e-03,1.176796406323905170e-02,7.851878823111311818e-04,3.089273239213697481e-03,1.043113142168376056e-02,2.797226738734289592e-02,2.966954980450181578e-02,1.663708943155390099e-02,1.555693947342384580e-03,-5.466602981872945022e-03,4.684282340743828668e-03,1.154376371401228708e-02,3.928269185350442318e-03,-5.670287854560598917e-03,-2.340734360489912097e-02,8.614907999056321819e-03,2.134875680350351631e-03,-3.052072750137646909e-02,5.417636921036855704e-04,1.650901698038794926e-02,-4.415549866056713707e-02,-2.314861306147424774e-02,9.011653705238461057e-03,4.295925484543438276e-03,3.860372563344746655e-02,-1.554236235182945673e-02,6.457042272792541671e-03,-1.862588144803658738e-03,-5.305362150253486314e-02,-2.903922531948727528e-02,2.807837293177720909e-03,2.348980775169940468e-03,-2.022391675511354264e-02,9.415062601933407715e-03,6.256972191779088671e-03,-3.634730623742456201e-02,-1.862379747594220848e-03,-1.260643963292539492e-02,-3.230023464829052254e-02,2.120506232604151692e-02,-1.317372037144464748e-02,8.771850570105614933e-03,-2.411533013688240898e-02,3.081620791446624142e-03,2.672965652479467394e-02,2.928332805571642991e-04,8.101683541081103682e-03,-1.658442683625279551e-02,-2.410501806230955918e-03,2.134917899035177272e-02,-2.801381661165704487e-02,3.098531232165685836e-02,1.260419515320129399e-02,2.937665765008315097e-02,2.007689117179561195e-02,6.492698911153302853e-03,-2.780172625933684249e-03,-1.569174528685748828e-03,-1.476803121838853733e-02,-2.206434309737860186e-02,-1.654162761437105028e-02,8.601290042847847817e-03,-1.797695603631888420e-02,-3.962793070581033250e-03,9.285997960948920091e-03,3.939893441226697407e-03,4.041028076514838739e-04,-2.792110494933099096e-02,5.467932352809259239e-02,9.251199137708582265e-03,-6.421510717683949227e-04,1.348450058909142144e-02,-1.688190288092953142e-02,-1.404586392240636875e-03,4.065821158297271837e-03,3.324021284371558339e-03,-5.201827895305375510e-02,7.430904747126828615e-03,2.529166807691401401e-03,-3.347175214631857576e-02,-1.842574586678487336e-02,-1.355244178450161832e-02,1.072697574150312423e-02,-1.494719651578169453e-02,-4.400137027533570361e-02,3.103561543416290605e-03,-1.041534493353953386e-02,1.439833658517981896e-02,-1.466149089094232957e-02,-2.236840119894272991e-02,2.138993010713695006e-02,-2.664677105702312199e-02,1.150375769577287668e-03,-9.833502108997452598e-03,1.171617014153530228e-02,-5.630351979923102317e-03,1.232535883716000084e-02,1.468894947138247274e-03,-2.304405353164930715e-03,4.858026401337335425e-03,-1.459934672505801626e-02,8.167523008188719985e-03,-4.804155498047826822e-02,-3.411329249508292250e-02,3.347209219289739440e-02,1.336745696027572157e-02,-1.027250212321953633e-02,4.594881734725780875e-02,-2.587386928071527120e-02,3.468134442386547420e-03,-6.244359910055777806e-03,2.360139257111721484e-02,3.900558104193278287e-03,3.537647467939606001e-03,3.286884854906409886e-02,-2.920009474903836628e-03,-1.582378410643524996e-02,5.341869471905779168e-03,-4.209513306786330511e-02,1.860683115083717337e-02,4.521658766956680037e-03,1.734228528382155896e-02,1.341201495410636844e-02,-4.897318499349100594e-03,-5.726171727257942622e-03,-4.331330855456183744e-03,3.889324916169022150e-03,1.147946987096556959e-02,7.099316804477448679e-03,-1.725175198905534030e-02,2.226383652040118261e-02,2.139817677882185215e-02,-1.822487864824514497e-02,1.062159667067445051e-02,-1.003700879364511668e-02,4.816430212400951011e-03,1.861709262652521193e-02,4.333311583835701419e-03,-4.520184584296880852e-03,-2.572563553553748258e-02,-8.057906530034146877e-03,-3.318825944313623377e-02,4.640523700533335030e-03,-1.255234588176835399e-02,1.135239172315327671e-02,1.719159848247123201e-02,9.078785471369575991e-03,-7.155084929695962499e-03,-9.050743060174460883e-03,-2.162088205557047976e-02,-1.054271898507561263e-02,1.950847628355238325e-02,-2.046712466993382776e-03,-2.716407932009199874e-02,-6.572621067109592902e-03,-1.789574792590466548e-02,-3.076227918719586646e-02,-1.386339706149112942e-02,-9.582072982229119726e-03,-5.447242701279443079e-03,-4.905034069290544613e-03,-2.324576764744339108e-02,3.366669007456517260e-02,5.129743101464491299e-03,-1.281664821795684694e-02,-1.338918189418538546e-02,5.942047018450211516e-05,1.570033946692186641e-02,2.937657123154894731e-02,5.476307176388759204e-03,-9.532451779809266584e-03,1.152756238285571229e-02,-1.030555846875066441e-04,3.321759612951363100e-02,-1.906039443720905502e-02,-1.349840806333511313e-02,-3.735744082323147475e-02,-9.489094467501030944e-03,9.533059922384782246e-04,1.218846901381325475e-02,-2.533305804828379741e-03,-1.331119577999766851e-02,-6.353277556972667696e-03,-1.595212254264761001e-02,3.567472155509874426e-03,-7.402730836017097291e-03,2.009069776180354150e-02,-2.465005924463974703e-04,-3.794013884651028807e-03,-3.468809698987514872e-02,-1.502144271054745711e-02,2.669702492588926432e-02,-1.297241292803481827e-02,2.440461136250845348e-03,-1.682225478312478900e-02,-2.258010092990635209e-02,5.884059861808481340e-02,-2.959010206399618689e-02,-1.524354654629484114e-02,-4.333254423964589055e-03,-1.288748925437149806e-02,-2.132335457617545813e-03,4.607409756162888365e-02,-3.309736185199573660e-02,-1.516910176312677785e-02,-1.278491889376591126e-02,-9.960553154045731494e-03,-3.943673624457739286e-04,-2.271356567771344245e-03,-8.757862735017612685e-03,-2.460121560739816568e-02,2.387886558847031326e-02,-8.925289775044331977e-03,3.074274893496694444e-02,1.602722749226102861e-02,-1.557646970283737935e-02,1.039862738138666066e-02,5.633486394116154344e-02,6.296958808543289682e-03,-1.245875937235905659e-03,-1.733070431872380662e-02,1.340394755768282466e-02,-2.392613768014529088e-02,-1.134982630272276215e-02,1.222980251681262537e-02,-2.168086262874636180e-03,1.564616514049606277e-02,-6.856275912418316465e-03,4.496464475085300283e-02,-1.218681363806585830e-02,4.370012192139513009e-03,-9.548845126973610695e-03,1.555819856734477410e-02,-3.152577916986971538e-04,-2.041180475181030181e-04,-9.255015841798492141e-03,-1.311637147910953149e-02,-8.309326313167058817e-03,6.007038290459211505e-03,-4.432410846658508402e-03,5.250036810906466784e-04,-2.358108180627878012e-02,-2.426527471699131688e-02,2.072277838738908681e-02,5.183105052435797375e-03,-9.001959060309381103e-03,-1.271528152693937423e-02,2.224948773708934277e-02,2.162977862761013975e-02,4.230133917149703909e-03,8.481525795124381442e-03,1.608290625611134492e-02,2.942785731578463279e-02,3.757131276871202713e-02,1.299227784477498260e-02,-3.923975246647218307e-02,5.746324889810115050e-03,-2.464447372990822421e-02,-3.343562514134321151e-02,3.525800075995782958e-03,5.647336904879885627e-03,-5.017081183275331167e-03,6.015271408286173085e-03,-7.381158584362470382e-03,-5.271432643566398464e-03,2.223373856279920943e-02,6.200928982265447448e-03,3.907186984446374411e-02,4.727304792773258380e-02,1.921984102732030714e-02,-2.790723031646760027e-02,2.383525336231189645e-02,2.593165123656152732e-02,-2.071175167081653126e-02,9.103493198137697917e-03,-3.023661687561860281e-03,1.661301341283621946e-02,-1.100919568300832724e-03,9.508235973577019648e-03,2.139306351368313458e-03,-2.327498922386279576e-02,1.439025062015988378e-02,5.159724088131356461e-03,-3.469482113000234031e-03,-1.830233976839006418e-02,9.001458665842614060e-03,1.209423029687112933e-02,3.553160185689358506e-03,9.248711483044676912e-03,1.039432482289285795e-02,-1.798363075926130358e-02,-2.724429126504083684e-02,-1.297644997139351915e-03,1.782892363017643880e-02,1.755740650915840403e-02,-1.962976112835866649e-02,-2.377690170127506539e-02,-2.323742887810958946e-02,1.857463059003471376e-02,1.267757137964884047e-02,-2.518592504844056543e-02,2.486888430651074122e-02,-2.885439105143565094e-02,2.951478073265757091e-02,-2.342830874996127376e-03,4.243534649471601694e-03,-1.868375754460318032e-03,1.829217761934124470e-02,-5.843338403167779721e-02,-9.315438055490574479e-03,1.664922622183579934e-02,-2.893278837597541148e-02,1.101436219983501809e-02,-2.588439661437726136e-02,5.268780354322519927e-03,-9.369908746670967820e-03,-2.566768019492847094e-02,-2.822475250807045255e-02,-2.661305595747797976e-03,-1.225832443408774765e-02,-1.105192274226613272e-02,9.290021851721695645e-03,8.359012756300498656e-03,2.727979922043188496e-03,2.384842089474556968e-03,1.681794195622154584e-02,1.843070764669397501e-03,-3.066016633653950718e-02,1.255510607252592614e-02,1.059725681698251917e-02,4.209731517052531409e-03,8.371197466471125975e-03,1.019425792474929274e-02,-9.321979074383233282e-03,-1.559161190018799881e-02,-1.646696736895468874e-02,1.560178871567824942e-02,-1.563856435304389683e-02,-1.307146065748215208e-02,1.534571405239511417e-02,1.273405486285099537e-02,-3.890597141345251975e-02,1.635427983541301242e-02,2.084110918985148091e-03,-5.050155165309418680e-03,-1.947127152055084381e-02,-9.126044016352946597e-03,-1.050630395750175826e-02,-1.420520355597660028e-04,-1.325598235375581579e-02,-1.540471246641500654e-02,6.942834049195090868e-03,-4.831151873088189962e-03,-1.070204510584431973e-02,2.814486515252560828e-02,-3.240121004346806222e-02,7.690594801078739183e-03,2.466259470880673502e-02,4.976151513858972919e-02,-1.820395174672516381e-02,5.580459772059756691e-03,3.023178136735676230e-03,-2.257262608022642114e-02,1.360203576762279015e-02,-3.883308757863814919e-03,-1.399233251690649169e-03,2.197165240356588681e-02,-2.577270054050203110e-02,-9.112765098074595421e-03,-4.949889681662979907e-02,1.702822842455400595e-02,-3.586010645878467962e-02,1.743246588837647770e-02,-3.856478467231553783e-03,-1.942280050668768188e-02,4.846213523239173600e-03,-4.147174482500343498e-03,4.999149385580315980e-04,1.233931383816405658e-02,-1.415518646433300384e-04,1.926587712817186271e-02,-4.126475727225712049e-03,-4.783817234890603599e-03,-6.946695316236584788e-03,1.289201805551634314e-02,1.683531813071074620e-02,2.700090261489648466e-02,-1.320862204008361844e-02,3.114928426442903006e-02,5.913745402119999391e-03,2.127232672511838920e-03,1.357121375087435786e-02,3.026098339719368244e-02,-8.565960838628094987e-03,-2.133892922214207510e-02,3.644619231468182452e-02,2.769866090503264253e-02,7.820982288245086414e-03,-1.161467722504982807e-02,-9.430403822206068600e-04,7.884463828526196844e-03,-1.626578770191888096e-02,-1.326217389056941372e-03,-1.957736374572775773e-02,-1.396099919761669556e-02,-2.059153414818987171e-02,-8.014306887532320761e-03,9.969693162965274913e-03,2.955636708028867507e-02,1.674337043073510604e-03,-3.382639850155821221e-02,4.066777177511574082e-02,-3.273740791762214108e-02,-3.452037946437577776e-02,3.573814730218284608e-02,-2.896131535948230987e-02,-1.613999184606805526e-02,-1.305535525129633730e-02,-5.766440979021904972e-02,-2.080783712562520385e-02,-2.187154644785825955e-02,-2.938257053767015167e-02,-2.073420650147947495e-03,-4.724364315079946502e-03,2.775589628287704162e-03,2.747941325059277511e-04,-8.244712653365900840e-03,1.708606708267366645e-02,-1.043766658586376848e-03,2.869124935650940039e-02,1.369897176216380158e-02,-1.863245579152519480e-03,-2.861420332526004931e-02,-3.896770084249369989e-03,-6.864559033715246505e-02,-1.153678879118272618e-02,5.116525933673485120e-03,9.988346650919206066e-03,-1.677795616948334761e-02,-3.077776195304961389e-03,-1.165031012595829120e-02,1.177974686334748791e-02,4.184965568692725763e-02,-9.511817938423761110e-03,-1.596896573163359909e-02,-3.035328976409259333e-03,1.681192818314493614e-03,7.845299046230946177e-03,6.997043665932687999e-03,4.009656922256968348e-02,-8.311157396324108521e-03,-1.371423318513392310e-02,3.763366382189849840e-03,-2.685753864114195574e-02,5.270705685702109337e-03,-2.929880385448602534e-02,-2.041398278603018084e-03,-1.056465330522987460e-02,3.118557520144136369e-02,-3.151334965388913334e-02,2.795794559744840466e-02,-2.093823582114896081e-02,-1.886416666448639812e-02,3.538520424700301176e-02,3.660022126979423085e-02,-1.021349117045345332e-02,-1.244352443852654935e-02,-2.742949360731105485e-02,3.372445274835368656e-02,-1.533095781618256000e-02,-5.532190722057571050e-03,4.807481897946799115e-03,-4.738196933430196059e-03,-2.176506983878310347e-02,2.134733071997131984e-03,-1.743638660435336066e-02,-3.351241770832374262e-02,3.981876576752606950e-02,-1.107955611751918618e-02,-1.288817885565373030e-02,1.989284350079615835e-02,-1.356197201745429001e-02,1.090342038160001768e-02,6.170758154214959525e-03,-2.229795742841483505e-02,1.966244678936750895e-02,9.746765921330570112e-03,3.532205879159722173e-02,1.505382867684056623e-02,-1.388736609549876856e-02,3.605311524921184230e-02,-1.859772042898276282e-03,4.151464086818350274e-02,1.222634148624060328e-02,-5.773213132700946715e-03,4.363527492948122283e-03,3.907341354037104780e-02,-1.289843813628075916e-02,-6.024400782053958661e-05,8.415450054295199730e-04,-2.316636600047114816e-03,1.034921227946065600e-02,2.479500940640303949e-02,-7.663695110378229008e-03,-1.734129590155535777e-02,-2.951039883895878457e-02,-2.106908032332744513e-02,-1.104072889395930207e-02,-2.525500691479080906e-02,2.891330028923171092e-02,6.936950572822916591e-03,2.523916815980760744e-02,-4.940968812229505451e-03,-5.732475298871086630e-03,1.797803765329892070e-02,7.912649857238395618e-03,-1.700493737804988428e-02,-1.789951914725758375e-03,-2.653990097648143212e-02,-1.585228445002805422e-02,9.772604810094882508e-03,-3.229076567285230071e-02,2.244966545269532279e-02,-3.838260646773706403e-02,3.460036107796442273e-02,6.344666382439564066e-03,-2.663633146780787844e-02,-8.124567687218009135e-03,-3.660949478031376436e-02,-5.880254467871446136e-03,-5.276231431726750637e-05,-2.695453839948992389e-02,-1.112973378439967818e-02,-3.793971879849452992e-03,-1.147389493226419303e-03,8.470036465075813162e-03,1.314303684084543698e-02,-1.967346935987835874e-02,1.371437887259259643e-02,3.430110649368867809e-02,-1.339860196398002211e-02,2.720042622738234883e-02,-1.768603039148156780e-02,-4.011318128513951912e-03,5.650049191912184798e-03,9.014360846260831284e-03,1.814708718672100596e-02,-3.304749707136346928e-03,-2.210998127551601355e-02,-2.128575840045487597e-02,9.454791976011494431e-03,-1.411873193162058518e-02,2.261605587072422659e-03,-3.191033240171996938e-02,-5.127127202536749077e-03,-6.556868301848602955e-03,-2.123319604803290597e-03,7.615433935531731521e-03,-1.557649233796586444e-02,-2.025073250926000962e-03,-3.128612938912428421e-02,-8.653315633942504359e-03,-7.686091204006649177e-03,1.865093953891041462e-02,1.336584510316153260e-02,-1.361113505524592406e-03,-1.610788049038284868e-03,1.539216379942494155e-02,1.370057399493625205e-02,2.730149906358666362e-02,-9.296563692584252844e-03,-1.201986185867414542e-02,4.496441494920316168e-02,-1.062517469120062216e-02,8.280120602750067060e-03,-6.093504764828385108e-03,-5.861871183139816081e-03,1.887980095589465203e-03,7.534276524245093858e-03,-3.195647622366070383e-03,-1.919837279204242644e-02,-4.173083864675347122e-03,-2.364163544502629125e-02,3.136718000842771831e-02,7.474783429589673331e-03,6.188491511917455432e-03,2.431000106693984725e-02,-4.555109504564934866e-03,1.194603887800986704e-02,-1.818683538847593040e-02,-3.495990990108515609e-03,-4.481780694206222333e-03,-1.655738476962850857e-03,2.371360035588151224e-04,2.018437095455089675e-02,5.679031963843224166e-03,-2.140049864467717319e-02,-3.339697433332804860e-02,-1.382602042887938129e-02,-4.071965703090203031e-02,-2.727808508780216884e-02,1.794533632146654359e-02,-1.572897137754877134e-02,2.260003931057030790e-02,-9.212453574679877258e-03,8.612173440093759055e-03,-4.395979069483442470e-02,2.116445408853207671e-02,-1.521499964849008964e-02,1.351630617871633563e-02,9.846360555049310515e-03,3.762294777348253270e-03,-4.673950556502450525e-03,-1.739165948577875431e-02,-3.294032515740318197e-03,-3.281271703391776956e-02,1.616187585900081061e-02,7.392034408364119014e-03,-1.019920659128770342e-02,-2.575964316399380685e-03,-3.424197100824347834e-02,-7.896381600680916525e-04,-1.257597548079654199e-03,-3.037087629718228377e-02,-4.953354328209864758e-03,-4.102153899520662866e-02,-1.109399222505061573e-02,1.843489172083431944e-03,-2.122961272503257057e-02,4.109780287615697608e-02,-5.874294078913705475e-02,-1.493724107480933969e-03,1.146850642145716241e-02,-7.873137712910548841e-03,2.855254801468605497e-02,-1.092803024919638231e-02,1.177736781650598648e-02,-9.845227609751906750e-03,1.937020597879243397e-02,-1.086356988944225770e-02,-4.016715992606698787e-03,9.195731900733894112e-03,2.455696299462937354e-02,8.519629422393005039e-03,-7.607724747661671894e-03,-1.148053018648130877e-02,2.525986602872736572e-03,1.478792493646875067e-02,2.293659041158081086e-02,8.152927749553687264e-03,2.522262742385602760e-02,-9.897525767270395555e-03,-1.914489362042261569e-02,1.487371327803110963e-03,-3.436717654954505458e-02,-4.782577328991611393e-03,1.595695617482908307e-02,1.258716088141133629e-02,-2.503474014632429273e-02,1.215818209187019723e-02,-1.727275630459892616e-02,-5.690149621831952498e-03,2.229981323979774582e-02,1.137598683819648557e-02,-2.272741017898461530e-02,3.046676085005574006e-02,-7.742714390758756449e-03,-2.775902792561805651e-02,-1.282623865179829611e-02,-2.934325537096195424e-02,9.548154882632844953e-03,1.880960040803980257e-02,3.476852168796375903e-02,1.104078843130351303e-02,-2.734113907340720781e-02,-1.143078427514977215e-02,1.026422797609918315e-02,2.305756324575281360e-02,-4.929055922655437016e-02,-1.184548822145642388e-02,2.610980927988602786e-03,4.147499652032828575e-03,3.042370025246250720e-02,2.044538484614051577e-02,-1.301554855127151113e-02,-1.285226735386628752e-03,-2.759965661885960611e-03,-2.357825926537975708e-02,-3.196933297598807122e-02,7.642750755526726489e-03,2.691424637199762299e-02,7.017059453838710506e-03,-1.332596295734719653e-02,1.307908845452570136e-03,1.721668844399301679e-02,-1.405110453825827825e-02,-1.978569147750610865e-02,-6.787149240557554045e-03,-3.639970825298544099e-02,-7.659259913893974245e-03,-1.625012467499167487e-02,1.547402498206626106e-02,-1.217771296290066918e-02,-1.220014068383310467e-02,-2.551430637630994550e-02,5.086199058458177116e-04,-2.027454289318397079e-02,-2.044717453533564933e-02,-1.378190232316353972e-02,2.898297562489644125e-02,-1.536103093399411590e-02,2.221854391787581647e-03,-4.904414222488341288e-03,-4.471579062837249124e-02,-2.608923169622665711e-03,1.713350446489657689e-02,4.540037969104828743e-03,-1.375621901478323549e-02,2.854316675769054748e-02,-5.105483620365597504e-03,5.988583109878143490e-03,9.945456557817124177e-03,-1.540989206258349016e-02,-4.536537921805008922e-02,1.758793292847898870e-02,-1.173722025622747633e-02,-3.687369122176074182e-03,-6.362621384580872952e-03,4.832668671208133204e-02,-5.785626609339815894e-03,5.510796958101946835e-03,9.746831535964985138e-03,-1.064611832047764224e-02,-4.638045101781348468e-03,-2.334806703177179713e-02,4.922799876662458177e-03,-1.655085484716647959e-02,1.084471004109788597e-02,1.339811279526395039e-02,-1.071637347387555854e-03,-1.119734166615882383e-02,-2.000033379924291699e-02,-2.254429219636740200e-02,1.000237734109986690e-02,3.520454852464715428e-02,-2.350268555044592294e-03,2.461538485442256105e-02,1.919349870352805160e-02,-9.111012410785023982e-03,-3.088855599157802091e-03,3.169686777284184964e-02,-2.237889718274814824e-02,-2.399223916843296750e-02,-3.966667530209483199e-03,-1.205566098135128252e-02,-3.913851788328646247e-02,-1.767418192842066041e-02,-1.495062840055953572e-02,-5.271820313245793171e-02,8.959893285057111620e-03,-1.912509787484158522e-02,2.031813602805856295e-02,-2.120286000516038993e-02,-1.423138013239873961e-02,2.213596626883496815e-02,1.041502005818879806e-02,-1.112798662261310590e-03,-3.189342376424196546e-02,-2.106834032335141646e-02,2.214538129394690025e-02,-7.478400778329524594e-03,-2.957561431082760678e-02,8.112579717230814641e-03,-1.062962536160243915e-02,-1.294249170658665592e-02,2.158678168158588082e-02,6.628274722104606116e-03,-4.536674745461913641e-03,-9.421864067449124691e-03,-3.130899269525255334e-03,1.410309090835250995e-02,-5.968757418274008193e-03,8.756967128230474032e-03,1.239582142187437876e-02,5.839986829158117301e-03,-2.293729486853971281e-02,5.813806011652999234e-03,3.160967354645970867e-02,3.814350544761264256e-02,-2.783797353217480272e-02,-1.098722962689388689e-02,2.374638595363065367e-04,-1.416044566014729861e-02,8.491862553144687367e-03,3.604018559882304212e-02,8.038793605255455804e-03,6.305141945403548720e-02,-5.731776382571048684e-03,-2.818633064545651018e-02,1.156460823233150872e-02,1.076095349844721771e-02,-4.246107011727533187e-02,-1.034333450129356659e-03,-2.167362099154845900e-02,4.987735624829437841e-04,2.357210165516419789e-03,2.249991319631654968e-02,-2.359566569140266259e-02,-4.701741068918446204e-04,1.961501270467416388e-02,-9.033147505983841682e-03,3.180860059389343381e-02,1.262726966820629758e-02,-4.367836902989957748e-02,3.612146275946798157e-02,-1.979673506047595691e-02,2.438097154041883943e-02,-5.315445461031330539e-03,-1.520772134684391860e-02,-1.112041019225938274e-02,-1.617590785951237772e-02,1.180994656033247658e-02,2.074811502366091451e-02,9.788845303506038889e-03,-3.756095547999525625e-03,-2.091784859955632403e-02,1.191704470497370084e-02,-1.536849894959438009e-02,1.136308216924562624e-02,-1.707168991507391695e-02,-1.308162022061018850e-02,-8.580591296425688075e-03,1.981749221488225687e-02,2.482124434465038647e-03,2.667229543377188511e-02,-2.985656595573178695e-02,-1.917252184322404873e-04,7.569648066687810657e-03,-2.127446227109407173e-02,-3.201430071839276616e-03,-5.608538800302916016e-02,-3.943459257479750048e-03,7.911991868253181320e-03,-1.738393263216267762e-02,-1.059071690890038032e-02,6.566461150311889670e-03,3.634366707287736004e-02,1.243733111497055677e-02,-9.792108354013652483e-03,3.956256855795481364e-02,-2.118815183523399190e-03,1.599388769476067437e-02,-3.290343196250794522e-03,-7.926057278254202906e-03,-9.689984688802498122e-03,5.763049223168469938e-03,-5.064302060993666754e-02,-9.386484939475503095e-03,2.480237699017130704e-02,-2.386194848578698444e-02,-3.894335778087520267e-02,-1.457216062816297023e-02,-4.411321404086449363e-03,6.816512524942855943e-03,-9.805333926549527485e-03,-2.216412005389840900e-02,8.777271881759890482e-03,1.059546237305843477e-02,-2.397761048989504803e-02,-1.047464990802774755e-02,-4.002210259083896667e-03,4.615487472987176917e-03,-1.179084318609419611e-02,1.046174481840305738e-02,1.869553473924044293e-02,4.189437314231236192e-02,-7.234976355671763910e-04,1.961041461683815049e-03,-1.009466062578913935e-02,2.889849470340678794e-02,1.400605110483767873e-02,2.062682124485395660e-03,-1.623514775027628046e-02,-1.155064587928649258e-02,-1.380520799476692845e-02,-5.367578994891802208e-03,-2.220445795024475824e-02,1.099552708092507367e-02,-1.219564211794269513e-02,-1.589211667290097232e-02,4.745497696608007819e-03,6.269464745167857740e-03,-1.659202695054631457e-02,1.390020741412291601e-02,-2.736970465442725622e-03,-1.534957334972854651e-02,-2.874148710230852236e-02,-1.410435393163530712e-02,-4.892345451132240272e-03,-3.993483636439461304e-02,4.157921419962960080e-02,1.319065364037457291e-02,9.919065882281783569e-03,-5.169217311607009549e-03,5.973991315639699817e-03,1.838762782989282474e-02,6.830896678620935851e-03,-9.126403948821597625e-03,3.454484789281359047e-02,3.612393282753831314e-02,1.421759629338864746e-03,-3.825125320443731303e-04,-2.919904060010844460e-02,1.392590149405222022e-02,-2.531154949794593538e-03,5.024348612962180674e-03,3.678475543592178015e-02,-3.981811639636023865e-03,-3.331311755452592838e-02,1.311883337124909212e-02,-8.827321477475681341e-03,-1.008025434097531078e-02,-2.278593242815679762e-04,-6.134045902824447442e-03,-2.660130689328579420e-02,3.835246959500885049e-03,-2.461297713783876934e-02,1.791887697144250655e-02,1.342453903998824111e-02,4.810102484615168435e-03,2.851074759284820057e-02,2.477879384898791157e-02,-2.573815002838224578e-02,1.118128726151219020e-02,2.983241007670694783e-04,5.523608070223667323e-03,4.027474388506866940e-03,-1.272217598158037304e-02,7.373158017361301081e-03,-1.069162461034815596e-02,-1.617278110272122801e-02,2.015209506817466911e-03,-2.552301244450404585e-02,-2.767577497197602418e-02,-3.822343845448104502e-04,-4.453471341919854748e-02,9.787767318587324225e-03,-3.006023466210218723e-02,9.513063583472508578e-03,2.311782310421560058e-02,-1.861243952100848521e-03,-4.760743215185512384e-02,-1.692882437467445669e-02,2.534053515119812430e-02,-2.330742935475479602e-02,-2.871271770090293857e-02,1.569192086537853775e-02,-3.447265315645859501e-02,-3.824975616341444017e-03,-2.434475375418432199e-03,-3.763475864274739430e-02,1.207830340907955005e-02,-2.512372164358240689e-03,1.861576823844785650e-02,1.596939543203222331e-02,-3.926069222175435081e-03,4.294508837864000235e-03,1.336764889741812526e-02,1.835826951117961944e-02,1.974740295678703572e-02,1.768908812165113226e-02,1.384846475232897299e-02,-8.596647840843096335e-04,-1.056169608082493071e-02,8.720766443803009554e-03,2.948860183186125319e-02,-6.184860125030913931e-03,-7.646228622138850559e-03,3.349296910738318398e-03,-2.587449171093033837e-02,1.709340098693700946e-02,-2.665216615664265862e-02,-9.886454776324018340e-03,3.458666671947450283e-02,-1.034326310447302583e-02,-1.504356606474887420e-02,-7.123607427975080404e-03,-1.685037603674730683e-02,-2.650059557722791656e-02,-1.465319936076335192e-02,1.654802827682104113e-02,-6.928914115014965860e-03,7.794068740795133919e-03,-6.350103440870968376e-03,9.953222018665464424e-03,-1.228221550640074336e-02,-4.657768370026193344e-04,2.598227448466031847e-02,-1.981867407857210509e-02,-8.301431077191799568e-03,-3.202354159807565756e-03,4.056649402448663649e-03,-2.036133878332383948e-02,4.279086548340613888e-03,-2.329570696843073687e-03,-1.121148558009599228e-02,-4.160999375966130398e-02,2.566122980782989740e-02,-2.818409934327443557e-03,-4.223533234776171569e-02,-1.304816501954502751e-02,-1.227174961042454444e-02,1.799379900857437514e-02,2.522630645700156202e-02,1.567913416495356205e-02,-3.786815974041429084e-02,-3.232852122864852962e-02,3.576020472396519018e-02,1.019621486269948508e-02,-1.234230028313625452e-02,-1.306927700783183308e-02,3.475948952645512013e-02,1.654167831842188671e-02,-5.013877282840380374e-03,-9.505205839842677251e-03,-4.971662695195528704e-03,1.739709831431649617e-02,2.324233783396537946e-03,-3.818498086742069114e-02,2.271191682126502340e-02,-1.339362589790560679e-02,2.815829472535849240e-02,9.147858909374034439e-03,-3.057843987047382042e-02,1.115510634988224267e-02,1.631040693506864703e-02,-1.280062858340332878e-02,2.867630038717360053e-02,-2.247221621205009248e-02,-3.076735053374668807e-02,-8.179573671142760169e-03,-2.110000285526744679e-02,-2.215400381737965552e-02,1.815410309640204259e-04,1.000217441085939074e-02,-2.966493013724792304e-03,1.217434155431097731e-02,-4.657805647179965453e-02,1.781102811103919478e-02,-7.029875280162033863e-03,-1.677260102911905595e-02,-2.764778704324681591e-02,-3.566722364246708438e-02,5.380741613523784377e-03,3.872255466079407155e-02,-2.060999319049984860e-02,-1.162137694204881493e-02,-5.301238494442380052e-04,2.715698263712000918e-02,-4.114346363319272733e-03,-2.069029007948208071e-02,4.742630258786936608e-03,2.065162367336476935e-03,-1.715006783096676909e-02,-8.605267482112240532e-03,2.157639171599633546e-02,-2.139394855417911176e-02,3.568221660463043871e-02,-3.546319103744157396e-03,-2.021570203728756746e-02,-2.295066770159728212e-03,-2.373382616661296254e-02,3.019249498378845462e-03,2.236867845565388563e-02,-1.452928389026102683e-02,-5.562990868509742719e-03,1.110438207321038512e-02,-2.092250542354319107e-02,-1.950128317409759865e-02,-7.928470380774096243e-03,-1.096111922160119580e-02,1.282785366039735676e-02,2.114788157705833546e-02,-2.013516393480834638e-02,1.642788422802558129e-02,-1.142986793787017542e-02,-1.603817832477546102e-03,8.343006941046383212e-03,1.839234135139738296e-02,2.909711942540073315e-02,-2.493073258559432709e-02,9.778861044017794421e-03,1.255177305347861608e-02,-1.765077614305830475e-02,-3.143786651540819710e-02,-1.136592898209688555e-02,1.095672506837916220e-02,1.311360080734210939e-02,-1.867900160181566044e-02,-1.740738190515219580e-02,-2.032367914716596505e-03,-1.065576322988931630e-02,1.609684573825985107e-02,9.333666325475142508e-03,2.231530914474454119e-02,2.028286959132290235e-02,-4.855396543206574010e-03,1.213081797248518993e-02,4.525228269615923400e-03,-4.943024747206184802e-03,-3.733956929963972576e-02,-2.077359624937076023e-03,1.128001944796343942e-02,-5.752357915572661566e-03,-1.027814532352344136e-02,2.457789345329650880e-03,2.326134042210289618e-03,5.405100107166269270e-04,-8.679877331269058097e-03,-3.867082592275305347e-02,3.134187190842445403e-02,-1.031863358882399717e-02,2.496998249257293204e-02,-6.595833410206896827e-03,1.469606995131848273e-03,1.823742342593974095e-02,-1.482897942845947184e-02,6.690126964349448618e-03,-9.551005544569980688e-04,-1.245526074013485196e-02,1.558576209783541291e-02,1.131273690211779225e-02,5.649672466369063707e-03,2.109524591969674095e-02,2.711663624081151955e-02,1.613842554485729955e-02,-1.503380903658185601e-02,5.308655813817387409e-03,9.118695812119501434e-03,9.070127610460028758e-03,-1.157105763159496821e-02,1.165276972666445289e-02,1.354157806390105770e-04,8.747193829901451709e-03,9.498195666739069412e-03,4.827224813717907043e-02,-9.258089232463960136e-03,-2.173064724013548492e-03,-2.119410903972595087e-03,5.768603370764927192e-03,-2.265878464981983115e-02,-2.011179958585375752e-02,-1.253098335998255666e-02,1.016497065230769804e-02,-1.539373687692330295e-02,3.777390475744620609e-03,-7.315555764458166535e-03,3.382457063095224703e-02,8.633940589142888658e-03,-2.380543893156263080e-02,7.896683812673577565e-03,-4.003700447841369858e-02,1.524719996420992318e-02,-2.140844529233812063e-02,-2.393493681348652508e-02,3.663842543556354060e-03,7.011590910094064183e-03,4.965871112290323047e-02,2.840054705370784541e-02,2.618111634582372463e-02,1.013698748133239416e-02,1.017626981192705157e-02,8.274270664781105400e-03,-4.319853978542160383e-02,2.819501278201693578e-02,-3.154645688716969237e-02,-4.873390173486612936e-02,-1.215449712240722173e-02,1.606000208933494600e-02,-1.901750358750132000e-02,1.078890867867336213e-02,-2.063675209354243201e-02,1.568432955536470594e-02,-2.772311280520142057e-02,-1.419637738401788654e-02,6.461863649939596048e-03,-1.055372152651164880e-02,1.828173577580022996e-02,-1.214385299255990591e-02,1.391724200420734261e-02,9.539811991741135866e-03,-5.351884017840320695e-03,5.225826549768967932e-02,-2.259127516270376113e-02,-9.466050460443353742e-03,3.241224440535590227e-03,4.886466023808895727e-03,-2.614707389576934049e-02,-2.817596515048572878e-02,-9.753432112230470824e-03,5.685665973700921444e-04,5.005029691223378263e-04,9.565309821978357913e-03,1.903556134774935307e-02,5.358529732754777758e-03,6.296000693596787157e-03,-1.344715155270419238e-02,-1.008204726652373213e-02,-7.856949132231439564e-03,1.815769970473295886e-02,-6.867132602331025085e-03,2.202820534817149373e-02,1.488250893686919075e-02,-6.680099809194951603e-03,2.858391926343860009e-02,-3.211647955140049283e-03,2.897388565039036093e-02,2.550702498508424995e-02,1.110479222205833574e-02,-6.520476032247633259e-03,-1.616183943577803941e-02,-2.047545186991350102e-02,2.289071538485701936e-03,4.038320163724513738e-03,-1.466363989055550349e-02,-1.169261230031296526e-02,-2.434978983894329693e-02,-1.713267628967781592e-03,-1.560164544080782159e-02,-3.751584848901533351e-03,1.255036742485612922e-02,-1.743515590927336226e-02,-4.224217972444150107e-03,-4.924754307841713863e-02,1.213459425177720527e-02,-1.860670311963962334e-02,2.959565391553227454e-02,2.454557529763495491e-02,1.169953975509901815e-02,1.101149514668818379e-02,9.991520960642000238e-03,-1.088197908528699791e-02,1.215592426266007449e-03,1.556120527636348401e-02,4.134779419207046673e-04,-7.274082261558171246e-03,3.519688871765166982e-02,2.337716067138732520e-02,-1.712510048151932515e-02,-2.013177315140235110e-02,-3.526523520667257383e-02,-2.249545122774998171e-02,-2.193170648119675825e-02,-1.704996149179446863e-02,-1.410787944626965863e-02,-7.871146291523615016e-03,2.621142504856081162e-02,-6.398734789225545699e-03,-4.604446485225292124e-02,2.570898437680610351e-03,4.356144359468352295e-02,7.052744346818729448e-04,1.392398003394314243e-02,2.260356333339440249e-02,1.710537703710618071e-02,1.764106565485578509e-02,9.655373540458639728e-03,-2.389918068999076148e-02,1.569451883153826985e-02,-5.685453092942115844e-03,-1.343169383324283907e-02,-1.055307746513196865e-02,-1.311873617314993599e-02,-1.078813924499604556e-03,-2.167917089499635935e-02,2.216726640048049049e-02,3.684871785390345794e-02,9.525181721737675453e-03,4.962379778512900248e-03,-1.358303146534634888e-02,-2.627298782536081553e-02,-9.697287631460108775e-03,-1.755537052824647157e-03,2.216085657056332536e-02,-2.778649962093529893e-02,1.097811213068666109e-02,7.903052434100025711e-03,-1.425585917259757605e-02,-2.018373953914538894e-03,3.611084308036369844e-02,2.571217519484358949e-02,-1.584298770057969083e-02,-3.666632073341356129e-02,-6.697015934711160641e-03,-2.305542294703081391e-02,1.837848680270567567e-02,7.587220436782378050e-03,-7.504708882172524825e-03,6.308030808087367915e-03,1.946921632120951137e-02,3.630142451997898922e-02,-6.055385312344744621e-03,-1.465256079922593740e-02,-3.475559058671038649e-04,7.841757008501575726e-03,-1.312103376724558026e-02,-1.312195216436654738e-02,-2.301959653444135556e-02,9.660529689793896646e-03,-6.895557068054046848e-04,3.926853996859692021e-04,-2.814076331614889792e-02,-5.309563343418088888e-03,1.574759542330990414e-02,7.915000834291120724e-03,4.057418323484410921e-02,-5.570705188638778657e-03,-2.769915925199618921e-04,-1.537745681393589553e-02,5.384697465578341946e-02,-9.720240219018408444e-04,-1.034010068316668085e-02,4.954015761388242366e-03,-1.101003710793714042e-02,3.819006681111457822e-03,-2.791529227764615820e-03,-3.791162405704216060e-02,-3.993093141422815809e-03,-1.250943424819252713e-02,-1.287681725533325154e-02,4.652726188693383919e-02,4.297114146605465063e-03,2.537433731318135960e-02,4.470559956400699773e-03,-3.673072445579351336e-02,1.842155497032860190e-02,1.204694123725720371e-02,-1.365296148921665668e-02,6.163883711763652566e-03,-1.274400520968564307e-02,5.508847607441956853e-03,-8.736608449259868764e-03,-1.417788660345353433e-02,2.344861155941470668e-02,-7.619057161079298597e-03,2.723123653647036360e-02,9.939173519552388023e-03,1.529037462787379356e-02,3.407292277239379157e-03,-1.227830415236909334e-02,1.544597966051935653e-02,-5.974254846662294983e-03,-1.514771791554137166e-02,-1.737682703263040626e-02,-1.428310074206161698e-02,-7.878266185624092574e-03,-9.219329978784433777e-03,-1.358819171472146550e-02,2.961820262755080618e-02,2.306886088980996535e-02,-2.542040062932605926e-03,-4.259198572584104760e-03,6.497484433047190540e-03,-7.690721116981174936e-03,-4.739825883896583124e-03,2.269625372608974345e-02,4.862357496781809577e-03,-2.256089535436361232e-02,-1.222952692968095473e-02,-1.128740326907218781e-03,1.500591944586334402e-02,1.423616455532983500e-02,2.892455563965317528e-03,-1.036323333661527506e-02,4.313855205601333821e-03,2.135108222074958914e-02,2.784988934992496321e-02,1.421172992106514189e-02,-3.488856754329019982e-02,9.880710577935736608e-03,-8.528934108196092878e-03,6.125184501222354083e-03,-1.705504535502802912e-02,-2.171603550590027465e-02,3.299931754569350017e-03,-1.302451917573752525e-02,-1.267055033279594449e-02,-6.572119810142437041e-03,-1.299274737577439144e-02,2.590815539617766575e-02,1.409233379150336835e-02,-9.580425475354703568e-03,-3.120189419373180922e-02,2.093541191645621985e-04,9.196407209308677354e-04,2.024453254704694505e-02,-1.636715527664286268e-02,-1.743752788051310815e-02,1.050169372083306976e-02,-2.686652606578044181e-02,6.470367012500161802e-03,-2.434443392618598333e-03,1.262437493070087298e-02,-4.694252242243391465e-03,2.660022666003752576e-02,1.591205917184546417e-02,1.777211395338878716e-02,3.084075359512133963e-02,-2.115079695701408552e-03,1.888585919069952351e-02,-1.076994716217398451e-02,1.093433242896539939e-02,1.774493788181731244e-02,-4.399925369305984768e-02,9.800322458824609149e-04,1.387021787724348164e-02,3.180859388596548459e-03,-4.035586388093991700e-02,3.605759475577282030e-03,3.341099271508108509e-02,3.000237032286620989e-02,4.731454709140084369e-02,3.013189036228615912e-03,-2.525902810318808589e-03,8.791125678874247076e-03,3.502392554628695059e-02,5.156414365078083005e-03,-1.414463347529164132e-02,1.959197854655107818e-02,2.316167864610200328e-02,1.507366890134247562e-03,9.882449734691862650e-03,1.219543260861804396e-03,-9.204617365824396824e-03,2.962480006753464299e-05,-1.538951140671049496e-02,1.360686497404361289e-02,1.431017874630947581e-02,-3.721990247570201166e-02,-1.107846375476856382e-02,1.626710657453337913e-02,1.464174104558466083e-02,-7.380575988460369441e-03,4.164614314982660256e-03,1.746302429175799337e-02,9.355831157780290785e-03,2.784644887362637197e-02,-1.068539520402576708e-02,3.929572235927797363e-02,1.174248870073603054e-02,-1.822110744987670995e-03,3.008438639040330199e-03,4.198579175020806034e-03,2.038875753818576719e-02,3.258042870812001557e-03,-9.926301641802562706e-03,5.762969815277756494e-03,-2.246934965728047268e-02,-1.472735051727380728e-02,-1.974798098690156919e-02,-1.540584119452423177e-02,1.591332555457564482e-02,1.113325065499503989e-02,1.340405982033790987e-02,1.478787904078584028e-02,-3.706393777101710252e-02,3.074112660860918791e-02,-4.651206599681963899e-02,-1.009938214556628912e-04,-1.470479226473754737e-02,-2.118856428599671243e-02,-1.408768908835004476e-02,3.073725568183181128e-02,-1.338476802732954142e-02,7.545424031472872280e-03,5.007607917840866535e-03,-7.692863240302326086e-03,5.858122438955930093e-03,-3.922790613152204141e-04,3.240615648221065181e-02,-2.530688359300034551e-02,-1.165306739490882919e-02,-1.105611186900521195e-02,1.131629618421564447e-02,3.535483646844870403e-02,3.500591726456942637e-02,-2.669163868334854806e-02,-4.608253141980013338e-03,-8.528361453616203555e-03,-2.532063074460442695e-02,1.686001302485458375e-02,1.494121082545639759e-02,-1.538837512050568457e-02,3.878584761402768550e-03,-4.868340947787419375e-03,9.842429198897521478e-03,-2.329860152575780052e-02,-4.514898194360638523e-03,2.515789227814137913e-02,-9.250262231545958169e-03,-2.066641736311775751e-02,-2.452676048172431483e-02,-1.230378324188719473e-02,1.222771035671672488e-02,-2.497601569813698297e-03,-2.883712628749540707e-02,1.878085701503024244e-02,-1.608049227891451133e-02,-9.653925705986349942e-03,1.154271507442045791e-02,1.886732442072364124e-02,8.009675483355758151e-04,-3.125973477680232815e-02,-8.406790353468361274e-03,3.126652653017495385e-04,2.600924081363686566e-02,-1.282265904226439872e-02,-1.521440364182472665e-02,9.791280077593965403e-03,-1.040250428673332624e-02,-1.764145440519059027e-02,-2.154199253233189670e-02,1.185251769507108394e-02,2.061297513931742084e-02,-1.915772975673294548e-02,-1.031139070746830283e-02,1.091705068959078484e-02,-5.329806955707437968e-03,9.427119797092318662e-03,8.118423310347205879e-03,-3.834843073980943179e-02,-2.204019757148319159e-02,-1.629177757429493487e-02,2.616779449518866901e-02,-5.612786093986638601e-03,-4.371098374520146490e-02,3.597342067900722445e-02,3.272884613237063423e-02,-1.691666750946311084e-03,1.167969065356548250e-02,5.062819490272283361e-03,1.520511410988044203e-02,-5.147378092829055403e-03,2.517579062520108185e-02,-3.548663242571308170e-03,2.510083700909474316e-02,3.902707247073495828e-03,-1.734192878715903538e-02,1.804693424974515570e-02,-2.048789663701996219e-03,-2.316258119320826689e-02,-4.160773042859437082e-02,3.186650333669548141e-02,-2.244002601985617407e-02,9.286335256161694016e-03,-1.937483904404766269e-02,2.005780478836958688e-02,2.563224378073816062e-02,1.326131728944825346e-02,2.030935432051545961e-02,1.520123414315143265e-02,1.025512320046413281e-02,5.939106705512734591e-03,1.450978466042956647e-02,-8.020210345537126528e-03,9.702644602070031269e-04,-1.699524789740765318e-02,-7.144766907180329432e-03,-3.329369777733520719e-02,1.210515529095693849e-02,1.030659961329481907e-02,-1.934545578316433645e-02,3.641243097493924302e-02,-4.220129277340318660e-03,-8.943685232549434400e-03,-2.546901163273039906e-02,4.144789124075566079e-03,6.398118048428735362e-03,1.747739177210204040e-02,-2.685643365052314824e-02,-1.740525006388787127e-02,1.692603827457146715e-02,2.628294980797714342e-02,-3.292547946696401662e-02,-1.807960248807807466e-02,-4.616309492460925201e-03,6.877701788813817170e-03,-2.369968954330284663e-02,-2.406565573132842667e-02,-4.977226407147487819e-02,-2.512614363864734343e-02,-2.776307463052624103e-02,1.829489785966006282e-02,5.712190589072525804e-03,8.389928211349638801e-03,-1.277953835488803737e-02,-1.494327696651169719e-02,1.631436800950191585e-02,-1.823850450181577036e-03,2.357561957797543739e-02,4.060628844694076992e-03,-2.048680876903739151e-02,-1.151896665681785038e-02,2.996077668136926629e-03,-1.651452740585650572e-02,3.737251779944979289e-03,-3.027194062780760517e-02,1.966142686492144270e-02,4.742679124474106882e-03,1.149579929974131783e-02,-7.235149725272982911e-03,-2.184499274802536445e-02,-8.038660755161393043e-03,-5.946642027265342662e-02,6.757991861280405153e-03,-3.102235512103574885e-02,4.992556697392303185e-03,-1.541705382266536119e-02,-4.409397753915948563e-03,-3.143860233198893239e-02,1.632613055738335811e-03,2.033104991597611474e-02,1.624391262624436116e-02,-7.235274557989573689e-03,-1.722235261642323517e-02,1.888675463582057193e-02,9.540683641540754004e-03,-2.003851806561699964e-02,-2.528812459043254871e-02,-5.237580133370582300e-03,1.816203784182921985e-02,4.374417524665120960e-02,-1.062962155331196278e-02,-1.371836531274042530e-02,-9.817119424761818619e-03,-4.375276053443326037e-04,1.461689021769918377e-02,8.350017991057657324e-03,-3.930916335079030766e-02,1.874026363260829827e-03,-7.178363212525659502e-03,-1.401985712762592387e-02,-1.646399239401082765e-02,2.428236304450800270e-02,2.835497309162557291e-03,2.618462448633937512e-02,2.509219327558710050e-02,-1.005303551398842136e-02,6.594528878174984662e-03,2.847426890557574683e-02,-2.297497955422076951e-02,-2.690001011027351105e-02,2.658483242109925884e-02,-3.388565595264651786e-02,4.094857029930412673e-02,-1.961008316952585900e-03,5.991610623780439272e-03,-1.865304588471293490e-02,-6.909954291896558409e-04,-3.803516662220020848e-03,-1.303846333325776700e-02,-3.215987440129220581e-02,-4.590073358112766073e-03,1.050874065770128832e-02,-2.304791722770769408e-02,-4.828838520907545624e-03,-1.831636430821627012e-02,-4.336325736677229536e-02,-1.125618372834966130e-02,4.586050067664868869e-03,2.761565558548210834e-03,4.734567652695638451e-02,8.026704975640173642e-03,2.757604321443362164e-02,2.964759060850691991e-02,-2.959009313926325851e-02,1.011678134435780967e-02,-2.845002013190145711e-03,-4.116067195385320066e-03,-3.076605428822872662e-02,2.493726041119073006e-02,2.525539531352720413e-02,-3.776189805572809522e-03,-2.560938013652309247e-02,2.274694633895208568e-02,9.060937607251240422e-03,7.420323711789007445e-03,-2.170438978850652151e-02,1.953320056260332213e-02,2.388277529191409898e-02,-5.979457949642968950e-03,1.904496471054323292e-02,-5.572719259194687698e-03,-1.831453424871018823e-02,-1.649279375731807148e-02,-1.199882930867631620e-02,2.502474855785105645e-02,7.489070426899428583e-03,-4.505523241454982737e-03,-4.595060798299533886e-03,-1.911901461270129957e-02,-7.697254897766465931e-03,-8.113290735317637507e-04,2.283496627697864049e-03,3.333592512188014896e-04,-5.303144487101929191e-03,-1.156600252008009068e-02,-5.746206813445929769e-03,1.587475942716466693e-02,-5.013001227604775741e-03,-1.361604138373277532e-02,-2.078615398948249066e-02,4.553162302039354820e-03,1.153701487767555545e-02,-3.017158895855243540e-03,-7.698063066290433860e-04,3.709116577101860546e-02,1.877312519963849832e-02,6.188004357940937727e-03,1.741075983217007031e-02,1.303529047719964931e-02,-3.056110138073715038e-02,3.839131985244353083e-03,4.834501877269020177e-05,-1.197274772664718399e-02,1.901962687330453067e-02,-3.126374123695148388e-02,5.974989196754085935e-02,-5.581644843565308940e-03,-3.323305970830015693e-03,-2.715856552153490117e-02,1.312732083509279835e-02,-3.140057807521200867e-02,-2.880560568572842345e-02,-2.178611923475023450e-03,6.381398443762450329e-03,-5.175945351700370761e-02,2.774335041780917263e-02,4.047928521336352677e-03,-1.732756019323146608e-03,1.100611471323174016e-02,1.206936972848484009e-02,9.203439543679166682e-03,8.601032300092797608e-03,-2.599070523883966963e-02,-2.052753287491235288e-03,1.583864574495134903e-02,-3.537254601901506593e-03,2.341445453280613376e-02,-1.890564127182622206e-02,-1.242323151217545295e-02,-2.355607306853158781e-03,1.436960007966975317e-02,-7.264568174551075744e-03,-7.198114059993893782e-04,2.580519994788055271e-02,9.649288188351697743e-03,-7.747032825405971053e-03,8.340028813665797264e-03,-5.247308853519208442e-03,1.275526285335660745e-02,-2.330376765682054888e-02,-2.475678858900347626e-02,-4.661387325378068408e-02,4.657193130033893125e-02,-9.216687904435669904e-03,2.654541949335515599e-02,1.613032390597711821e-02,3.119094057964951188e-03,-1.767550321833539356e-02,-2.859080631633762175e-03,-6.220014589307970750e-03,-1.150670278386453638e-02,1.436210500474663192e-02,-9.079583732845871238e-03,5.007882762975276666e-03,1.943804743176203928e-02,-1.723557718976861941e-02,-3.564582342546694085e-04,-2.068725913031049801e-02,2.521096096758995361e-02,-2.142295877690826925e-02,1.323277237131038897e-02,-1.433627370966712201e-02,-1.440275559287516709e-02,1.367806888398930172e-02,-3.950960457888019056e-03,-1.319833955492542496e-02,3.734166540837433740e-02,-1.103911311688020834e-02,2.644921048329981761e-02,-1.592355940461438399e-02,2.185478693265829539e-02,4.112412901955840583e-02,6.061592543716356855e-03,-4.039745497017995304e-03,-2.726492629034322091e-03,7.990918215444117473e-04,-2.480760152422257711e-02,-3.006832144348989006e-03,4.700761954665590853e-03,1.243217761904712865e-02,2.447077788300592964e-03,1.299124236143464096e-02,4.109522000270861460e-03,-5.610330456303685293e-02,-1.645592519367594653e-02,1.037146054151497597e-02,-3.244862576405659754e-02,-2.112586928357725394e-03,-1.906858289348285079e-02,-1.751775929765565787e-02,-2.616728531002876848e-02,2.483574226225052431e-02,5.113121235349338961e-03,-2.785568669243854850e-02,1.438705756603312139e-02,1.800864097965711869e-02,5.295184305855028892e-04,-2.236094747171276514e-02,-3.630664617330772725e-02,-2.340046082090569725e-03,-3.365493943126938742e-03,-1.002600692279917959e-02,-4.834873466042251960e-02,1.622288942855715232e-02,-2.953964344144801787e-02,-1.073330607604528787e-02,2.214989347235698375e-02,1.508853327310049654e-02,-1.085523652260227817e-02,1.282797847317617996e-03,3.356947290533381957e-03,2.726250122694464447e-05,1.161341720524029439e-02,-1.130777976966361800e-02,-3.908308945618191484e-03,3.819709055733345321e-02,-3.754646220320027872e-02,2.646507757289456170e-03,-1.368057257748434702e-02,1.869880906930107556e-02,-5.725660656864365455e-03,4.381042346560217599e-02,6.580047711314857169e-03,6.616124802769551491e-03,-1.392793120535712470e-02,2.497649717781212295e-03,-1.930866476262748516e-02,2.000626556673876927e-02,5.830846131682046983e-03,1.982573446969996059e-02,-1.022252345723625652e-02,3.629816690383398659e-02,-1.915873355436243861e-02,3.482238381269815025e-02,-4.650741238140751813e-03,1.644839025409959576e-02,8.388549245159807738e-03,-2.814999992442196453e-02,-3.659883466690084207e-03,-8.388440965437744118e-03,6.362949725964919812e-03,4.166290829910106880e-02,-8.018962265445218895e-03,-3.005368684448588359e-02,4.052021785871284983e-03,-5.640837665990079165e-03,-1.203699779140814628e-02,1.392752595801034082e-02,-5.401642260412427982e-02,-3.855020283268960606e-03,-1.522540468434839707e-02,-1.375494582962772348e-03,1.110448846319370304e-02,-4.073240026008838853e-03,2.716901751898283951e-02,-1.201488755647897762e-02,1.519374117336762600e-02,-1.531067349076782429e-02,5.323495978938700421e-04,5.291627667937171854e-03,3.095770924490917966e-02,-2.921463842261013202e-02,-3.673587133609173064e-03,6.523342941172647312e-03,9.718833532583889823e-03,3.268495803965330154e-02,3.056027140669993064e-02,9.228981255195483485e-03,-3.433619117147270351e-03,2.684024469364888667e-03,-1.683270910656850874e-02,-4.168012340616800149e-02,5.825574857033451182e-03,-4.524950695700191705e-03,3.191040514727710303e-02,5.138457977627445064e-03,-4.784237066011579054e-02,1.434889245948110445e-02,5.557498315013962957e-03,-8.567248580644104376e-05,3.150042626490553999e-02,-1.720340514831746048e-02,-3.999039152682386244e-02,2.309437250979631817e-02,-4.826999736858386160e-03,1.574244101717649225e-02,-2.402467597104288900e-03,2.157029536865059591e-02,-1.147218564564356615e-03,-2.123564590317803327e-02,2.153382696035406954e-02,-1.314853256079580660e-02,1.019247464631740062e-02,-2.447611998421485996e-02,4.000705576181467354e-03,2.238199857378098123e-02,2.013044334846141384e-02,2.148238386917030243e-02,3.556104632699646616e-03,-1.971129986622219624e-02,-3.202018959217768634e-02,-5.932466055258136563e-03,-8.109464766804408854e-04,2.675910861515596803e-02,-7.214229950602618277e-03,1.470770219032004576e-02,-3.924438505308096986e-02,1.483217858200307215e-02,1.698427169516773198e-03,-3.250040320227876381e-03,-3.372609544206862930e-02,1.451993451104269250e-02,2.063062533280490135e-02,-4.313545074933689688e-03,2.717729040989183900e-02,2.954867791649127889e-04,-4.713954999921178210e-03,-7.944480620410561758e-03,1.065633355318168322e-02,-4.601390783762294989e-03,-2.089063051395399426e-02,-4.711504152000098311e-03,1.111927592648065052e-02,-2.948984989208416202e-02,-1.505488221888939479e-02,-1.478920280503960225e-02,1.379336047936081770e-02,-3.237631841866377147e-02,7.960839637537164490e-03,-1.794112102730591185e-02,2.333763669019804643e-02,2.011979357153066347e-02,1.087408041537230030e-02,-1.353695396905948240e-04,-8.957531107303285528e-03,1.011529078242558426e-05,7.384395527471181511e-03,1.470002699183871504e-02,-2.379074189442186363e-02,2.167281465262005640e-03,-4.982073247229056728e-02,1.550069821916245753e-02,8.916162087977616557e-03,2.178148180780715461e-03,1.845290758857758354e-02,-3.064612835657187784e-02,4.690788744522970607e-03,2.611553293634771497e-02,-8.342382414666734292e-04,1.522889109883771887e-02,-1.366138463819355220e-02,-2.245211284715759384e-02,2.819061701789428442e-02,3.868042152141778914e-04,-7.866002390255925208e-03,-8.106178048745674505e-03,-2.889927307924666268e-03,-2.864782630247667602e-03,1.762116118801519693e-02,1.163454210464002093e-03,-1.824904531673028976e-02,-2.935641304020549956e-04,-2.472170177135975949e-02,1.273634526097175076e-02,-2.886496981231859507e-02,4.235163446087117020e-03,2.817119129597715071e-02,-2.257952113853949408e-02,5.691399443072204557e-03,1.854564130369656255e-02,1.398381093334132713e-02,-2.706813282149632405e-02,2.166181666794094601e-02,-5.683632454094016823e-03,3.093116334231529874e-02,1.599762871070529308e-02,-3.139720010164689934e-02,4.723032766376604051e-04,-4.053915818079024611e-03,1.100538968815585779e-03,-1.513747860215625129e-02,8.945365112198325544e-03,2.366569472923179748e-02,-1.886428855707918475e-02,-2.102545955733955627e-02,-2.142095273457164141e-03,-1.506730553187041535e-02,-4.006494086237103597e-03,-7.248913008001059942e-03,-2.350111311975786391e-02,-2.547025851893116102e-02,-4.475173506041036156e-03,-5.851191707673123387e-04,9.922625170099071135e-03,2.427938003538911496e-03,2.007905513579012063e-02,9.989917706687305096e-03,-5.857003349596360924e-03,1.908952154313054740e-03,-4.026066865370952000e-03,4.318994222815487785e-04,-3.148965921947737001e-03,1.104608375419040972e-02,1.148922517217390929e-02,3.610725660222802169e-02,2.173925974300708634e-04,-2.723254278729280928e-02,-1.139571996647566546e-02,8.639842359337358054e-04,-3.862498806086651221e-02,1.439252995267525231e-02,-1.144235610802278721e-03,-7.058629648587837375e-03,-8.303947407012787080e-03,1.671998257213702654e-02,3.204245222138257798e-02,1.469615269605557351e-04,3.362225000582640642e-03,2.443168693361678738e-03,-2.995766193221774745e-02,2.060823361453475999e-02,1.575504516430892288e-02,1.177100653805171178e-03,-3.452413151425855198e-02,2.596292718824411497e-02,1.908001364475092262e-02,1.510533323648274862e-02,-2.808933122458735082e-02,7.832491494895899020e-03,1.698290737379706469e-02,1.129348484026595351e-03,-1.400584967336539373e-02,1.187557180733952826e-02,1.042972008234821675e-02,2.754634158111334344e-02,-2.917511252988373716e-02,-2.016080210855198708e-03,-1.196522718030573404e-02,-1.427004495325770450e-02,-2.979130575321090740e-02,4.391973740684748662e-02,-9.442707932468576149e-03,-2.604196571906734065e-02,1.497680439026631560e-02,2.304248907757341577e-02,2.939225051626153523e-02,2.911290582391316828e-02,-1.769408147181148958e-02,-4.567633813978756036e-02,2.524441274924571054e-03,3.086142892707792722e-03,1.160483056811062496e-03,-4.725689926157890762e-03,-9.850689428900662528e-03,8.264452510427284029e-03,3.650978841184834064e-03,2.087815449048812874e-02,2.923369820949419870e-02,-3.756093536781547615e-02,3.806681719121602497e-02,-2.160361682868590025e-02,-5.836880560853731532e-03,5.966273592187586530e-03,1.551709423966701577e-02,-1.356725967382582838e-02,-1.343952519185973374e-02,-2.510254407285002556e-03,-1.102292465326664295e-03,1.878724831166991046e-04,-2.549295597267132920e-03,-4.935399568686581369e-03,1.142795630418780468e-02,-4.589256090321768185e-03,8.607852199788418313e-02,4.532373920955423165e-03,3.014276398823472619e-02,3.734398390207950558e-02,1.504584270492991503e-03,9.451647245901384845e-03,8.302221135247289316e-03,2.852918505333540498e-03,6.860266236216068687e-03,1.047209181953607723e-02,-1.802694422763075413e-02,2.027721415867889468e-02,-3.841755276826025294e-03,2.270917070748087628e-04,-3.491908232194596701e-02,1.158360413234789214e-02,9.802122142158560883e-03,-1.163093939094475039e-02,3.228121521456329968e-02,-2.763700464771165141e-02,-3.492786525625411059e-02,-1.694382987540444521e-03,1.740304208794810764e-02,-1.207267810400068815e-02,9.393643008334784383e-03,2.762258952080949310e-03,3.922625204304347642e-03,-1.492374632277432452e-02,-1.559640522717271188e-02,-2.019225342433527901e-02,-4.575213253018326843e-04,8.710604340972205595e-03,-1.396499007917134140e-02,-1.979498492547339047e-02,-1.708591762538877283e-03,2.729391802652665969e-02,1.550213478235148643e-02,-1.231309766345321625e-02,-1.267483114751654337e-02,1.670451790378556321e-03,2.253222417241423220e-02,-1.631553624597701854e-02,1.531855264996939583e-04,1.082878209889415536e-02,-6.212103202159137590e-03,3.577315396586258633e-02,2.891404244182174330e-02,3.200037112545300877e-02,-9.991296182337124770e-03,-2.520849602672707666e-03,2.760590006765725074e-04,-4.222497059294099547e-02,1.951789614188861530e-02,2.199750024039232379e-02,-4.378695391298070491e-03,-3.646777656801665490e-02,2.031674845696836151e-02,9.091606146055669635e-03,-1.956836804249820205e-02,9.257715440875172869e-03,3.369999542821108807e-02,1.714536256615278864e-02,-2.131097370313813841e-02,1.242065654696550628e-02,-4.529639076802961795e-03,-1.200644546185361018e-02,4.209324836881415260e-03,-4.311041808058903302e-02,3.499351659996228353e-02,3.070516893678555334e-02,-1.078189080616897937e-02,1.679262701282864534e-02,-2.921653071247429581e-03,1.112242869143924111e-02,-1.967444884340673744e-02,1.235137589087029197e-02,-8.695093645963183210e-03,1.015869626153592317e-02,1.648434560819336814e-02,1.051134348748788104e-02,-1.096597290475006918e-02,2.227007673136008337e-03,-2.901240434922094588e-02,1.599576267089034692e-02,-5.306279842119828415e-04,3.014901696112788458e-03,1.318673448258122875e-02,-7.400345886246684560e-03,-6.791494659630002879e-03,-2.899456276977443320e-02,-2.334680874012477411e-02,3.452175308742459064e-02,1.223558258063137116e-02,2.195244547522566189e-02,2.244634197946952445e-02,3.488248490951965930e-02,-1.522682735720119057e-02,2.627302077036267058e-02,-2.272977263615607452e-02,-6.327717034881418998e-03,5.426298194297212406e-03,-2.315220570149673779e-02,1.498464877668671640e-02,8.344709711476004047e-04,-1.076650284329900772e-02,-1.413832892770113328e-03,-1.861783734610110473e-03,-1.934847158676950701e-02,-4.182774931074130335e-03,1.082863686357154499e-02,7.675862623697547260e-04,2.627932224246303655e-02,2.750682217201772146e-03,-1.968970656903610769e-02,-1.674766021721459455e-02,-1.397733456075299363e-02,1.207464871759834565e-02,-3.579388742270356305e-02,-1.415742513107793449e-02,-1.465598956178753957e-02,-9.735847933624775311e-03,1.819426860999497769e-02,-3.750825533189173968e-03,-3.418664851108724808e-03,3.366375336037144735e-03,-3.083687942447146599e-02,3.151644096480195247e-03,2.045580552086474768e-02,-3.769641947354745309e-02,2.120161682031813585e-02,9.187813304643917701e-04,-1.635318993009562613e-02,-1.791420214543226665e-03,-3.031165694537524442e-03,8.601926925979313382e-03,-6.207984650617502306e-03,-4.107798926213240831e-02,-1.321795798935936073e-02,1.750267128248166396e-02,4.931774559237784433e-03,6.670810415520174799e-03,2.001366680241568538e-02,-2.863956167758109628e-02,-2.693801815004237283e-03,-1.379234829365187480e-02,2.470521566661151511e-02,-1.700666963146033051e-02,2.752277912778854779e-02,1.940790629042583176e-02,-1.024716262600642441e-02,-1.986544207881944454e-02,-2.091901225619629059e-02,5.337367812428411851e-03,-1.626706932554648072e-02,1.552933930356838362e-02,-9.537735620814759285e-03,-1.320377041586105228e-02,3.967817035223585552e-03,9.175437891215771150e-03,1.091278905667335611e-02,-2.454853026473617899e-03,-3.700833881796502731e-03,5.103562483935285277e-02,-2.090181693009373134e-02,-1.332867651268273071e-02,8.239235683632075563e-03,-3.607669843144453714e-02,-2.561741602622824576e-02,-1.362585239236307859e-02,7.482117359504202167e-04,-1.428986827735864371e-02,1.353897580714604094e-02,-1.090154408950314881e-02,-1.192945346730164835e-02,2.583580804120894775e-02,1.491167220627657476e-02,-5.801722831393820584e-03,-2.444754563470482797e-02,-3.616285528027499141e-02,5.968587041349274723e-03,3.185128956249974608e-02,9.787738875084868104e-03,-1.266503001490000384e-02,-3.786359858753731746e-03,-1.835766515920541492e-02,-1.180608070403772573e-02,1.644392286428451172e-02,-3.676189853241744465e-03,3.868238693798764071e-03,-2.466753963434049901e-02,7.354521578003276466e-03,-9.487938348664279320e-03,-3.103245854539690880e-03,3.652880354453711884e-03,-1.415456429423584414e-03,-4.267770938648213566e-03,2.008113615832609472e-02,7.606080427444901829e-03,3.383450601461650969e-02,-1.680110840437766193e-02,-7.461140015965053718e-03,-4.238278830690025284e-03,-2.199853975002564674e-02,8.597877562233180448e-03,-2.460642389055864993e-02,7.634877209493895305e-03,-2.182259830056839517e-02,2.419133818891593471e-02,1.407327857850637284e-02,-3.936259292026681594e-02,-2.235470046308331293e-02,1.412839788543380918e-03,3.366960177505492341e-02,-3.438047576064356958e-02,-2.748250261885485345e-03,4.280236738901707638e-02,4.118998256176904793e-03,6.566423604305565275e-05,-1.271477775743544598e-02,-3.949239696761780438e-04,-8.950760044636804982e-03,-1.539815028694094950e-02,7.977668272938526206e-03,-1.808071599584862950e-03,1.719221565674185562e-02,-1.567658597343401378e-02,-1.296680127255936572e-02,-3.010282812618107762e-02,-1.648772086087758187e-02,2.227880139794058498e-03,3.164287977801568015e-03,2.229603662791792770e-02,1.304108283974655079e-02,-9.407721408109855771e-03,3.723584987387303156e-04,-3.516541304481395069e-02,-1.820815486420890653e-02,-4.439581847202063447e-02,3.509934204796718443e-02,4.288153964301291872e-03,3.208004493051438630e-03,2.098583104852353928e-02,-5.682809613493247647e-02,5.121616247451482584e-02,-3.445391745714905529e-02,3.574806423288899582e-02,1.370405631282290565e-02,-3.962002613660967759e-02,2.907961596738142113e-02,-1.136870790836674253e-03,-2.269845183807557565e-02,7.743423057270056031e-03,-1.526514844623768144e-02,8.689594545992525634e-03,2.086730791312915376e-02,-3.423032474345111958e-02,1.303763440165492220e-02,7.854309670942000166e-03,2.207063127342866540e-02,1.004419746407629772e-02,9.081252958470977660e-03,4.274034677716107705e-02,1.234761935468432943e-02,-2.079033245170515756e-02,4.539045975317760814e-03,-6.837752330284438580e-03,-1.786774546026485486e-02,-1.764491815716717066e-02,-8.233356674019077365e-03,-5.981863505140940819e-03,-8.649532365416578647e-03,-1.707208846029601573e-02,2.282436572961387550e-02,2.622601690191595294e-02,-1.981882204753151414e-03,-4.781916355879561702e-04,1.279365771075615874e-02,-2.057393369811815614e-02,4.156244297333836629e-02,-5.408019456299020117e-02,1.568929123638204345e-02,9.694644215346482925e-04,-1.501879053450965937e-02,-1.617260386087514528e-03,-2.161951047416618352e-02,-1.134048892065439573e-02,-6.309821093045044071e-03,-3.322776413440972805e-03,3.398289514730149321e-04,2.646980525189547920e-02,-3.631558746853916220e-02,1.487510640353271497e-02,2.340651254601787065e-02,6.688955027610855343e-03,-2.536816347320543924e-02,-8.362693754959465639e-04,-1.594570111349147626e-02,1.426107183700473825e-02,-3.986444797331002016e-03,1.484661857247792337e-02,-1.346085835093134044e-02,2.437543445555444277e-02,-1.682769021775675986e-02,-2.062408681604105398e-02,1.138651052615228913e-02,2.239521318723104032e-02,-9.660133661039906408e-03,-2.807790077893000669e-02,-6.127537610858251049e-02,-1.685545747646171461e-02,-1.575809353777619937e-02,3.320177896526185432e-03,-2.457234376660992828e-02,-3.254062920720015260e-03,-1.092156232117535986e-02,-2.587052349957411068e-02,-1.991499733893929008e-03,1.262419710276422441e-02,-2.501421163161224315e-02,1.915481017741421307e-02,2.488335044692815794e-03,-4.676592698811671105e-03,5.554546653224515934e-02,2.317335492101658956e-02,1.179734035074062048e-02,1.540544704982917644e-02,3.471314077086278677e-02,1.576081450447634758e-02,-1.343190329851513126e-02,-2.367496249628669308e-02,-5.016038537025936314e-03,5.835209920543735045e-03,2.031125178661534469e-02,-1.776307647076496438e-02,2.094269119096248133e-02,2.267046897196329375e-02,-1.028629073192400233e-02,4.343447217317192299e-03,-2.901706165576662180e-02,2.548029801410785222e-02,9.229603359609371213e-03,-1.637572392727050172e-02,-4.025829675825463166e-02,5.838634762071509728e-03,-1.762732394832283375e-02,-8.381966713985257444e-03,3.218539241852344523e-02,1.489946473691432932e-02,-3.090274133979523802e-02,1.380500661177065484e-02,-1.005196541364479328e-02,2.641551840282811703e-02,3.113903845555493488e-02,-2.455963140441506931e-02,-2.100474623935277146e-02,1.568471335626660029e-03,1.575335016537066785e-02,-1.093441932068578426e-02,-1.944833428260504815e-02,1.789766175048865954e-02,1.693774999010845550e-02,-9.795629510896223038e-03,-6.828641271776128389e-03,-9.843623615342690994e-03,-6.075991444909382110e-03,-1.242204021029178103e-02,-6.093951590183998429e-02,9.577211897308510885e-03,-3.268956015089803657e-02,1.844636619608033910e-03,-3.070081274498780155e-02,1.464204376065668910e-02,1.847778297180762211e-03,-1.222866203693087107e-02,-2.069983437240557889e-02,-2.267380630694295230e-03,1.790494081592592865e-02,-4.514951451550498762e-02,-4.863752118929686591e-02,-1.636705445456944699e-02,-1.405569721271885536e-02,1.453674310500957696e-02,2.408046399789984943e-02,-3.375339799104858096e-02,1.172030337961685233e-03,-2.447383217599773814e-02,7.928461064920672499e-03,-7.007759111480428094e-04,4.679010108922705864e-03,-3.182732216577722952e-03,-1.183461274142528184e-02,3.329059601509156384e-03,4.811796843030868159e-02,2.071206915713361477e-02,7.282270717244346790e-03,5.854961242751032489e-04,-7.109295142697698126e-03,-1.070098619159394471e-02,1.514581013508447746e-02,-2.554425292465183506e-03,2.599365426305541224e-02,-4.649309798455122239e-03,-2.815979238661860812e-02,3.602921441735146106e-03,1.152586892525858664e-02,-1.095398852859839206e-02,3.734406040211652594e-02,-1.561605056261501298e-02,-1.445342269535421394e-02,-7.688542714838209058e-03,-8.713635223739680385e-03,1.059918896235821466e-02,-3.317565414882162056e-02,1.730517569633463482e-02,3.446111227655998532e-02,-4.650681478257223146e-03,3.839245371417758512e-02,-2.617877082848146797e-02,3.075898215587123327e-02,6.924200507410708215e-03,-9.615387316897136549e-03,-4.877609536647717348e-03,2.890381991393822098e-02,4.921362729276961695e-02,-1.447807123878961863e-02,-2.235873273499341257e-02,8.630028613663824275e-03,-2.836822718119287948e-02,1.381193775074766698e-02,-2.668444930957363653e-02,2.109188377512186824e-02,6.662181167980502430e-03,-1.451134366603539123e-02,-2.254671973876842209e-03,-1.433865105456526463e-02,3.970167544423161099e-04,-3.178501125666907678e-02,2.345859445377391009e-02,-1.036252237824245893e-02,-1.213324608456309642e-02,7.694689406257850493e-03,-3.255070880138990000e-03,1.020617476395764556e-02,1.553723336197174176e-02,-4.088239997336510709e-03,-2.411426870659966887e-02,-2.405035665809696424e-02,-1.826401285385758147e-02,-1.144504999830088261e-03,1.088513097210581752e-02,2.135596031776313547e-02,1.016376402329603919e-02,3.295672796519704545e-02,8.196515540983774842e-03,9.564751342602758472e-03,1.339895864471006733e-02,5.972546037478109610e-03,-1.517984743447037786e-02,2.836081627282687964e-02,2.300366116360720928e-02,-2.382489498581602180e-02,-3.210938616438643173e-02,2.002843902557682743e-02,-4.053202889278759852e-02,5.517837196989752897e-03,6.983354966509243943e-04,-4.040446287261807712e-02,-2.227076043919320320e-02,3.069212782345264942e-02,-1.390146027197470754e-02,2.569535235148427341e-02,2.386295356367827691e-03,7.826950385021718554e-03,1.898303743009303879e-02,6.268493091984895810e-04,-3.202679916746436952e-03,-3.093885732216889763e-03,2.937237671601343751e-04,-2.027841545541493942e-02,-9.724129498938844859e-03,1.115095861601885820e-02,7.490005907771543799e-03,-3.627188163282681760e-02,-4.042706934739506014e-02,-8.786001990802497219e-03,4.271888981560502743e-03,3.874258357115354517e-02,-4.828873022746832389e-02,-1.909309039628761390e-02,-3.237477188848149334e-02,8.444631585102016502e-03,1.459639322649993430e-02,-1.139393594098842347e-02,